{
  "model_type": "decision_tree",
  "features": [
    "Flow Duration",
    "Total Fwd Packets",
    "Total Backward Packets",
    "Total Length of Bwd Packets",
    "Flow Packets/s",
    "SYN Flag Count",
    "ACK Flag Count",
    "RST Flag Count",
    "Destination Port",
    "Fwd Packet Length Mean",
    "Fwd Packet Length Std",
    "Bwd Packet Length Mean",
    "Bwd Packet Length Std",
    "Packet Length Mean",
    "Packet Length Std",
    "Flow IAT Mean",
    "Flow IAT Std",
    "Fwd Packets/s",
    "Bwd Packets/s",
    "Average Packet Size",
    "Down/Up Ratio"
  ],
  "n_features": 21,
  "scaler_mean": [
    14790727.647473367,
    9.475732219422712,
    10.568863987976838,
    16461.154293860232,
    70799.49423070477,
    0.046421783141051144,
    0.31547628519648147,
    0.00024046324536975645,
    8070.843846969898,
    58.285984904929734,
    68.97519402343774,
    306.3216603707828,
    335.6682184974051,
    172.20120017412984,
    295.3704723654706,
    1300267.7468947396,
    2923372.4856587485,
    63883.832738843346,
    6998.315065464844,
    192.26732086555378,
    0.6839415638951509
  ],
  "scaler_scale": [
    33656207.73934454,
    767.6955890755416,
    1025.9201774996855,
    2303957.831102451,
    254356.48244780814,
    0.210396770866514,
    0.4647052815227193,
    0.015505012828030254,
    18286.29134349643,
    186.54738476282836,
    281.7205063245016,
    605.744908215865,
    840.255060335727,
    305.86096204681513,
    632.4909113644638,
    4513859.356411316,
    8055855.44157537,
    247559.2469779774,
    38210.28383965192,
    332.2446517445071,
    0.6761204380744039
  ],
  "lr_threshold": 0.8031892321973213,
  "n_nodes": 3369,
  "children_left": [
    1,
    2,
    3,
    4,
    5,
    6,
    7,
    8,
    9,
    10,
    -1,
    12,
    13,
    14,
    15,
    16,
    -1,
    -1,
    19,
    -1,
    -1,
    -1,
    -1,
    24,
    -1,
    -1,
    27,
    28,
    29,
    -1,
    -1,
    32,
    33,
    -1,
    -1,
    -1,
    37,
    -1,
    39,
    -1,
    -1,
    42,
    43,
    44,
    45,
    46,
    47,
    48,
    49,
    50,
    51,
    -1,
    -1,
    54,
    -1,
    56,
    -1,
    -1,
    59,
    -1,
    -1,
    62,
    -1,
    64,
    65,
    -1,
    67,
    -1,
    -1,
    -1,
    71,
    72,
    73,
    74,
    75,
    76,
    -1,
    -1,
    -1,
    80,
    81,
    -1,
    -1,
    84,
    -1,
    -1,
    87,
    -1,
    -1,
    90,
    91,
    92,
    93,
    -1,
    -1,
    96,
    -1,
    -1,
    -1,
    100,
    101,
    102,
    -1,
    -1,
    105,
    -1,
    -1,
    108,
    109,
    -1,
    -1,
    -1,
    113,
    114,
    -1,
    -1,
    -1,
    118,
    119,
    120,
    121,
    122,
    -1,
    124,
    125,
    -1,
    -1,
    128,
    -1,
    -1,
    -1,
    132,
    133,
    134,
    -1,
    136,
    -1,
    -1,
    -1,
    140,
    141,
    -1,
    143,
    -1,
    -1,
    146,
    -1,
    -1,
    149,
    150,
    -1,
    152,
    -1,
    -1,
    -1,
    156,
    157,
    158,
    159,
    160,
    161,
    -1,
    -1,
    164,
    -1,
    -1,
    167,
    168,
    -1,
    -1,
    171,
    -1,
    -1,
    174,
    175,
    176,
    -1,
    -1,
    179,
    -1,
    -1,
    182,
    -1,
    -1,
    185,
    -1,
    187,
    -1,
    -1,
    -1,
    191,
    192,
    193,
    -1,
    195,
    196,
    -1,
    -1,
    199,
    -1,
    -1,
    202,
    203,
    204,
    205,
    206,
    207,
    -1,
    -1,
    -1,
    -1,
    212,
    -1,
    -1,
    215,
    216,
    -1,
    218,
    219,
    -1,
    -1,
    -1,
    223,
    -1,
    225,
    -1,
    -1,
    228,
    229,
    230,
    -1,
    -1,
    233,
    -1,
    -1,
    -1,
    237,
    -1,
    239,
    240,
    241,
    -1,
    -1,
    244,
    -1,
    246,
    -1,
    248,
    -1,
    -1,
    251,
    252,
    253,
    254,
    255,
    -1,
    -1,
    -1,
    259,
    260,
    -1,
    -1,
    263,
    -1,
    -1,
    -1,
    -1,
    268,
    269,
    270,
    271,
    272,
    273,
    274,
    275,
    276,
    -1,
    -1,
    -1,
    280,
    -1,
    282,
    -1,
    -1,
    285,
    -1,
    287,
    288,
    -1,
    -1,
    -1,
    292,
    293,
    294,
    295,
    -1,
    -1,
    -1,
    299,
    300,
    -1,
    -1,
    303,
    -1,
    -1,
    306,
    -1,
    308,
    -1,
    -1,
    311,
    312,
    313,
    314,
    315,
    -1,
    -1,
    318,
    -1,
    -1,
    321,
    -1,
    -1,
    324,
    325,
    -1,
    -1,
    -1,
    329,
    330,
    331,
    332,
    -1,
    -1,
    -1,
    336,
    337,
    -1,
    -1,
    340,
    -1,
    -1,
    -1,
    344,
    345,
    346,
    347,
    348,
    349,
    -1,
    -1,
    352,
    -1,
    -1,
    355,
    356,
    -1,
    -1,
    359,
    -1,
    -1,
    362,
    363,
    364,
    -1,
    -1,
    -1,
    368,
    369,
    -1,
    -1,
    372,
    -1,
    -1,
    375,
    376,
    377,
    -1,
    -1,
    380,
    -1,
    -1,
    383,
    384,
    -1,
    386,
    -1,
    -1,
    389,
    390,
    -1,
    -1,
    393,
    -1,
    -1,
    396,
    397,
    -1,
    399,
    400,
    401,
    -1,
    -1,
    404,
    -1,
    -1,
    407,
    408,
    -1,
    -1,
    411,
    -1,
    -1,
    -1,
    415,
    416,
    417,
    418,
    419,
    420,
    421,
    -1,
    -1,
    -1,
    -1,
    426,
    427,
    428,
    -1,
    -1,
    431,
    -1,
    -1,
    434,
    435,
    -1,
    -1,
    438,
    -1,
    -1,
    441,
    442,
    -1,
    -1,
    445,
    446,
    -1,
    -1,
    449,
    -1,
    451,
    -1,
    -1,
    454,
    455,
    456,
    457,
    458,
    -1,
    -1,
    461,
    -1,
    -1,
    464,
    -1,
    466,
    -1,
    -1,
    469,
    470,
    471,
    -1,
    -1,
    474,
    -1,
    -1,
    477,
    478,
    -1,
    -1,
    481,
    -1,
    -1,
    484,
    -1,
    486,
    -1,
    488,
    -1,
    -1,
    491,
    492,
    493,
    -1,
    495,
    -1,
    -1,
    -1,
    -1,
    500,
    501,
    502,
    503,
    504,
    505,
    506,
    507,
    -1,
    -1,
    510,
    -1,
    -1,
    513,
    514,
    -1,
    -1,
    517,
    -1,
    -1,
    520,
    521,
    522,
    -1,
    -1,
    525,
    -1,
    -1,
    528,
    529,
    -1,
    -1,
    532,
    -1,
    -1,
    535,
    536,
    537,
    -1,
    539,
    -1,
    -1,
    542,
    543,
    -1,
    -1,
    -1,
    547,
    548,
    549,
    -1,
    -1,
    552,
    -1,
    -1,
    -1,
    -1,
    557,
    558,
    -1,
    560,
    561,
    562,
    -1,
    564,
    -1,
    -1,
    567,
    568,
    -1,
    -1,
    -1,
    572,
    573,
    -1,
    575,
    -1,
    -1,
    -1,
    579,
    580,
    581,
    582,
    583,
    -1,
    -1,
    -1,
    587,
    -1,
    589,
    -1,
    -1,
    592,
    593,
    594,
    -1,
    -1,
    597,
    -1,
    -1,
    600,
    -1,
    602,
    -1,
    -1,
    605,
    -1,
    -1,
    608,
    609,
    610,
    611,
    -1,
    613,
    614,
    -1,
    616,
    -1,
    -1,
    619,
    620,
    -1,
    -1,
    623,
    -1,
    -1,
    626,
    627,
    628,
    629,
    -1,
    -1,
    632,
    -1,
    -1,
    -1,
    636,
    637,
    638,
    -1,
    -1,
    641,
    -1,
    -1,
    -1,
    645,
    646,
    -1,
    648,
    -1,
    650,
    -1,
    -1,
    653,
    -1,
    -1,
    656,
    657,
    658,
    -1,
    660,
    661,
    662,
    -1,
    -1,
    -1,
    666,
    -1,
    -1,
    -1,
    670,
    -1,
    -1,
    673,
    -1,
    675,
    676,
    677,
    678,
    -1,
    -1,
    681,
    682,
    -1,
    -1,
    -1,
    686,
    -1,
    688,
    -1,
    690,
    691,
    -1,
    693,
    -1,
    -1,
    696,
    -1,
    -1,
    699,
    -1,
    701,
    -1,
    703,
    -1,
    -1,
    706,
    707,
    708,
    709,
    710,
    711,
    712,
    713,
    714,
    715,
    716,
    -1,
    -1,
    -1,
    720,
    721,
    -1,
    -1,
    -1,
    -1,
    726,
    -1,
    728,
    729,
    -1,
    731,
    -1,
    -1,
    734,
    735,
    -1,
    -1,
    738,
    -1,
    -1,
    741,
    -1,
    -1,
    744,
    -1,
    746,
    747,
    -1,
    -1,
    750,
    751,
    -1,
    -1,
    754,
    755,
    -1,
    757,
    -1,
    -1,
    760,
    761,
    -1,
    -1,
    -1,
    765,
    -1,
    -1,
    768,
    769,
    -1,
    771,
    -1,
    -1,
    -1,
    775,
    -1,
    -1,
    778,
    -1,
    -1,
    781,
    782,
    783,
    784,
    785,
    786,
    787,
    788,
    -1,
    790,
    791,
    -1,
    -1,
    794,
    -1,
    -1,
    797,
    -1,
    -1,
    800,
    -1,
    802,
    -1,
    -1,
    805,
    806,
    807,
    -1,
    809,
    810,
    811,
    -1,
    -1,
    -1,
    -1,
    816,
    -1,
    -1,
    -1,
    820,
    821,
    -1,
    823,
    824,
    825,
    826,
    -1,
    -1,
    829,
    -1,
    831,
    -1,
    -1,
    834,
    -1,
    836,
    -1,
    -1,
    839,
    -1,
    -1,
    -1,
    843,
    844,
    845,
    846,
    847,
    848,
    849,
    -1,
    851,
    -1,
    -1,
    -1,
    855,
    856,
    -1,
    -1,
    -1,
    860,
    -1,
    -1,
    863,
    864,
    -1,
    -1,
    867,
    -1,
    -1,
    870,
    871,
    872,
    873,
    -1,
    875,
    876,
    877,
    878,
    -1,
    -1,
    881,
    -1,
    -1,
    884,
    885,
    -1,
    -1,
    888,
    -1,
    -1,
    891,
    -1,
    893,
    894,
    -1,
    -1,
    897,
    -1,
    -1,
    900,
    901,
    902,
    -1,
    904,
    -1,
    -1,
    -1,
    908,
    909,
    -1,
    -1,
    -1,
    -1,
    914,
    915,
    -1,
    917,
    -1,
    919,
    -1,
    -1,
    922,
    -1,
    924,
    -1,
    -1,
    927,
    -1,
    929,
    930,
    -1,
    -1,
    -1,
    934,
    935,
    936,
    937,
    -1,
    -1,
    940,
    941,
    -1,
    -1,
    -1,
    945,
    -1,
    -1,
    948,
    -1,
    950,
    -1,
    -1,
    953,
    954,
    955,
    956,
    957,
    958,
    -1,
    960,
    961,
    -1,
    -1,
    964,
    965,
    -1,
    -1,
    968,
    969,
    -1,
    -1,
    -1,
    -1,
    974,
    975,
    976,
    977,
    978,
    -1,
    980,
    -1,
    -1,
    -1,
    984,
    985,
    986,
    987,
    988,
    -1,
    -1,
    -1,
    -1,
    -1,
    -1,
    995,
    996,
    -1,
    998,
    999,
    1000,
    1001,
    -1,
    -1,
    -1,
    -1,
    -1,
    1007,
    1008,
    -1,
    1010,
    -1,
    1012,
    -1,
    1014,
    -1,
    -1,
    1017,
    1018,
    -1,
    1020,
    -1,
    -1,
    1023,
    -1,
    -1,
    -1,
    1027,
    1028,
    1029,
    1030,
    1031,
    -1,
    -1,
    -1,
    1035,
    1036,
    1037,
    -1,
    1039,
    -1,
    -1,
    1042,
    1043,
    1044,
    -1,
    1046,
    -1,
    -1,
    1049,
    1050,
    -1,
    -1,
    1053,
    -1,
    -1,
    1056,
    1057,
    -1,
    1059,
    -1,
    -1,
    1062,
    1063,
    -1,
    -1,
    1066,
    -1,
    -1,
    1069,
    1070,
    1071,
    -1,
    -1,
    1074,
    -1,
    -1,
    1077,
    -1,
    -1,
    1080,
    1081,
    1082,
    1083,
    -1,
    1085,
    -1,
    1087,
    1088,
    -1,
    -1,
    1091,
    -1,
    -1,
    1094,
    1095,
    1096,
    1097,
    -1,
    -1,
    -1,
    -1,
    -1,
    1103,
    -1,
    -1,
    1106,
    1107,
    -1,
    1109,
    -1,
    1111,
    -1,
    1113,
    -1,
    1115,
    -1,
    -1,
    1118,
    1119,
    1120,
    -1,
    1122,
    1123,
    -1,
    -1,
    1126,
    -1,
    -1,
    1129,
    1130,
    1131,
    -1,
    -1,
    1134,
    -1,
    -1,
    1137,
    1138,
    -1,
    -1,
    -1,
    -1,
    1143,
    1144,
    1145,
    -1,
    1147,
    -1,
    1149,
    1150,
    -1,
    1152,
    -1,
    -1,
    1155,
    -1,
    1157,
    -1,
    -1,
    1160,
    -1,
    -1,
    1163,
    1164,
    -1,
    -1,
    -1,
    1168,
    1169,
    1170,
    1171,
    1172,
    1173,
    1174,
    1175,
    1176,
    -1,
    -1,
    1179,
    -1,
    -1,
    1182,
    1183,
    -1,
    -1,
    -1,
    -1,
    1188,
    1189,
    1190,
    -1,
    -1,
    1193,
    1194,
    -1,
    -1,
    -1,
    1198,
    -1,
    -1,
    1201,
    -1,
    1203,
    -1,
    -1,
    1206,
    1207,
    -1,
    -1,
    1210,
    -1,
    -1,
    1213,
    1214,
    1215,
    1216,
    -1,
    -1,
    -1,
    1220,
    -1,
    -1,
    1223,
    -1,
    -1,
    1226,
    -1,
    -1,
    1229,
    -1,
    1231,
    -1,
    -1,
    1234,
    1235,
    1236,
    1237,
    -1,
    -1,
    1240,
    1241,
    -1,
    1243,
    -1,
    -1,
    1246,
    -1,
    -1,
    1249,
    1250,
    1251,
    -1,
    1253,
    -1,
    1255,
    1256,
    -1,
    -1,
    -1,
    1260,
    -1,
    -1,
    1263,
    1264,
    -1,
    1266,
    -1,
    1268,
    -1,
    -1,
    1271,
    1272,
    -1,
    1274,
    -1,
    -1,
    1277,
    -1,
    -1,
    1280,
    1281,
    -1,
    -1,
    -1,
    1285,
    1286,
    1287,
    1288,
    1289,
    1290,
    1291,
    1292,
    1293,
    1294,
    1295,
    1296,
    1297,
    1298,
    -1,
    -1,
    1301,
    1302,
    -1,
    -1,
    -1,
    1306,
    -1,
    -1,
    1309,
    1310,
    1311,
    1312,
    -1,
    -1,
    1315,
    -1,
    -1,
    -1,
    1319,
    1320,
    -1,
    -1,
    1323,
    1324,
    -1,
    -1,
    1327,
    -1,
    -1,
    1330,
    1331,
    1332,
    1333,
    1334,
    -1,
    -1,
    1337,
    -1,
    -1,
    -1,
    1341,
    1342,
    1343,
    -1,
    -1,
    1346,
    -1,
    -1,
    1349,
    1350,
    -1,
    -1,
    1353,
    -1,
    -1,
    1356,
    1357,
    1358,
    1359,
    -1,
    -1,
    1362,
    -1,
    -1,
    -1,
    1366,
    1367,
    -1,
    -1,
    1370,
    -1,
    1372,
    -1,
    -1,
    1375,
    1376,
    -1,
    -1,
    1379,
    1380,
    1381,
    -1,
    -1,
    1384,
    1385,
    -1,
    1387,
    -1,
    -1,
    1390,
    -1,
    -1,
    -1,
    1394,
    1395,
    1396,
    1397,
    1398,
    1399,
    -1,
    1401,
    -1,
    -1,
    1404,
    -1,
    -1,
    1407,
    -1,
    1409,
    1410,
    -1,
    -1,
    -1,
    1414,
    1415,
    1416,
    -1,
    -1,
    1419,
    -1,
    -1,
    1422,
    1423,
    1424,
    -1,
    -1,
    -1,
    1428,
    -1,
    1430,
    -1,
    -1,
    1433,
    1434,
    -1,
    -1,
    1437,
    1438,
    1439,
    1440,
    -1,
    -1,
    1443,
    -1,
    -1,
    1446,
    1447,
    -1,
    -1,
    1450,
    -1,
    -1,
    1453,
    1454,
    1455,
    -1,
    -1,
    -1,
    1459,
    1460,
    -1,
    -1,
    1463,
    -1,
    -1,
    1466,
    1467,
    1468,
    1469,
    1470,
    1471,
    -1,
    -1,
    1474,
    -1,
    -1,
    1477,
    1478,
    -1,
    -1,
    1481,
    -1,
    -1,
    1484,
    1485,
    -1,
    -1,
    1488,
    1489,
    -1,
    -1,
    -1,
    1493,
    -1,
    1495,
    1496,
    -1,
    -1,
    1499,
    1500,
    -1,
    -1,
    1503,
    -1,
    -1,
    1506,
    -1,
    -1,
    1509,
    1510,
    1511,
    1512,
    1513,
    1514,
    1515,
    1516,
    -1,
    -1,
    1519,
    -1,
    -1,
    -1,
    1523,
    1524,
    1525,
    -1,
    -1,
    1528,
    -1,
    -1,
    1531,
    1532,
    -1,
    -1,
    1535,
    -1,
    -1,
    1538,
    1539,
    1540,
    -1,
    1542,
    -1,
    -1,
    1545,
    1546,
    -1,
    -1,
    1549,
    -1,
    -1,
    1552,
    1553,
    1554,
    -1,
    -1,
    1557,
    -1,
    -1,
    1560,
    -1,
    1562,
    -1,
    -1,
    1565,
    1566,
    1567,
    1568,
    1569,
    -1,
    -1,
    -1,
    1573,
    1574,
    -1,
    -1,
    1577,
    -1,
    -1,
    1580,
    1581,
    1582,
    -1,
    -1,
    1585,
    -1,
    -1,
    1588,
    1589,
    -1,
    -1,
    1592,
    -1,
    -1,
    1595,
    1596,
    1597,
    1598,
    -1,
    -1,
    1601,
    -1,
    -1,
    1604,
    -1,
    -1,
    1607,
    1608,
    1609,
    -1,
    -1,
    1612,
    -1,
    -1,
    1615,
    1616,
    -1,
    -1,
    1619,
    -1,
    -1,
    1622,
    1623,
    -1,
    -1,
    1626,
    1627,
    1628,
    -1,
    -1,
    1631,
    1632,
    -1,
    -1,
    1635,
    1636,
    -1,
    -1,
    -1,
    1640,
    1641,
    1642,
    -1,
    -1,
    1645,
    -1,
    1647,
    -1,
    -1,
    1650,
    1651,
    1652,
    -1,
    -1,
    1655,
    -1,
    -1,
    1658,
    1659,
    -1,
    -1,
    1662,
    -1,
    -1,
    1665,
    1666,
    1667,
    1668,
    1669,
    1670,
    1671,
    -1,
    -1,
    1674,
    -1,
    -1,
    -1,
    1678,
    -1,
    1680,
    -1,
    1682,
    -1,
    -1,
    1685,
    1686,
    1687,
    1688,
    -1,
    -1,
    1691,
    -1,
    -1,
    1694,
    1695,
    -1,
    -1,
    -1,
    1699,
    -1,
    1701,
    1702,
    -1,
    -1,
    1705,
    -1,
    -1,
    1708,
    1709,
    1710,
    -1,
    1712,
    -1,
    -1,
    1715,
    1716,
    1717,
    -1,
    -1,
    1720,
    -1,
    -1,
    -1,
    1724,
    -1,
    1726,
    1727,
    -1,
    -1,
    1730,
    1731,
    -1,
    -1,
    1734,
    -1,
    -1,
    1737,
    1738,
    -1,
    1740,
    -1,
    -1,
    1743,
    1744,
    1745,
    1746,
    1747,
    -1,
    -1,
    1750,
    -1,
    -1,
    1753,
    -1,
    1755,
    -1,
    -1,
    -1,
    1759,
    -1,
    1761,
    -1,
    -1,
    1764,
    1765,
    1766,
    1767,
    1768,
    1769,
    1770,
    1771,
    1772,
    -1,
    -1,
    1775,
    -1,
    -1,
    1778,
    1779,
    -1,
    -1,
    1782,
    -1,
    -1,
    1785,
    1786,
    -1,
    -1,
    1789,
    1790,
    -1,
    -1,
    1793,
    -1,
    -1,
    1796,
    -1,
    1798,
    1799,
    -1,
    -1,
    -1,
    1803,
    1804,
    -1,
    1806,
    1807,
    -1,
    -1,
    1810,
    -1,
    -1,
    -1,
    1814,
    -1,
    -1,
    1817,
    1818,
    1819,
    1820,
    1821,
    1822,
    1823,
    -1,
    -1,
    -1,
    1827,
    1828,
    -1,
    -1,
    1831,
    -1,
    -1,
    1834,
    1835,
    -1,
    -1,
    -1,
    1839,
    -1,
    -1,
    1842,
    -1,
    1844,
    1845,
    -1,
    -1,
    1848,
    1849,
    1850,
    -1,
    -1,
    -1,
    1854,
    1855,
    -1,
    -1,
    -1,
    1859,
    1860,
    1861,
    1862,
    -1,
    1864,
    -1,
    1866,
    -1,
    -1,
    1869,
    -1,
    -1,
    1872,
    1873,
    -1,
    1875,
    1876,
    -1,
    -1,
    1879,
    -1,
    -1,
    1882,
    -1,
    1884,
    1885,
    -1,
    -1,
    1888,
    -1,
    -1,
    1891,
    -1,
    1893,
    1894,
    1895,
    -1,
    -1,
    -1,
    1899,
    -1,
    -1,
    1902,
    1903,
    1904,
    1905,
    1906,
    -1,
    1908,
    1909,
    -1,
    -1,
    1912,
    1913,
    -1,
    -1,
    1916,
    -1,
    -1,
    1919,
    -1,
    -1,
    1922,
    -1,
    1924,
    1925,
    -1,
    -1,
    1928,
    -1,
    -1,
    1931,
    1932,
    -1,
    -1,
    1935,
    1936,
    -1,
    1938,
    1939,
    1940,
    -1,
    -1,
    -1,
    1944,
    -1,
    1946,
    -1,
    -1,
    1949,
    1950,
    1951,
    -1,
    1953,
    -1,
    -1,
    1956,
    1957,
    -1,
    -1,
    -1,
    1961,
    -1,
    1963,
    -1,
    1965,
    -1,
    -1,
    1968,
    1969,
    1970,
    1971,
    1972,
    -1,
    1974,
    -1,
    -1,
    1977,
    1978,
    -1,
    1980,
    -1,
    -1,
    -1,
    1984,
    -1,
    1986,
    1987,
    -1,
    -1,
    -1,
    1991,
    -1,
    1993,
    -1,
    1995,
    1996,
    1997,
    -1,
    -1,
    2000,
    -1,
    -1,
    2003,
    2004,
    -1,
    -1,
    2007,
    -1,
    -1,
    2010,
    -1,
    2012,
    2013,
    -1,
    -1,
    -1,
    2017,
    2018,
    2019,
    2020,
    2021,
    -1,
    2023,
    -1,
    -1,
    -1,
    2027,
    -1,
    -1,
    2030,
    2031,
    -1,
    2033,
    -1,
    2035,
    -1,
    -1,
    2038,
    -1,
    -1,
    -1,
    2042,
    -1,
    -1,
    2045,
    -1,
    -1,
    2048,
    -1,
    2050,
    -1,
    -1,
    2053,
    2054,
    -1,
    2056,
    -1,
    -1,
    -1,
    2060,
    2061,
    -1,
    2063,
    2064,
    -1,
    2066,
    -1,
    -1,
    -1,
    2070,
    2071,
    2072,
    2073,
    -1,
    2075,
    -1,
    -1,
    2078,
    -1,
    -1,
    2081,
    -1,
    2083,
    -1,
    2085,
    -1,
    -1,
    2088,
    2089,
    -1,
    2091,
    2092,
    2093,
    2094,
    2095,
    2096,
    2097,
    2098,
    2099,
    2100,
    -1,
    2102,
    2103,
    -1,
    -1,
    -1,
    -1,
    -1,
    2109,
    -1,
    -1,
    -1,
    2113,
    2114,
    2115,
    2116,
    2117,
    -1,
    -1,
    2120,
    -1,
    2122,
    2123,
    -1,
    -1,
    -1,
    2127,
    -1,
    -1,
    2130,
    2131,
    -1,
    -1,
    2134,
    2135,
    -1,
    -1,
    -1,
    2139,
    -1,
    2141,
    2142,
    2143,
    2144,
    2145,
    -1,
    -1,
    -1,
    -1,
    2150,
    -1,
    -1,
    2153,
    -1,
    2155,
    -1,
    2157,
    2158,
    -1,
    -1,
    2161,
    -1,
    -1,
    2164,
    -1,
    -1,
    2167,
    2168,
    2169,
    -1,
    -1,
    -1,
    2173,
    -1,
    2175,
    2176,
    2177,
    -1,
    2179,
    -1,
    2181,
    2182,
    -1,
    2184,
    -1,
    -1,
    2187,
    -1,
    2189,
    -1,
    -1,
    2192,
    -1,
    -1,
    2195,
    -1,
    2197,
    -1,
    2199,
    -1,
    2201,
    2202,
    2203,
    -1,
    -1,
    -1,
    2207,
    -1,
    -1,
    2210,
    -1,
    2212,
    2213,
    2214,
    2215,
    2216,
    2217,
    2218,
    -1,
    -1,
    2221,
    -1,
    -1,
    2224,
    2225,
    2226,
    2227,
    -1,
    -1,
    -1,
    2231,
    -1,
    2233,
    -1,
    -1,
    2236,
    2237,
    2238,
    -1,
    -1,
    -1,
    2242,
    -1,
    2244,
    -1,
    -1,
    2247,
    2248,
    2249,
    -1,
    2251,
    -1,
    2253,
    -1,
    -1,
    -1,
    -1,
    2258,
    -1,
    -1,
    2261,
    2262,
    2263,
    -1,
    -1,
    2266,
    -1,
    2268,
    2269,
    2270,
    2271,
    -1,
    -1,
    2274,
    -1,
    -1,
    2277,
    -1,
    -1,
    2280,
    -1,
    2282,
    -1,
    -1,
    -1,
    2286,
    2287,
    -1,
    2289,
    2290,
    -1,
    -1,
    2293,
    2294,
    -1,
    2296,
    -1,
    2298,
    -1,
    -1,
    -1,
    2302,
    2303,
    -1,
    2305,
    2306,
    -1,
    -1,
    2309,
    -1,
    2311,
    2312,
    2313,
    -1,
    -1,
    -1,
    -1,
    -1,
    2319,
    2320,
    2321,
    2322,
    2323,
    2324,
    2325,
    2326,
    2327,
    2328,
    2329,
    -1,
    -1,
    -1,
    2333,
    -1,
    2335,
    -1,
    -1,
    2338,
    -1,
    2340,
    -1,
    2342,
    -1,
    -1,
    2345,
    -1,
    -1,
    2348,
    2349,
    2350,
    2351,
    2352,
    -1,
    -1,
    2355,
    -1,
    -1,
    2358,
    -1,
    -1,
    2361,
    2362,
    2363,
    -1,
    -1,
    2366,
    -1,
    -1,
    2369,
    2370,
    -1,
    -1,
    2373,
    -1,
    -1,
    2376,
    2377,
    2378,
    -1,
    2380,
    -1,
    -1,
    2383,
    -1,
    -1,
    -1,
    2387,
    -1,
    2389,
    -1,
    2391,
    -1,
    2393,
    2394,
    2395,
    -1,
    -1,
    2398,
    -1,
    -1,
    -1,
    -1,
    -1,
    2404,
    2405,
    2406,
    2407,
    -1,
    2409,
    2410,
    -1,
    2412,
    -1,
    2414,
    -1,
    2416,
    -1,
    -1,
    2419,
    -1,
    2421,
    2422,
    -1,
    2424,
    -1,
    -1,
    -1,
    -1,
    -1,
    2430,
    2431,
    2432,
    -1,
    -1,
    -1,
    2436,
    -1,
    2438,
    2439,
    -1,
    -1,
    -1,
    -1,
    -1,
    2445,
    2446,
    -1,
    2448,
    -1,
    2450,
    2451,
    2452,
    -1,
    2454,
    2455,
    2456,
    2457,
    -1,
    2459,
    -1,
    2461,
    -1,
    -1,
    2464,
    2465,
    -1,
    2467,
    2468,
    -1,
    -1,
    2471,
    -1,
    2473,
    2474,
    -1,
    -1,
    -1,
    -1,
    2479,
    2480,
    2481,
    -1,
    2483,
    -1,
    2485,
    -1,
    -1,
    -1,
    2489,
    -1,
    2491,
    -1,
    2493,
    2494,
    -1,
    -1,
    -1,
    2498,
    2499,
    2500,
    2501,
    2502,
    -1,
    2504,
    -1,
    -1,
    -1,
    2508,
    2509,
    2510,
    2511,
    -1,
    2513,
    2514,
    -1,
    -1,
    2517,
    -1,
    2519,
    -1,
    -1,
    2522,
    2523,
    -1,
    2525,
    -1,
    -1,
    2528,
    -1,
    -1,
    2531,
    2532,
    -1,
    -1,
    2535,
    2536,
    2537,
    2538,
    -1,
    -1,
    -1,
    -1,
    -1,
    2544,
    2545,
    -1,
    2547,
    2548,
    2549,
    2550,
    -1,
    -1,
    2553,
    -1,
    -1,
    -1,
    2557,
    2558,
    2559,
    -1,
    -1,
    2562,
    -1,
    -1,
    2565,
    2566,
    -1,
    -1,
    -1,
    2570,
    -1,
    2572,
    2573,
    2574,
    -1,
    -1,
    -1,
    -1,
    2579,
    2580,
    -1,
    2582,
    2583,
    -1,
    2585,
    -1,
    -1,
    -1,
    2589,
    2590,
    2591,
    -1,
    2593,
    2594,
    -1,
    -1,
    2597,
    -1,
    -1,
    2600,
    2601,
    2602,
    -1,
    2604,
    2605,
    -1,
    -1,
    2608,
    -1,
    -1,
    2611,
    2612,
    2613,
    -1,
    -1,
    -1,
    -1,
    -1,
    2619,
    -1,
    2621,
    -1,
    -1,
    2624,
    2625,
    2626,
    -1,
    -1,
    2629,
    -1,
    2631,
    2632,
    2633,
    2634,
    2635,
    2636,
    -1,
    -1,
    -1,
    2640,
    2641,
    -1,
    -1,
    -1,
    -1,
    2646,
    2647,
    2648,
    -1,
    -1,
    -1,
    2652,
    -1,
    2654,
    -1,
    -1,
    2657,
    2658,
    2659,
    2660,
    -1,
    2662,
    -1,
    -1,
    -1,
    2666,
    -1,
    2668,
    2669,
    -1,
    -1,
    2672,
    -1,
    -1,
    -1,
    2676,
    2677,
    -1,
    2679,
    -1,
    -1,
    2682,
    -1,
    2684,
    2685,
    -1,
    -1,
    2688,
    2689,
    2690,
    2691,
    -1,
    2693,
    -1,
    -1,
    2696,
    -1,
    2698,
    -1,
    -1,
    2701,
    -1,
    2703,
    2704,
    -1,
    -1,
    2707,
    -1,
    -1,
    2710,
    -1,
    -1,
    2713,
    2714,
    2715,
    -1,
    -1,
    -1,
    2719,
    -1,
    -1,
    2722,
    -1,
    -1,
    2725,
    -1,
    2727,
    2728,
    -1,
    2730,
    -1,
    -1,
    -1,
    2734,
    2735,
    2736,
    -1,
    2738,
    2739,
    -1,
    2741,
    2742,
    -1,
    2744,
    -1,
    -1,
    2747,
    -1,
    -1,
    2750,
    2751,
    2752,
    -1,
    -1,
    2755,
    -1,
    -1,
    2758,
    -1,
    -1,
    2761,
    -1,
    2763,
    -1,
    -1,
    2766,
    2767,
    2768,
    2769,
    2770,
    2771,
    2772,
    -1,
    2774,
    2775,
    2776,
    -1,
    -1,
    -1,
    2780,
    -1,
    -1,
    2783,
    -1,
    -1,
    -1,
    2787,
    -1,
    -1,
    2790,
    -1,
    -1,
    2793,
    2794,
    -1,
    -1,
    2797,
    -1,
    -1,
    2800,
    -1,
    2802,
    2803,
    2804,
    2805,
    -1,
    2807,
    -1,
    2809,
    2810,
    -1,
    -1,
    -1,
    2814,
    -1,
    -1,
    2817,
    2818,
    2819,
    2820,
    2821,
    2822,
    2823,
    2824,
    -1,
    2826,
    2827,
    2828,
    -1,
    2830,
    2831,
    -1,
    -1,
    -1,
    2835,
    2836,
    -1,
    -1,
    -1,
    2840,
    2841,
    2842,
    2843,
    -1,
    -1,
    2846,
    -1,
    -1,
    -1,
    -1,
    -1,
    2852,
    2853,
    2854,
    2855,
    2856,
    2857,
    2858,
    -1,
    -1,
    2861,
    -1,
    -1,
    2864,
    2865,
    -1,
    -1,
    2868,
    -1,
    -1,
    2871,
    2872,
    2873,
    -1,
    -1,
    2876,
    -1,
    -1,
    2879,
    -1,
    2881,
    -1,
    -1,
    -1,
    2885,
    2886,
    2887,
    -1,
    2889,
    2890,
    -1,
    -1,
    -1,
    2894,
    -1,
    -1,
    2897,
    -1,
    2899,
    2900,
    -1,
    -1,
    2903,
    -1,
    -1,
    2906,
    2907,
    2908,
    2909,
    -1,
    -1,
    -1,
    -1,
    2914,
    2915,
    2916,
    -1,
    -1,
    2919,
    -1,
    -1,
    2922,
    2923,
    2924,
    -1,
    -1,
    -1,
    -1,
    2929,
    2930,
    -1,
    2932,
    2933,
    2934,
    -1,
    2936,
    -1,
    -1,
    2939,
    -1,
    2941,
    -1,
    -1,
    -1,
    -1,
    2946,
    2947,
    2948,
    2949,
    2950,
    2951,
    2952,
    2953,
    2954,
    -1,
    -1,
    2957,
    -1,
    -1,
    2960,
    2961,
    -1,
    -1,
    2964,
    -1,
    -1,
    2967,
    2968,
    2969,
    -1,
    -1,
    2972,
    -1,
    -1,
    2975,
    2976,
    -1,
    -1,
    2979,
    -1,
    -1,
    2982,
    2983,
    2984,
    2985,
    -1,
    -1,
    2988,
    -1,
    -1,
    2991,
    -1,
    -1,
    -1,
    2995,
    2996,
    -1,
    -1,
    -1,
    3000,
    -1,
    -1,
    3003,
    3004,
    3005,
    3006,
    3007,
    -1,
    3009,
    3010,
    -1,
    -1,
    3013,
    -1,
    -1,
    3016,
    3017,
    3018,
    -1,
    -1,
    3021,
    -1,
    -1,
    3024,
    3025,
    -1,
    -1,
    3028,
    -1,
    -1,
    3031,
    3032,
    3033,
    -1,
    3035,
    -1,
    -1,
    3038,
    -1,
    -1,
    3041,
    3042,
    -1,
    -1,
    3045,
    3046,
    -1,
    -1,
    3049,
    -1,
    -1,
    3052,
    3053,
    3054,
    3055,
    3056,
    -1,
    -1,
    3059,
    -1,
    -1,
    3062,
    3063,
    -1,
    -1,
    3066,
    -1,
    -1,
    3069,
    3070,
    3071,
    -1,
    -1,
    3074,
    -1,
    -1,
    3077,
    3078,
    -1,
    -1,
    3081,
    -1,
    -1,
    3084,
    3085,
    3086,
    3087,
    -1,
    -1,
    3090,
    -1,
    -1,
    3093,
    3094,
    -1,
    -1,
    3097,
    -1,
    -1,
    -1,
    3101,
    -1,
    -1,
    3104,
    -1,
    -1,
    3107,
    -1,
    -1,
    3110,
    3111,
    3112,
    -1,
    3114,
    -1,
    3116,
    -1,
    -1,
    3119,
    3120,
    3121,
    3122,
    3123,
    3124,
    3125,
    3126,
    -1,
    3128,
    -1,
    -1,
    3131,
    -1,
    -1,
    -1,
    3135,
    3136,
    -1,
    -1,
    3139,
    3140,
    -1,
    -1,
    -1,
    3144,
    -1,
    3146,
    -1,
    -1,
    3149,
    3150,
    3151,
    3152,
    3153,
    3154,
    -1,
    -1,
    -1,
    -1,
    3159,
    3160,
    -1,
    -1,
    3163,
    3164,
    -1,
    -1,
    3167,
    -1,
    -1,
    3170,
    -1,
    3172,
    3173,
    -1,
    3175,
    -1,
    -1,
    -1,
    3179,
    3180,
    3181,
    -1,
    3183,
    -1,
    -1,
    -1,
    3187,
    3188,
    -1,
    3190,
    3191,
    -1,
    -1,
    -1,
    3195,
    3196,
    -1,
    3198,
    -1,
    -1,
    3201,
    3202,
    -1,
    -1,
    3205,
    -1,
    -1,
    3208,
    -1,
    -1,
    3211,
    3212,
    -1,
    3214,
    -1,
    -1,
    -1,
    3218,
    -1,
    3220,
    3221,
    -1,
    3223,
    3224,
    -1,
    3226,
    -1,
    -1,
    3229,
    -1,
    -1,
    3232,
    3233,
    3234,
    -1,
    -1,
    3237,
    3238,
    3239,
    3240,
    3241,
    -1,
    3243,
    -1,
    -1,
    3246,
    -1,
    -1,
    3249,
    3250,
    -1,
    -1,
    3253,
    3254,
    -1,
    -1,
    3257,
    -1,
    -1,
    3260,
    -1,
    -1,
    3263,
    -1,
    -1,
    3266,
    -1,
    3268,
    -1,
    -1,
    3271,
    3272,
    -1,
    -1,
    3275,
    -1,
    -1,
    3278,
    3279,
    3280,
    -1,
    3282,
    3283,
    3284,
    3285,
    3286,
    -1,
    -1,
    3289,
    -1,
    -1,
    3292,
    3293,
    3294,
    -1,
    -1,
    3297,
    -1,
    3299,
    -1,
    -1,
    3302,
    -1,
    -1,
    -1,
    3306,
    -1,
    -1,
    3309,
    -1,
    3311,
    -1,
    -1,
    -1,
    3315,
    3316,
    3317,
    -1,
    3319,
    3320,
    3321,
    3322,
    3323,
    -1,
    3325,
    3326,
    -1,
    3328,
    -1,
    -1,
    3331,
    -1,
    3333,
    -1,
    -1,
    -1,
    3337,
    3338,
    3339,
    3340,
    3341,
    -1,
    -1,
    -1,
    3345,
    -1,
    -1,
    3348,
    -1,
    -1,
    3351,
    -1,
    -1,
    3354,
    -1,
    -1,
    3357,
    -1,
    -1,
    3360,
    3361,
    -1,
    -1,
    -1,
    3365,
    -1,
    3367,
    -1,
    -1
  ],
  "children_right": [
    3314,
    2733,
    2444,
    2059,
    1284,
    1233,
    780,
    41,
    26,
    11,
    -1,
    23,
    22,
    21,
    18,
    17,
    -1,
    -1,
    20,
    -1,
    -1,
    -1,
    -1,
    25,
    -1,
    -1,
    36,
    31,
    30,
    -1,
    -1,
    35,
    34,
    -1,
    -1,
    -1,
    38,
    -1,
    40,
    -1,
    -1,
    705,
    672,
    267,
    190,
    117,
    70,
    61,
    58,
    53,
    52,
    -1,
    -1,
    55,
    -1,
    57,
    -1,
    -1,
    60,
    -1,
    -1,
    63,
    -1,
    69,
    66,
    -1,
    68,
    -1,
    -1,
    -1,
    112,
    89,
    86,
    79,
    78,
    77,
    -1,
    -1,
    -1,
    83,
    82,
    -1,
    -1,
    85,
    -1,
    -1,
    88,
    -1,
    -1,
    99,
    98,
    95,
    94,
    -1,
    -1,
    97,
    -1,
    -1,
    -1,
    107,
    104,
    103,
    -1,
    -1,
    106,
    -1,
    -1,
    111,
    110,
    -1,
    -1,
    -1,
    116,
    115,
    -1,
    -1,
    -1,
    155,
    148,
    131,
    130,
    123,
    -1,
    127,
    126,
    -1,
    -1,
    129,
    -1,
    -1,
    -1,
    139,
    138,
    135,
    -1,
    137,
    -1,
    -1,
    -1,
    145,
    142,
    -1,
    144,
    -1,
    -1,
    147,
    -1,
    -1,
    154,
    151,
    -1,
    153,
    -1,
    -1,
    -1,
    189,
    184,
    173,
    166,
    163,
    162,
    -1,
    -1,
    165,
    -1,
    -1,
    170,
    169,
    -1,
    -1,
    172,
    -1,
    -1,
    181,
    178,
    177,
    -1,
    -1,
    180,
    -1,
    -1,
    183,
    -1,
    -1,
    186,
    -1,
    188,
    -1,
    -1,
    -1,
    236,
    201,
    194,
    -1,
    198,
    197,
    -1,
    -1,
    200,
    -1,
    -1,
    227,
    214,
    211,
    210,
    209,
    208,
    -1,
    -1,
    -1,
    -1,
    213,
    -1,
    -1,
    222,
    217,
    -1,
    221,
    220,
    -1,
    -1,
    -1,
    224,
    -1,
    226,
    -1,
    -1,
    235,
    232,
    231,
    -1,
    -1,
    234,
    -1,
    -1,
    -1,
    238,
    -1,
    250,
    243,
    242,
    -1,
    -1,
    245,
    -1,
    247,
    -1,
    249,
    -1,
    -1,
    266,
    265,
    258,
    257,
    256,
    -1,
    -1,
    -1,
    262,
    261,
    -1,
    -1,
    264,
    -1,
    -1,
    -1,
    -1,
    499,
    414,
    343,
    310,
    291,
    284,
    279,
    278,
    277,
    -1,
    -1,
    -1,
    281,
    -1,
    283,
    -1,
    -1,
    286,
    -1,
    290,
    289,
    -1,
    -1,
    -1,
    305,
    298,
    297,
    296,
    -1,
    -1,
    -1,
    302,
    301,
    -1,
    -1,
    304,
    -1,
    -1,
    307,
    -1,
    309,
    -1,
    -1,
    328,
    323,
    320,
    317,
    316,
    -1,
    -1,
    319,
    -1,
    -1,
    322,
    -1,
    -1,
    327,
    326,
    -1,
    -1,
    -1,
    342,
    335,
    334,
    333,
    -1,
    -1,
    -1,
    339,
    338,
    -1,
    -1,
    341,
    -1,
    -1,
    -1,
    395,
    374,
    361,
    354,
    351,
    350,
    -1,
    -1,
    353,
    -1,
    -1,
    358,
    357,
    -1,
    -1,
    360,
    -1,
    -1,
    367,
    366,
    365,
    -1,
    -1,
    -1,
    371,
    370,
    -1,
    -1,
    373,
    -1,
    -1,
    382,
    379,
    378,
    -1,
    -1,
    381,
    -1,
    -1,
    388,
    385,
    -1,
    387,
    -1,
    -1,
    392,
    391,
    -1,
    -1,
    394,
    -1,
    -1,
    413,
    398,
    -1,
    406,
    403,
    402,
    -1,
    -1,
    405,
    -1,
    -1,
    410,
    409,
    -1,
    -1,
    412,
    -1,
    -1,
    -1,
    490,
    453,
    440,
    425,
    424,
    423,
    422,
    -1,
    -1,
    -1,
    -1,
    433,
    430,
    429,
    -1,
    -1,
    432,
    -1,
    -1,
    437,
    436,
    -1,
    -1,
    439,
    -1,
    -1,
    444,
    443,
    -1,
    -1,
    448,
    447,
    -1,
    -1,
    450,
    -1,
    452,
    -1,
    -1,
    483,
    468,
    463,
    460,
    459,
    -1,
    -1,
    462,
    -1,
    -1,
    465,
    -1,
    467,
    -1,
    -1,
    476,
    473,
    472,
    -1,
    -1,
    475,
    -1,
    -1,
    480,
    479,
    -1,
    -1,
    482,
    -1,
    -1,
    485,
    -1,
    487,
    -1,
    489,
    -1,
    -1,
    498,
    497,
    494,
    -1,
    496,
    -1,
    -1,
    -1,
    -1,
    607,
    556,
    555,
    534,
    519,
    512,
    509,
    508,
    -1,
    -1,
    511,
    -1,
    -1,
    516,
    515,
    -1,
    -1,
    518,
    -1,
    -1,
    527,
    524,
    523,
    -1,
    -1,
    526,
    -1,
    -1,
    531,
    530,
    -1,
    -1,
    533,
    -1,
    -1,
    546,
    541,
    538,
    -1,
    540,
    -1,
    -1,
    545,
    544,
    -1,
    -1,
    -1,
    554,
    551,
    550,
    -1,
    -1,
    553,
    -1,
    -1,
    -1,
    -1,
    578,
    559,
    -1,
    571,
    566,
    563,
    -1,
    565,
    -1,
    -1,
    570,
    569,
    -1,
    -1,
    -1,
    577,
    574,
    -1,
    576,
    -1,
    -1,
    -1,
    604,
    591,
    586,
    585,
    584,
    -1,
    -1,
    -1,
    588,
    -1,
    590,
    -1,
    -1,
    599,
    596,
    595,
    -1,
    -1,
    598,
    -1,
    -1,
    601,
    -1,
    603,
    -1,
    -1,
    606,
    -1,
    -1,
    655,
    644,
    625,
    612,
    -1,
    618,
    615,
    -1,
    617,
    -1,
    -1,
    622,
    621,
    -1,
    -1,
    624,
    -1,
    -1,
    635,
    634,
    631,
    630,
    -1,
    -1,
    633,
    -1,
    -1,
    -1,
    643,
    640,
    639,
    -1,
    -1,
    642,
    -1,
    -1,
    -1,
    652,
    647,
    -1,
    649,
    -1,
    651,
    -1,
    -1,
    654,
    -1,
    -1,
    669,
    668,
    659,
    -1,
    665,
    664,
    663,
    -1,
    -1,
    -1,
    667,
    -1,
    -1,
    -1,
    671,
    -1,
    -1,
    674,
    -1,
    698,
    685,
    680,
    679,
    -1,
    -1,
    684,
    683,
    -1,
    -1,
    -1,
    687,
    -1,
    689,
    -1,
    695,
    692,
    -1,
    694,
    -1,
    -1,
    697,
    -1,
    -1,
    700,
    -1,
    702,
    -1,
    704,
    -1,
    -1,
    777,
    774,
    767,
    764,
    743,
    740,
    725,
    724,
    719,
    718,
    717,
    -1,
    -1,
    -1,
    723,
    722,
    -1,
    -1,
    -1,
    -1,
    727,
    -1,
    733,
    730,
    -1,
    732,
    -1,
    -1,
    737,
    736,
    -1,
    -1,
    739,
    -1,
    -1,
    742,
    -1,
    -1,
    745,
    -1,
    749,
    748,
    -1,
    -1,
    753,
    752,
    -1,
    -1,
    759,
    756,
    -1,
    758,
    -1,
    -1,
    763,
    762,
    -1,
    -1,
    -1,
    766,
    -1,
    -1,
    773,
    770,
    -1,
    772,
    -1,
    -1,
    -1,
    776,
    -1,
    -1,
    779,
    -1,
    -1,
    952,
    933,
    842,
    819,
    804,
    799,
    796,
    789,
    -1,
    793,
    792,
    -1,
    -1,
    795,
    -1,
    -1,
    798,
    -1,
    -1,
    801,
    -1,
    803,
    -1,
    -1,
    818,
    815,
    808,
    -1,
    814,
    813,
    812,
    -1,
    -1,
    -1,
    -1,
    817,
    -1,
    -1,
    -1,
    841,
    822,
    -1,
    838,
    833,
    828,
    827,
    -1,
    -1,
    830,
    -1,
    832,
    -1,
    -1,
    835,
    -1,
    837,
    -1,
    -1,
    840,
    -1,
    -1,
    -1,
    926,
    869,
    862,
    859,
    854,
    853,
    850,
    -1,
    852,
    -1,
    -1,
    -1,
    858,
    857,
    -1,
    -1,
    -1,
    861,
    -1,
    -1,
    866,
    865,
    -1,
    -1,
    868,
    -1,
    -1,
    913,
    912,
    899,
    874,
    -1,
    890,
    883,
    880,
    879,
    -1,
    -1,
    882,
    -1,
    -1,
    887,
    886,
    -1,
    -1,
    889,
    -1,
    -1,
    892,
    -1,
    896,
    895,
    -1,
    -1,
    898,
    -1,
    -1,
    907,
    906,
    903,
    -1,
    905,
    -1,
    -1,
    -1,
    911,
    910,
    -1,
    -1,
    -1,
    -1,
    921,
    916,
    -1,
    918,
    -1,
    920,
    -1,
    -1,
    923,
    -1,
    925,
    -1,
    -1,
    928,
    -1,
    932,
    931,
    -1,
    -1,
    -1,
    947,
    944,
    939,
    938,
    -1,
    -1,
    943,
    942,
    -1,
    -1,
    -1,
    946,
    -1,
    -1,
    949,
    -1,
    951,
    -1,
    -1,
    1228,
    1167,
    1026,
    973,
    972,
    959,
    -1,
    963,
    962,
    -1,
    -1,
    967,
    966,
    -1,
    -1,
    971,
    970,
    -1,
    -1,
    -1,
    -1,
    1025,
    994,
    983,
    982,
    979,
    -1,
    981,
    -1,
    -1,
    -1,
    993,
    992,
    991,
    990,
    989,
    -1,
    -1,
    -1,
    -1,
    -1,
    -1,
    1006,
    997,
    -1,
    1005,
    1004,
    1003,
    1002,
    -1,
    -1,
    -1,
    -1,
    -1,
    1016,
    1009,
    -1,
    1011,
    -1,
    1013,
    -1,
    1015,
    -1,
    -1,
    1022,
    1019,
    -1,
    1021,
    -1,
    -1,
    1024,
    -1,
    -1,
    -1,
    1142,
    1079,
    1034,
    1033,
    1032,
    -1,
    -1,
    -1,
    1068,
    1041,
    1038,
    -1,
    1040,
    -1,
    -1,
    1055,
    1048,
    1045,
    -1,
    1047,
    -1,
    -1,
    1052,
    1051,
    -1,
    -1,
    1054,
    -1,
    -1,
    1061,
    1058,
    -1,
    1060,
    -1,
    -1,
    1065,
    1064,
    -1,
    -1,
    1067,
    -1,
    -1,
    1076,
    1073,
    1072,
    -1,
    -1,
    1075,
    -1,
    -1,
    1078,
    -1,
    -1,
    1105,
    1102,
    1093,
    1084,
    -1,
    1086,
    -1,
    1090,
    1089,
    -1,
    -1,
    1092,
    -1,
    -1,
    1101,
    1100,
    1099,
    1098,
    -1,
    -1,
    -1,
    -1,
    -1,
    1104,
    -1,
    -1,
    1117,
    1108,
    -1,
    1110,
    -1,
    1112,
    -1,
    1114,
    -1,
    1116,
    -1,
    -1,
    1141,
    1128,
    1121,
    -1,
    1125,
    1124,
    -1,
    -1,
    1127,
    -1,
    -1,
    1136,
    1133,
    1132,
    -1,
    -1,
    1135,
    -1,
    -1,
    1140,
    1139,
    -1,
    -1,
    -1,
    -1,
    1162,
    1159,
    1146,
    -1,
    1148,
    -1,
    1154,
    1151,
    -1,
    1153,
    -1,
    -1,
    1156,
    -1,
    1158,
    -1,
    -1,
    1161,
    -1,
    -1,
    1166,
    1165,
    -1,
    -1,
    -1,
    1225,
    1212,
    1205,
    1200,
    1187,
    1186,
    1181,
    1178,
    1177,
    -1,
    -1,
    1180,
    -1,
    -1,
    1185,
    1184,
    -1,
    -1,
    -1,
    -1,
    1197,
    1192,
    1191,
    -1,
    -1,
    1196,
    1195,
    -1,
    -1,
    -1,
    1199,
    -1,
    -1,
    1202,
    -1,
    1204,
    -1,
    -1,
    1209,
    1208,
    -1,
    -1,
    1211,
    -1,
    -1,
    1222,
    1219,
    1218,
    1217,
    -1,
    -1,
    -1,
    1221,
    -1,
    -1,
    1224,
    -1,
    -1,
    1227,
    -1,
    -1,
    1230,
    -1,
    1232,
    -1,
    -1,
    1279,
    1248,
    1239,
    1238,
    -1,
    -1,
    1245,
    1242,
    -1,
    1244,
    -1,
    -1,
    1247,
    -1,
    -1,
    1262,
    1259,
    1252,
    -1,
    1254,
    -1,
    1258,
    1257,
    -1,
    -1,
    -1,
    1261,
    -1,
    -1,
    1270,
    1265,
    -1,
    1267,
    -1,
    1269,
    -1,
    -1,
    1276,
    1273,
    -1,
    1275,
    -1,
    -1,
    1278,
    -1,
    -1,
    1283,
    1282,
    -1,
    -1,
    -1,
    2052,
    2047,
    2044,
    2041,
    2016,
    1763,
    1508,
    1393,
    1374,
    1329,
    1308,
    1305,
    1300,
    1299,
    -1,
    -1,
    1304,
    1303,
    -1,
    -1,
    -1,
    1307,
    -1,
    -1,
    1318,
    1317,
    1314,
    1313,
    -1,
    -1,
    1316,
    -1,
    -1,
    -1,
    1322,
    1321,
    -1,
    -1,
    1326,
    1325,
    -1,
    -1,
    1328,
    -1,
    -1,
    1355,
    1340,
    1339,
    1336,
    1335,
    -1,
    -1,
    1338,
    -1,
    -1,
    -1,
    1348,
    1345,
    1344,
    -1,
    -1,
    1347,
    -1,
    -1,
    1352,
    1351,
    -1,
    -1,
    1354,
    -1,
    -1,
    1365,
    1364,
    1361,
    1360,
    -1,
    -1,
    1363,
    -1,
    -1,
    -1,
    1369,
    1368,
    -1,
    -1,
    1371,
    -1,
    1373,
    -1,
    -1,
    1378,
    1377,
    -1,
    -1,
    1392,
    1383,
    1382,
    -1,
    -1,
    1389,
    1386,
    -1,
    1388,
    -1,
    -1,
    1391,
    -1,
    -1,
    -1,
    1465,
    1432,
    1413,
    1406,
    1403,
    1400,
    -1,
    1402,
    -1,
    -1,
    1405,
    -1,
    -1,
    1408,
    -1,
    1412,
    1411,
    -1,
    -1,
    -1,
    1421,
    1418,
    1417,
    -1,
    -1,
    1420,
    -1,
    -1,
    1427,
    1426,
    1425,
    -1,
    -1,
    -1,
    1429,
    -1,
    1431,
    -1,
    -1,
    1436,
    1435,
    -1,
    -1,
    1452,
    1445,
    1442,
    1441,
    -1,
    -1,
    1444,
    -1,
    -1,
    1449,
    1448,
    -1,
    -1,
    1451,
    -1,
    -1,
    1458,
    1457,
    1456,
    -1,
    -1,
    -1,
    1462,
    1461,
    -1,
    -1,
    1464,
    -1,
    -1,
    1505,
    1492,
    1483,
    1476,
    1473,
    1472,
    -1,
    -1,
    1475,
    -1,
    -1,
    1480,
    1479,
    -1,
    -1,
    1482,
    -1,
    -1,
    1487,
    1486,
    -1,
    -1,
    1491,
    1490,
    -1,
    -1,
    -1,
    1494,
    -1,
    1498,
    1497,
    -1,
    -1,
    1502,
    1501,
    -1,
    -1,
    1504,
    -1,
    -1,
    1507,
    -1,
    -1,
    1664,
    1621,
    1564,
    1537,
    1522,
    1521,
    1518,
    1517,
    -1,
    -1,
    1520,
    -1,
    -1,
    -1,
    1530,
    1527,
    1526,
    -1,
    -1,
    1529,
    -1,
    -1,
    1534,
    1533,
    -1,
    -1,
    1536,
    -1,
    -1,
    1551,
    1544,
    1541,
    -1,
    1543,
    -1,
    -1,
    1548,
    1547,
    -1,
    -1,
    1550,
    -1,
    -1,
    1559,
    1556,
    1555,
    -1,
    -1,
    1558,
    -1,
    -1,
    1561,
    -1,
    1563,
    -1,
    -1,
    1594,
    1579,
    1572,
    1571,
    1570,
    -1,
    -1,
    -1,
    1576,
    1575,
    -1,
    -1,
    1578,
    -1,
    -1,
    1587,
    1584,
    1583,
    -1,
    -1,
    1586,
    -1,
    -1,
    1591,
    1590,
    -1,
    -1,
    1593,
    -1,
    -1,
    1606,
    1603,
    1600,
    1599,
    -1,
    -1,
    1602,
    -1,
    -1,
    1605,
    -1,
    -1,
    1614,
    1611,
    1610,
    -1,
    -1,
    1613,
    -1,
    -1,
    1618,
    1617,
    -1,
    -1,
    1620,
    -1,
    -1,
    1625,
    1624,
    -1,
    -1,
    1639,
    1630,
    1629,
    -1,
    -1,
    1634,
    1633,
    -1,
    -1,
    1638,
    1637,
    -1,
    -1,
    -1,
    1649,
    1644,
    1643,
    -1,
    -1,
    1646,
    -1,
    1648,
    -1,
    -1,
    1657,
    1654,
    1653,
    -1,
    -1,
    1656,
    -1,
    -1,
    1661,
    1660,
    -1,
    -1,
    1663,
    -1,
    -1,
    1736,
    1707,
    1684,
    1677,
    1676,
    1673,
    1672,
    -1,
    -1,
    1675,
    -1,
    -1,
    -1,
    1679,
    -1,
    1681,
    -1,
    1683,
    -1,
    -1,
    1698,
    1693,
    1690,
    1689,
    -1,
    -1,
    1692,
    -1,
    -1,
    1697,
    1696,
    -1,
    -1,
    -1,
    1700,
    -1,
    1704,
    1703,
    -1,
    -1,
    1706,
    -1,
    -1,
    1723,
    1714,
    1711,
    -1,
    1713,
    -1,
    -1,
    1722,
    1719,
    1718,
    -1,
    -1,
    1721,
    -1,
    -1,
    -1,
    1725,
    -1,
    1729,
    1728,
    -1,
    -1,
    1733,
    1732,
    -1,
    -1,
    1735,
    -1,
    -1,
    1742,
    1739,
    -1,
    1741,
    -1,
    -1,
    1758,
    1757,
    1752,
    1749,
    1748,
    -1,
    -1,
    1751,
    -1,
    -1,
    1754,
    -1,
    1756,
    -1,
    -1,
    -1,
    1760,
    -1,
    1762,
    -1,
    -1,
    1901,
    1816,
    1813,
    1802,
    1795,
    1784,
    1777,
    1774,
    1773,
    -1,
    -1,
    1776,
    -1,
    -1,
    1781,
    1780,
    -1,
    -1,
    1783,
    -1,
    -1,
    1788,
    1787,
    -1,
    -1,
    1792,
    1791,
    -1,
    -1,
    1794,
    -1,
    -1,
    1797,
    -1,
    1801,
    1800,
    -1,
    -1,
    -1,
    1812,
    1805,
    -1,
    1809,
    1808,
    -1,
    -1,
    1811,
    -1,
    -1,
    -1,
    1815,
    -1,
    -1,
    1858,
    1841,
    1838,
    1833,
    1826,
    1825,
    1824,
    -1,
    -1,
    -1,
    1830,
    1829,
    -1,
    -1,
    1832,
    -1,
    -1,
    1837,
    1836,
    -1,
    -1,
    -1,
    1840,
    -1,
    -1,
    1843,
    -1,
    1847,
    1846,
    -1,
    -1,
    1853,
    1852,
    1851,
    -1,
    -1,
    -1,
    1857,
    1856,
    -1,
    -1,
    -1,
    1890,
    1871,
    1868,
    1863,
    -1,
    1865,
    -1,
    1867,
    -1,
    -1,
    1870,
    -1,
    -1,
    1881,
    1874,
    -1,
    1878,
    1877,
    -1,
    -1,
    1880,
    -1,
    -1,
    1883,
    -1,
    1887,
    1886,
    -1,
    -1,
    1889,
    -1,
    -1,
    1892,
    -1,
    1898,
    1897,
    1896,
    -1,
    -1,
    -1,
    1900,
    -1,
    -1,
    1967,
    1930,
    1921,
    1918,
    1907,
    -1,
    1911,
    1910,
    -1,
    -1,
    1915,
    1914,
    -1,
    -1,
    1917,
    -1,
    -1,
    1920,
    -1,
    -1,
    1923,
    -1,
    1927,
    1926,
    -1,
    -1,
    1929,
    -1,
    -1,
    1934,
    1933,
    -1,
    -1,
    1948,
    1937,
    -1,
    1943,
    1942,
    1941,
    -1,
    -1,
    -1,
    1945,
    -1,
    1947,
    -1,
    -1,
    1960,
    1955,
    1952,
    -1,
    1954,
    -1,
    -1,
    1959,
    1958,
    -1,
    -1,
    -1,
    1962,
    -1,
    1964,
    -1,
    1966,
    -1,
    -1,
    2009,
    1990,
    1983,
    1976,
    1973,
    -1,
    1975,
    -1,
    -1,
    1982,
    1979,
    -1,
    1981,
    -1,
    -1,
    -1,
    1985,
    -1,
    1989,
    1988,
    -1,
    -1,
    -1,
    1992,
    -1,
    1994,
    -1,
    2002,
    1999,
    1998,
    -1,
    -1,
    2001,
    -1,
    -1,
    2006,
    2005,
    -1,
    -1,
    2008,
    -1,
    -1,
    2011,
    -1,
    2015,
    2014,
    -1,
    -1,
    -1,
    2040,
    2029,
    2026,
    2025,
    2022,
    -1,
    2024,
    -1,
    -1,
    -1,
    2028,
    -1,
    -1,
    2037,
    2032,
    -1,
    2034,
    -1,
    2036,
    -1,
    -1,
    2039,
    -1,
    -1,
    -1,
    2043,
    -1,
    -1,
    2046,
    -1,
    -1,
    2049,
    -1,
    2051,
    -1,
    -1,
    2058,
    2055,
    -1,
    2057,
    -1,
    -1,
    -1,
    2069,
    2062,
    -1,
    2068,
    2065,
    -1,
    2067,
    -1,
    -1,
    -1,
    2087,
    2080,
    2077,
    2074,
    -1,
    2076,
    -1,
    -1,
    2079,
    -1,
    -1,
    2082,
    -1,
    2084,
    -1,
    2086,
    -1,
    -1,
    2443,
    2090,
    -1,
    2318,
    2209,
    2166,
    2163,
    2112,
    2111,
    2108,
    2107,
    2106,
    2101,
    -1,
    2105,
    2104,
    -1,
    -1,
    -1,
    -1,
    -1,
    2110,
    -1,
    -1,
    -1,
    2138,
    2129,
    2126,
    2119,
    2118,
    -1,
    -1,
    2121,
    -1,
    2125,
    2124,
    -1,
    -1,
    -1,
    2128,
    -1,
    -1,
    2133,
    2132,
    -1,
    -1,
    2137,
    2136,
    -1,
    -1,
    -1,
    2140,
    -1,
    2152,
    2149,
    2148,
    2147,
    2146,
    -1,
    -1,
    -1,
    -1,
    2151,
    -1,
    -1,
    2154,
    -1,
    2156,
    -1,
    2160,
    2159,
    -1,
    -1,
    2162,
    -1,
    -1,
    2165,
    -1,
    -1,
    2172,
    2171,
    2170,
    -1,
    -1,
    -1,
    2174,
    -1,
    2194,
    2191,
    2178,
    -1,
    2180,
    -1,
    2186,
    2183,
    -1,
    2185,
    -1,
    -1,
    2188,
    -1,
    2190,
    -1,
    -1,
    2193,
    -1,
    -1,
    2196,
    -1,
    2198,
    -1,
    2200,
    -1,
    2206,
    2205,
    2204,
    -1,
    -1,
    -1,
    2208,
    -1,
    -1,
    2211,
    -1,
    2285,
    2260,
    2257,
    2246,
    2223,
    2220,
    2219,
    -1,
    -1,
    2222,
    -1,
    -1,
    2235,
    2230,
    2229,
    2228,
    -1,
    -1,
    -1,
    2232,
    -1,
    2234,
    -1,
    -1,
    2241,
    2240,
    2239,
    -1,
    -1,
    -1,
    2243,
    -1,
    2245,
    -1,
    -1,
    2256,
    2255,
    2250,
    -1,
    2252,
    -1,
    2254,
    -1,
    -1,
    -1,
    -1,
    2259,
    -1,
    -1,
    2284,
    2265,
    2264,
    -1,
    -1,
    2267,
    -1,
    2279,
    2276,
    2273,
    2272,
    -1,
    -1,
    2275,
    -1,
    -1,
    2278,
    -1,
    -1,
    2281,
    -1,
    2283,
    -1,
    -1,
    -1,
    2301,
    2288,
    -1,
    2292,
    2291,
    -1,
    -1,
    2300,
    2295,
    -1,
    2297,
    -1,
    2299,
    -1,
    -1,
    -1,
    2317,
    2304,
    -1,
    2308,
    2307,
    -1,
    -1,
    2310,
    -1,
    2316,
    2315,
    2314,
    -1,
    -1,
    -1,
    -1,
    -1,
    2442,
    2403,
    2402,
    2401,
    2386,
    2347,
    2344,
    2337,
    2332,
    2331,
    2330,
    -1,
    -1,
    -1,
    2334,
    -1,
    2336,
    -1,
    -1,
    2339,
    -1,
    2341,
    -1,
    2343,
    -1,
    -1,
    2346,
    -1,
    -1,
    2375,
    2360,
    2357,
    2354,
    2353,
    -1,
    -1,
    2356,
    -1,
    -1,
    2359,
    -1,
    -1,
    2368,
    2365,
    2364,
    -1,
    -1,
    2367,
    -1,
    -1,
    2372,
    2371,
    -1,
    -1,
    2374,
    -1,
    -1,
    2385,
    2382,
    2379,
    -1,
    2381,
    -1,
    -1,
    2384,
    -1,
    -1,
    -1,
    2388,
    -1,
    2390,
    -1,
    2392,
    -1,
    2400,
    2397,
    2396,
    -1,
    -1,
    2399,
    -1,
    -1,
    -1,
    -1,
    -1,
    2429,
    2428,
    2427,
    2408,
    -1,
    2418,
    2411,
    -1,
    2413,
    -1,
    2415,
    -1,
    2417,
    -1,
    -1,
    2420,
    -1,
    2426,
    2423,
    -1,
    2425,
    -1,
    -1,
    -1,
    -1,
    -1,
    2435,
    2434,
    2433,
    -1,
    -1,
    -1,
    2437,
    -1,
    2441,
    2440,
    -1,
    -1,
    -1,
    -1,
    -1,
    2724,
    2447,
    -1,
    2449,
    -1,
    2721,
    2712,
    2453,
    -1,
    2497,
    2478,
    2463,
    2458,
    -1,
    2460,
    -1,
    2462,
    -1,
    -1,
    2477,
    2466,
    -1,
    2470,
    2469,
    -1,
    -1,
    2472,
    -1,
    2476,
    2475,
    -1,
    -1,
    -1,
    -1,
    2488,
    2487,
    2482,
    -1,
    2484,
    -1,
    2486,
    -1,
    -1,
    -1,
    2490,
    -1,
    2492,
    -1,
    2496,
    2495,
    -1,
    -1,
    -1,
    2623,
    2578,
    2507,
    2506,
    2503,
    -1,
    2505,
    -1,
    -1,
    -1,
    2543,
    2530,
    2521,
    2512,
    -1,
    2516,
    2515,
    -1,
    -1,
    2518,
    -1,
    2520,
    -1,
    -1,
    2527,
    2524,
    -1,
    2526,
    -1,
    -1,
    2529,
    -1,
    -1,
    2534,
    2533,
    -1,
    -1,
    2542,
    2541,
    2540,
    2539,
    -1,
    -1,
    -1,
    -1,
    -1,
    2569,
    2546,
    -1,
    2556,
    2555,
    2552,
    2551,
    -1,
    -1,
    2554,
    -1,
    -1,
    -1,
    2564,
    2561,
    2560,
    -1,
    -1,
    2563,
    -1,
    -1,
    2568,
    2567,
    -1,
    -1,
    -1,
    2571,
    -1,
    2577,
    2576,
    2575,
    -1,
    -1,
    -1,
    -1,
    2588,
    2581,
    -1,
    2587,
    2584,
    -1,
    2586,
    -1,
    -1,
    -1,
    2618,
    2599,
    2592,
    -1,
    2596,
    2595,
    -1,
    -1,
    2598,
    -1,
    -1,
    2617,
    2610,
    2603,
    -1,
    2607,
    2606,
    -1,
    -1,
    2609,
    -1,
    -1,
    2616,
    2615,
    2614,
    -1,
    -1,
    -1,
    -1,
    -1,
    2620,
    -1,
    2622,
    -1,
    -1,
    2675,
    2628,
    2627,
    -1,
    -1,
    2630,
    -1,
    2656,
    2645,
    2644,
    2639,
    2638,
    2637,
    -1,
    -1,
    -1,
    2643,
    2642,
    -1,
    -1,
    -1,
    -1,
    2651,
    2650,
    2649,
    -1,
    -1,
    -1,
    2653,
    -1,
    2655,
    -1,
    -1,
    2674,
    2665,
    2664,
    2661,
    -1,
    2663,
    -1,
    -1,
    -1,
    2667,
    -1,
    2671,
    2670,
    -1,
    -1,
    2673,
    -1,
    -1,
    -1,
    2681,
    2678,
    -1,
    2680,
    -1,
    -1,
    2683,
    -1,
    2687,
    2686,
    -1,
    -1,
    2709,
    2700,
    2695,
    2692,
    -1,
    2694,
    -1,
    -1,
    2697,
    -1,
    2699,
    -1,
    -1,
    2702,
    -1,
    2706,
    2705,
    -1,
    -1,
    2708,
    -1,
    -1,
    2711,
    -1,
    -1,
    2718,
    2717,
    2716,
    -1,
    -1,
    -1,
    2720,
    -1,
    -1,
    2723,
    -1,
    -1,
    2726,
    -1,
    2732,
    2729,
    -1,
    2731,
    -1,
    -1,
    -1,
    2765,
    2760,
    2737,
    -1,
    2749,
    2740,
    -1,
    2746,
    2743,
    -1,
    2745,
    -1,
    -1,
    2748,
    -1,
    -1,
    2757,
    2754,
    2753,
    -1,
    -1,
    2756,
    -1,
    -1,
    2759,
    -1,
    -1,
    2762,
    -1,
    2764,
    -1,
    -1,
    2799,
    2792,
    2789,
    2786,
    2785,
    2782,
    2773,
    -1,
    2779,
    2778,
    2777,
    -1,
    -1,
    -1,
    2781,
    -1,
    -1,
    2784,
    -1,
    -1,
    -1,
    2788,
    -1,
    -1,
    2791,
    -1,
    -1,
    2796,
    2795,
    -1,
    -1,
    2798,
    -1,
    -1,
    2801,
    -1,
    3277,
    2816,
    2813,
    2806,
    -1,
    2808,
    -1,
    2812,
    2811,
    -1,
    -1,
    -1,
    2815,
    -1,
    -1,
    3270,
    3109,
    3106,
    2945,
    2928,
    2851,
    2850,
    2825,
    -1,
    2839,
    2834,
    2829,
    -1,
    2833,
    2832,
    -1,
    -1,
    -1,
    2838,
    2837,
    -1,
    -1,
    -1,
    2849,
    2848,
    2845,
    2844,
    -1,
    -1,
    2847,
    -1,
    -1,
    -1,
    -1,
    -1,
    2905,
    2884,
    2883,
    2870,
    2863,
    2860,
    2859,
    -1,
    -1,
    2862,
    -1,
    -1,
    2867,
    2866,
    -1,
    -1,
    2869,
    -1,
    -1,
    2878,
    2875,
    2874,
    -1,
    -1,
    2877,
    -1,
    -1,
    2880,
    -1,
    2882,
    -1,
    -1,
    -1,
    2896,
    2893,
    2888,
    -1,
    2892,
    2891,
    -1,
    -1,
    -1,
    2895,
    -1,
    -1,
    2898,
    -1,
    2902,
    2901,
    -1,
    -1,
    2904,
    -1,
    -1,
    2913,
    2912,
    2911,
    2910,
    -1,
    -1,
    -1,
    -1,
    2921,
    2918,
    2917,
    -1,
    -1,
    2920,
    -1,
    -1,
    2927,
    2926,
    2925,
    -1,
    -1,
    -1,
    -1,
    2944,
    2931,
    -1,
    2943,
    2938,
    2935,
    -1,
    2937,
    -1,
    -1,
    2940,
    -1,
    2942,
    -1,
    -1,
    -1,
    -1,
    3103,
    3002,
    2999,
    2994,
    2981,
    2966,
    2959,
    2956,
    2955,
    -1,
    -1,
    2958,
    -1,
    -1,
    2963,
    2962,
    -1,
    -1,
    2965,
    -1,
    -1,
    2974,
    2971,
    2970,
    -1,
    -1,
    2973,
    -1,
    -1,
    2978,
    2977,
    -1,
    -1,
    2980,
    -1,
    -1,
    2993,
    2990,
    2987,
    2986,
    -1,
    -1,
    2989,
    -1,
    -1,
    2992,
    -1,
    -1,
    -1,
    2998,
    2997,
    -1,
    -1,
    -1,
    3001,
    -1,
    -1,
    3100,
    3051,
    3030,
    3015,
    3008,
    -1,
    3012,
    3011,
    -1,
    -1,
    3014,
    -1,
    -1,
    3023,
    3020,
    3019,
    -1,
    -1,
    3022,
    -1,
    -1,
    3027,
    3026,
    -1,
    -1,
    3029,
    -1,
    -1,
    3040,
    3037,
    3034,
    -1,
    3036,
    -1,
    -1,
    3039,
    -1,
    -1,
    3044,
    3043,
    -1,
    -1,
    3048,
    3047,
    -1,
    -1,
    3050,
    -1,
    -1,
    3083,
    3068,
    3061,
    3058,
    3057,
    -1,
    -1,
    3060,
    -1,
    -1,
    3065,
    3064,
    -1,
    -1,
    3067,
    -1,
    -1,
    3076,
    3073,
    3072,
    -1,
    -1,
    3075,
    -1,
    -1,
    3080,
    3079,
    -1,
    -1,
    3082,
    -1,
    -1,
    3099,
    3092,
    3089,
    3088,
    -1,
    -1,
    3091,
    -1,
    -1,
    3096,
    3095,
    -1,
    -1,
    3098,
    -1,
    -1,
    -1,
    3102,
    -1,
    -1,
    3105,
    -1,
    -1,
    3108,
    -1,
    -1,
    3217,
    3118,
    3113,
    -1,
    3115,
    -1,
    3117,
    -1,
    -1,
    3210,
    3207,
    3148,
    3143,
    3134,
    3133,
    3130,
    3127,
    -1,
    3129,
    -1,
    -1,
    3132,
    -1,
    -1,
    -1,
    3138,
    3137,
    -1,
    -1,
    3142,
    3141,
    -1,
    -1,
    -1,
    3145,
    -1,
    3147,
    -1,
    -1,
    3178,
    3169,
    3158,
    3157,
    3156,
    3155,
    -1,
    -1,
    -1,
    -1,
    3162,
    3161,
    -1,
    -1,
    3166,
    3165,
    -1,
    -1,
    3168,
    -1,
    -1,
    3171,
    -1,
    3177,
    3174,
    -1,
    3176,
    -1,
    -1,
    -1,
    3186,
    3185,
    3182,
    -1,
    3184,
    -1,
    -1,
    -1,
    3194,
    3189,
    -1,
    3193,
    3192,
    -1,
    -1,
    -1,
    3200,
    3197,
    -1,
    3199,
    -1,
    -1,
    3204,
    3203,
    -1,
    -1,
    3206,
    -1,
    -1,
    3209,
    -1,
    -1,
    3216,
    3213,
    -1,
    3215,
    -1,
    -1,
    -1,
    3219,
    -1,
    3231,
    3222,
    -1,
    3228,
    3225,
    -1,
    3227,
    -1,
    -1,
    3230,
    -1,
    -1,
    3265,
    3236,
    3235,
    -1,
    -1,
    3262,
    3259,
    3248,
    3245,
    3242,
    -1,
    3244,
    -1,
    -1,
    3247,
    -1,
    -1,
    3252,
    3251,
    -1,
    -1,
    3256,
    3255,
    -1,
    -1,
    3258,
    -1,
    -1,
    3261,
    -1,
    -1,
    3264,
    -1,
    -1,
    3267,
    -1,
    3269,
    -1,
    -1,
    3274,
    3273,
    -1,
    -1,
    3276,
    -1,
    -1,
    3313,
    3308,
    3281,
    -1,
    3305,
    3304,
    3291,
    3288,
    3287,
    -1,
    -1,
    3290,
    -1,
    -1,
    3301,
    3296,
    3295,
    -1,
    -1,
    3298,
    -1,
    3300,
    -1,
    -1,
    3303,
    -1,
    -1,
    -1,
    3307,
    -1,
    -1,
    3310,
    -1,
    3312,
    -1,
    -1,
    -1,
    3364,
    3359,
    3318,
    -1,
    3356,
    3353,
    3336,
    3335,
    3324,
    -1,
    3330,
    3327,
    -1,
    3329,
    -1,
    -1,
    3332,
    -1,
    3334,
    -1,
    -1,
    -1,
    3350,
    3347,
    3344,
    3343,
    3342,
    -1,
    -1,
    -1,
    3346,
    -1,
    -1,
    3349,
    -1,
    -1,
    3352,
    -1,
    -1,
    3355,
    -1,
    -1,
    3358,
    -1,
    -1,
    3363,
    3362,
    -1,
    -1,
    -1,
    3366,
    -1,
    3368,
    -1,
    -1
  ],
  "feature": [
    12,
    19,
    8,
    3,
    11,
    8,
    18,
    8,
    6,
    15,
    -2,
    15,
    16,
    17,
    16,
    17,
    -2,
    -2,
    2,
    -2,
    -2,
    -2,
    -2,
    18,
    -2,
    -2,
    15,
    8,
    4,
    -2,
    -2,
    16,
    17,
    -2,
    -2,
    -2,
    1,
    -2,
    19,
    -2,
    -2,
    1,
    17,
    0,
    4,
    0,
    15,
    16,
    15,
    4,
    17,
    -2,
    -2,
    4,
    -2,
    15,
    -2,
    -2,
    15,
    -2,
    -2,
    4,
    -2,
    14,
    17,
    -2,
    16,
    -2,
    -2,
    -2,
    16,
    0,
    0,
    17,
    0,
    19,
    -2,
    -2,
    -2,
    4,
    15,
    -2,
    -2,
    17,
    -2,
    -2,
    0,
    -2,
    -2,
    15,
    0,
    15,
    15,
    -2,
    -2,
    15,
    -2,
    -2,
    -2,
    15,
    17,
    0,
    -2,
    -2,
    17,
    -2,
    -2,
    4,
    4,
    -2,
    -2,
    -2,
    16,
    16,
    -2,
    -2,
    -2,
    0,
    16,
    0,
    0,
    15,
    -2,
    4,
    15,
    -2,
    -2,
    17,
    -2,
    -2,
    -2,
    15,
    15,
    17,
    -2,
    0,
    -2,
    -2,
    -2,
    15,
    17,
    -2,
    17,
    -2,
    -2,
    0,
    -2,
    -2,
    0,
    17,
    -2,
    16,
    -2,
    -2,
    -2,
    16,
    16,
    4,
    17,
    0,
    4,
    -2,
    -2,
    15,
    -2,
    -2,
    17,
    17,
    -2,
    -2,
    0,
    -2,
    -2,
    0,
    16,
    4,
    -2,
    -2,
    16,
    -2,
    -2,
    17,
    -2,
    -2,
    17,
    -2,
    15,
    -2,
    -2,
    -2,
    0,
    15,
    15,
    -2,
    0,
    0,
    -2,
    -2,
    17,
    -2,
    -2,
    0,
    15,
    15,
    17,
    0,
    4,
    -2,
    -2,
    -2,
    -2,
    0,
    -2,
    -2,
    0,
    15,
    -2,
    17,
    17,
    -2,
    -2,
    -2,
    0,
    -2,
    15,
    -2,
    -2,
    4,
    15,
    15,
    -2,
    -2,
    0,
    -2,
    -2,
    -2,
    6,
    -2,
    0,
    0,
    15,
    -2,
    -2,
    0,
    -2,
    17,
    -2,
    1,
    -2,
    -2,
    15,
    16,
    16,
    0,
    17,
    -2,
    -2,
    -2,
    17,
    17,
    -2,
    -2,
    0,
    -2,
    -2,
    -2,
    -2,
    0,
    0,
    15,
    16,
    0,
    0,
    0,
    16,
    4,
    -2,
    -2,
    -2,
    15,
    -2,
    4,
    -2,
    -2,
    4,
    -2,
    0,
    16,
    -2,
    -2,
    -2,
    0,
    4,
    16,
    0,
    -2,
    -2,
    -2,
    0,
    4,
    -2,
    -2,
    0,
    -2,
    -2,
    16,
    -2,
    15,
    -2,
    -2,
    15,
    4,
    0,
    4,
    16,
    -2,
    -2,
    16,
    -2,
    -2,
    4,
    -2,
    -2,
    15,
    0,
    -2,
    -2,
    -2,
    15,
    16,
    0,
    0,
    -2,
    -2,
    -2,
    16,
    4,
    -2,
    -2,
    15,
    -2,
    -2,
    -2,
    15,
    4,
    15,
    15,
    16,
    0,
    -2,
    -2,
    16,
    -2,
    -2,
    4,
    4,
    -2,
    -2,
    0,
    -2,
    -2,
    4,
    4,
    15,
    -2,
    -2,
    -2,
    15,
    15,
    -2,
    -2,
    4,
    -2,
    -2,
    0,
    4,
    17,
    -2,
    -2,
    4,
    -2,
    -2,
    4,
    0,
    -2,
    0,
    -2,
    -2,
    0,
    17,
    -2,
    -2,
    15,
    -2,
    -2,
    0,
    17,
    -2,
    15,
    4,
    15,
    -2,
    -2,
    0,
    -2,
    -2,
    0,
    4,
    -2,
    -2,
    4,
    -2,
    -2,
    -2,
    17,
    4,
    0,
    15,
    17,
    17,
    17,
    -2,
    -2,
    -2,
    -2,
    4,
    4,
    15,
    -2,
    -2,
    4,
    -2,
    -2,
    15,
    4,
    -2,
    -2,
    0,
    -2,
    -2,
    0,
    17,
    -2,
    -2,
    4,
    17,
    -2,
    -2,
    17,
    -2,
    4,
    -2,
    -2,
    0,
    16,
    16,
    0,
    15,
    -2,
    -2,
    4,
    -2,
    -2,
    4,
    -2,
    17,
    -2,
    -2,
    16,
    17,
    15,
    -2,
    -2,
    4,
    -2,
    -2,
    15,
    0,
    -2,
    -2,
    16,
    -2,
    -2,
    16,
    -2,
    16,
    -2,
    4,
    -2,
    -2,
    15,
    17,
    4,
    -2,
    16,
    -2,
    -2,
    -2,
    -2,
    15,
    0,
    1,
    15,
    17,
    4,
    4,
    0,
    -2,
    -2,
    0,
    -2,
    -2,
    15,
    4,
    -2,
    -2,
    4,
    -2,
    -2,
    4,
    0,
    4,
    -2,
    -2,
    17,
    -2,
    -2,
    15,
    15,
    -2,
    -2,
    4,
    -2,
    -2,
    0,
    17,
    15,
    -2,
    0,
    -2,
    -2,
    0,
    0,
    -2,
    -2,
    -2,
    4,
    15,
    4,
    -2,
    -2,
    0,
    -2,
    -2,
    -2,
    -2,
    0,
    17,
    -2,
    0,
    0,
    4,
    -2,
    17,
    -2,
    -2,
    4,
    15,
    -2,
    -2,
    -2,
    17,
    0,
    -2,
    0,
    -2,
    -2,
    -2,
    13,
    15,
    0,
    4,
    0,
    -2,
    -2,
    -2,
    16,
    -2,
    4,
    -2,
    -2,
    0,
    17,
    4,
    -2,
    -2,
    0,
    -2,
    -2,
    15,
    -2,
    17,
    -2,
    -2,
    14,
    -2,
    -2,
    16,
    14,
    0,
    17,
    -2,
    4,
    6,
    -2,
    4,
    -2,
    -2,
    15,
    17,
    -2,
    -2,
    15,
    -2,
    -2,
    0,
    0,
    0,
    0,
    -2,
    -2,
    15,
    -2,
    -2,
    -2,
    0,
    15,
    15,
    -2,
    -2,
    0,
    -2,
    -2,
    -2,
    0,
    4,
    -2,
    17,
    -2,
    4,
    -2,
    -2,
    6,
    -2,
    -2,
    2,
    17,
    16,
    -2,
    5,
    9,
    7,
    -2,
    -2,
    -2,
    18,
    -2,
    -2,
    -2,
    15,
    -2,
    -2,
    6,
    -2,
    15,
    15,
    17,
    0,
    -2,
    -2,
    16,
    1,
    -2,
    -2,
    -2,
    0,
    -2,
    0,
    -2,
    15,
    15,
    -2,
    4,
    -2,
    -2,
    0,
    -2,
    -2,
    15,
    -2,
    4,
    -2,
    0,
    -2,
    -2,
    1,
    18,
    1,
    18,
    19,
    9,
    15,
    13,
    0,
    15,
    16,
    -2,
    -2,
    -2,
    1,
    16,
    -2,
    -2,
    -2,
    -2,
    16,
    -2,
    16,
    6,
    -2,
    1,
    -2,
    -2,
    0,
    0,
    -2,
    -2,
    0,
    -2,
    -2,
    1,
    -2,
    -2,
    15,
    -2,
    16,
    16,
    -2,
    -2,
    16,
    4,
    -2,
    -2,
    16,
    17,
    -2,
    15,
    -2,
    -2,
    16,
    4,
    -2,
    -2,
    -2,
    17,
    -2,
    -2,
    16,
    15,
    -2,
    2,
    -2,
    -2,
    -2,
    14,
    -2,
    -2,
    19,
    -2,
    -2,
    17,
    14,
    16,
    18,
    17,
    15,
    16,
    4,
    -2,
    17,
    0,
    -2,
    -2,
    15,
    -2,
    -2,
    0,
    -2,
    -2,
    0,
    -2,
    15,
    -2,
    -2,
    15,
    18,
    16,
    -2,
    4,
    16,
    0,
    -2,
    -2,
    -2,
    -2,
    4,
    -2,
    -2,
    -2,
    20,
    17,
    -2,
    16,
    18,
    4,
    0,
    -2,
    -2,
    18,
    -2,
    18,
    -2,
    -2,
    17,
    -2,
    0,
    -2,
    -2,
    15,
    -2,
    -2,
    -2,
    15,
    0,
    16,
    0,
    16,
    15,
    16,
    -2,
    0,
    -2,
    -2,
    -2,
    16,
    15,
    -2,
    -2,
    -2,
    15,
    -2,
    -2,
    0,
    16,
    -2,
    -2,
    0,
    -2,
    -2,
    16,
    0,
    16,
    16,
    -2,
    0,
    16,
    18,
    18,
    -2,
    -2,
    0,
    -2,
    -2,
    15,
    16,
    -2,
    -2,
    16,
    -2,
    -2,
    16,
    -2,
    15,
    15,
    -2,
    -2,
    0,
    -2,
    -2,
    15,
    16,
    15,
    -2,
    0,
    -2,
    -2,
    -2,
    16,
    16,
    -2,
    -2,
    -2,
    -2,
    0,
    0,
    -2,
    16,
    -2,
    0,
    -2,
    -2,
    16,
    -2,
    8,
    -2,
    -2,
    16,
    -2,
    15,
    16,
    -2,
    -2,
    -2,
    14,
    17,
    0,
    0,
    -2,
    -2,
    0,
    0,
    -2,
    -2,
    -2,
    10,
    -2,
    -2,
    15,
    -2,
    6,
    -2,
    -2,
    20,
    1,
    17,
    15,
    4,
    4,
    -2,
    15,
    18,
    -2,
    -2,
    18,
    18,
    -2,
    -2,
    8,
    0,
    -2,
    -2,
    -2,
    -2,
    9,
    18,
    15,
    0,
    0,
    -2,
    17,
    -2,
    -2,
    -2,
    4,
    15,
    18,
    18,
    17,
    -2,
    -2,
    -2,
    -2,
    -2,
    -2,
    17,
    18,
    -2,
    0,
    0,
    0,
    18,
    -2,
    -2,
    -2,
    -2,
    -2,
    0,
    15,
    -2,
    15,
    -2,
    15,
    -2,
    15,
    -2,
    -2,
    0,
    4,
    -2,
    4,
    -2,
    -2,
    0,
    -2,
    -2,
    -2,
    4,
    8,
    18,
    18,
    0,
    -2,
    -2,
    -2,
    0,
    8,
    18,
    -2,
    15,
    -2,
    -2,
    15,
    15,
    0,
    -2,
    18,
    -2,
    -2,
    18,
    17,
    -2,
    -2,
    4,
    -2,
    -2,
    15,
    15,
    -2,
    17,
    -2,
    -2,
    0,
    18,
    -2,
    -2,
    0,
    -2,
    -2,
    17,
    17,
    15,
    -2,
    -2,
    17,
    -2,
    -2,
    18,
    -2,
    -2,
    15,
    0,
    0,
    4,
    -2,
    18,
    -2,
    15,
    15,
    -2,
    -2,
    0,
    -2,
    -2,
    4,
    18,
    4,
    0,
    -2,
    -2,
    -2,
    -2,
    -2,
    17,
    -2,
    -2,
    4,
    15,
    -2,
    4,
    -2,
    17,
    -2,
    4,
    -2,
    4,
    -2,
    -2,
    14,
    17,
    0,
    -2,
    4,
    0,
    -2,
    -2,
    17,
    -2,
    -2,
    18,
    15,
    0,
    -2,
    -2,
    15,
    -2,
    -2,
    15,
    0,
    -2,
    -2,
    -2,
    -2,
    8,
    4,
    17,
    -2,
    18,
    -2,
    4,
    15,
    -2,
    15,
    -2,
    -2,
    8,
    -2,
    15,
    -2,
    -2,
    17,
    -2,
    -2,
    18,
    17,
    -2,
    -2,
    -2,
    2,
    17,
    15,
    16,
    16,
    16,
    18,
    4,
    15,
    -2,
    -2,
    16,
    -2,
    -2,
    18,
    16,
    -2,
    -2,
    -2,
    -2,
    6,
    18,
    18,
    -2,
    -2,
    19,
    0,
    -2,
    -2,
    -2,
    18,
    -2,
    -2,
    9,
    -2,
    16,
    -2,
    -2,
    13,
    14,
    -2,
    -2,
    17,
    -2,
    -2,
    8,
    5,
    0,
    15,
    -2,
    -2,
    -2,
    16,
    -2,
    -2,
    15,
    -2,
    -2,
    13,
    -2,
    -2,
    15,
    -2,
    15,
    -2,
    -2,
    11,
    8,
    1,
    16,
    -2,
    -2,
    1,
    20,
    -2,
    18,
    -2,
    -2,
    6,
    -2,
    -2,
    18,
    16,
    8,
    -2,
    20,
    -2,
    0,
    15,
    -2,
    -2,
    -2,
    16,
    -2,
    -2,
    18,
    8,
    -2,
    8,
    -2,
    5,
    -2,
    -2,
    18,
    8,
    -2,
    8,
    -2,
    -2,
    1,
    -2,
    -2,
    14,
    20,
    -2,
    -2,
    -2,
    13,
    15,
    10,
    6,
    14,
    4,
    0,
    0,
    8,
    17,
    8,
    8,
    17,
    18,
    -2,
    -2,
    4,
    8,
    -2,
    -2,
    -2,
    0,
    -2,
    -2,
    8,
    8,
    8,
    8,
    -2,
    -2,
    17,
    -2,
    -2,
    -2,
    8,
    15,
    -2,
    -2,
    0,
    8,
    -2,
    -2,
    8,
    -2,
    -2,
    0,
    4,
    8,
    8,
    8,
    -2,
    -2,
    8,
    -2,
    -2,
    -2,
    8,
    8,
    8,
    -2,
    -2,
    8,
    -2,
    -2,
    8,
    15,
    -2,
    -2,
    8,
    -2,
    -2,
    8,
    8,
    8,
    8,
    -2,
    -2,
    8,
    -2,
    -2,
    -2,
    8,
    8,
    -2,
    -2,
    8,
    -2,
    8,
    -2,
    -2,
    8,
    17,
    -2,
    -2,
    8,
    17,
    8,
    -2,
    -2,
    8,
    4,
    -2,
    0,
    -2,
    -2,
    15,
    -2,
    -2,
    -2,
    15,
    0,
    8,
    8,
    8,
    8,
    -2,
    8,
    -2,
    -2,
    15,
    -2,
    -2,
    8,
    -2,
    8,
    4,
    -2,
    -2,
    -2,
    8,
    8,
    17,
    -2,
    -2,
    0,
    -2,
    -2,
    8,
    8,
    17,
    -2,
    -2,
    -2,
    8,
    -2,
    8,
    -2,
    -2,
    8,
    4,
    -2,
    -2,
    8,
    0,
    8,
    8,
    -2,
    -2,
    8,
    -2,
    -2,
    8,
    8,
    -2,
    -2,
    8,
    -2,
    -2,
    8,
    4,
    18,
    -2,
    -2,
    -2,
    0,
    8,
    -2,
    -2,
    0,
    -2,
    -2,
    8,
    8,
    8,
    8,
    8,
    8,
    -2,
    -2,
    8,
    -2,
    -2,
    8,
    4,
    -2,
    -2,
    8,
    -2,
    -2,
    8,
    17,
    -2,
    -2,
    17,
    8,
    -2,
    -2,
    -2,
    8,
    -2,
    8,
    15,
    -2,
    -2,
    8,
    8,
    -2,
    -2,
    8,
    -2,
    -2,
    0,
    -2,
    -2,
    4,
    18,
    18,
    15,
    8,
    8,
    8,
    8,
    -2,
    -2,
    8,
    -2,
    -2,
    -2,
    4,
    8,
    8,
    -2,
    -2,
    8,
    -2,
    -2,
    8,
    17,
    -2,
    -2,
    8,
    -2,
    -2,
    17,
    8,
    8,
    -2,
    0,
    -2,
    -2,
    18,
    15,
    -2,
    -2,
    8,
    -2,
    -2,
    4,
    8,
    8,
    -2,
    -2,
    8,
    -2,
    -2,
    8,
    -2,
    8,
    -2,
    -2,
    17,
    8,
    8,
    8,
    8,
    -2,
    -2,
    -2,
    8,
    18,
    -2,
    -2,
    8,
    -2,
    -2,
    8,
    0,
    18,
    -2,
    -2,
    15,
    -2,
    -2,
    18,
    8,
    -2,
    -2,
    0,
    -2,
    -2,
    8,
    8,
    8,
    17,
    -2,
    -2,
    8,
    -2,
    -2,
    0,
    -2,
    -2,
    8,
    8,
    8,
    -2,
    -2,
    17,
    -2,
    -2,
    8,
    15,
    -2,
    -2,
    8,
    -2,
    -2,
    8,
    18,
    -2,
    -2,
    8,
    17,
    4,
    -2,
    -2,
    8,
    8,
    -2,
    -2,
    8,
    8,
    -2,
    -2,
    -2,
    8,
    17,
    4,
    -2,
    -2,
    8,
    -2,
    15,
    -2,
    -2,
    8,
    8,
    18,
    -2,
    -2,
    8,
    -2,
    -2,
    8,
    8,
    -2,
    -2,
    8,
    -2,
    -2,
    17,
    8,
    8,
    8,
    8,
    8,
    8,
    -2,
    -2,
    18,
    -2,
    -2,
    -2,
    4,
    -2,
    8,
    -2,
    4,
    -2,
    -2,
    8,
    8,
    8,
    8,
    -2,
    -2,
    8,
    -2,
    -2,
    0,
    8,
    -2,
    -2,
    -2,
    8,
    -2,
    8,
    4,
    -2,
    -2,
    8,
    -2,
    -2,
    8,
    18,
    8,
    -2,
    17,
    -2,
    -2,
    8,
    8,
    8,
    -2,
    -2,
    8,
    -2,
    -2,
    -2,
    8,
    -2,
    8,
    0,
    -2,
    -2,
    15,
    17,
    -2,
    -2,
    8,
    -2,
    -2,
    8,
    8,
    -2,
    8,
    -2,
    -2,
    8,
    8,
    8,
    8,
    8,
    -2,
    -2,
    8,
    -2,
    -2,
    8,
    -2,
    8,
    -2,
    -2,
    -2,
    8,
    -2,
    8,
    -2,
    -2,
    15,
    15,
    8,
    8,
    8,
    8,
    8,
    0,
    8,
    -2,
    -2,
    15,
    -2,
    -2,
    8,
    18,
    -2,
    -2,
    8,
    -2,
    -2,
    8,
    18,
    -2,
    -2,
    8,
    8,
    -2,
    -2,
    8,
    -2,
    -2,
    4,
    -2,
    0,
    18,
    -2,
    -2,
    -2,
    4,
    8,
    -2,
    8,
    17,
    -2,
    -2,
    0,
    -2,
    -2,
    -2,
    8,
    -2,
    -2,
    15,
    8,
    8,
    8,
    8,
    8,
    8,
    -2,
    -2,
    -2,
    8,
    15,
    -2,
    -2,
    8,
    -2,
    -2,
    8,
    15,
    -2,
    -2,
    -2,
    15,
    -2,
    -2,
    8,
    -2,
    8,
    15,
    -2,
    -2,
    8,
    8,
    8,
    -2,
    -2,
    -2,
    17,
    8,
    -2,
    -2,
    -2,
    8,
    8,
    8,
    15,
    -2,
    8,
    -2,
    8,
    -2,
    -2,
    0,
    -2,
    -2,
    8,
    15,
    -2,
    8,
    8,
    -2,
    -2,
    8,
    -2,
    -2,
    8,
    -2,
    8,
    8,
    -2,
    -2,
    15,
    -2,
    -2,
    8,
    -2,
    15,
    8,
    8,
    -2,
    -2,
    -2,
    8,
    -2,
    -2,
    4,
    8,
    8,
    8,
    8,
    -2,
    8,
    4,
    -2,
    -2,
    8,
    8,
    -2,
    -2,
    8,
    -2,
    -2,
    17,
    -2,
    -2,
    4,
    -2,
    8,
    8,
    -2,
    -2,
    8,
    -2,
    -2,
    8,
    15,
    -2,
    -2,
    8,
    15,
    -2,
    8,
    8,
    8,
    -2,
    -2,
    -2,
    0,
    -2,
    8,
    -2,
    -2,
    8,
    8,
    8,
    -2,
    8,
    -2,
    -2,
    17,
    17,
    -2,
    -2,
    -2,
    8,
    -2,
    8,
    -2,
    17,
    -2,
    -2,
    8,
    8,
    17,
    8,
    8,
    -2,
    8,
    -2,
    -2,
    8,
    15,
    -2,
    8,
    -2,
    -2,
    -2,
    8,
    -2,
    8,
    4,
    -2,
    -2,
    -2,
    8,
    -2,
    8,
    -2,
    8,
    17,
    8,
    -2,
    -2,
    8,
    -2,
    -2,
    8,
    8,
    -2,
    -2,
    8,
    -2,
    -2,
    0,
    -2,
    8,
    15,
    -2,
    -2,
    -2,
    5,
    4,
    18,
    0,
    8,
    -2,
    4,
    -2,
    -2,
    -2,
    8,
    -2,
    -2,
    8,
    8,
    -2,
    18,
    -2,
    0,
    -2,
    -2,
    0,
    -2,
    -2,
    -2,
    3,
    -2,
    -2,
    16,
    -2,
    -2,
    11,
    -2,
    15,
    -2,
    -2,
    8,
    8,
    -2,
    17,
    -2,
    -2,
    -2,
    14,
    4,
    -2,
    1,
    8,
    -2,
    8,
    -2,
    -2,
    -2,
    8,
    8,
    18,
    2,
    -2,
    2,
    -2,
    -2,
    2,
    -2,
    -2,
    16,
    -2,
    8,
    -2,
    14,
    -2,
    -2,
    13,
    17,
    -2,
    16,
    0,
    16,
    16,
    16,
    0,
    16,
    16,
    0,
    15,
    -2,
    17,
    16,
    -2,
    -2,
    -2,
    -2,
    -2,
    0,
    -2,
    -2,
    -2,
    15,
    0,
    16,
    15,
    15,
    -2,
    -2,
    4,
    -2,
    0,
    16,
    -2,
    -2,
    -2,
    0,
    -2,
    -2,
    16,
    0,
    -2,
    -2,
    0,
    15,
    -2,
    -2,
    -2,
    16,
    -2,
    16,
    16,
    15,
    0,
    16,
    -2,
    -2,
    -2,
    -2,
    16,
    -2,
    -2,
    16,
    -2,
    16,
    -2,
    16,
    15,
    -2,
    -2,
    16,
    -2,
    -2,
    4,
    -2,
    -2,
    16,
    18,
    15,
    -2,
    -2,
    -2,
    16,
    -2,
    0,
    16,
    16,
    -2,
    16,
    -2,
    16,
    15,
    -2,
    16,
    -2,
    -2,
    16,
    -2,
    0,
    -2,
    -2,
    18,
    -2,
    -2,
    15,
    -2,
    15,
    -2,
    16,
    -2,
    16,
    0,
    16,
    -2,
    -2,
    -2,
    0,
    -2,
    -2,
    16,
    -2,
    0,
    16,
    16,
    15,
    15,
    16,
    16,
    -2,
    -2,
    0,
    -2,
    -2,
    0,
    0,
    0,
    15,
    -2,
    -2,
    -2,
    16,
    -2,
    16,
    -2,
    -2,
    16,
    16,
    16,
    -2,
    -2,
    -2,
    15,
    -2,
    0,
    -2,
    -2,
    0,
    0,
    15,
    -2,
    16,
    -2,
    16,
    -2,
    -2,
    -2,
    -2,
    17,
    -2,
    -2,
    16,
    16,
    18,
    -2,
    -2,
    16,
    -2,
    16,
    16,
    16,
    0,
    -2,
    -2,
    18,
    -2,
    -2,
    17,
    -2,
    -2,
    0,
    -2,
    15,
    -2,
    -2,
    -2,
    15,
    16,
    -2,
    15,
    16,
    -2,
    -2,
    16,
    15,
    -2,
    0,
    -2,
    15,
    -2,
    -2,
    -2,
    15,
    16,
    -2,
    15,
    16,
    -2,
    -2,
    0,
    -2,
    16,
    16,
    16,
    -2,
    -2,
    -2,
    -2,
    -2,
    16,
    16,
    0,
    16,
    0,
    16,
    16,
    15,
    16,
    16,
    16,
    -2,
    -2,
    -2,
    16,
    -2,
    16,
    -2,
    -2,
    15,
    -2,
    16,
    -2,
    0,
    -2,
    -2,
    0,
    -2,
    -2,
    16,
    0,
    0,
    0,
    18,
    -2,
    -2,
    18,
    -2,
    -2,
    0,
    -2,
    -2,
    16,
    0,
    0,
    -2,
    -2,
    18,
    -2,
    -2,
    18,
    18,
    -2,
    -2,
    18,
    -2,
    -2,
    16,
    16,
    16,
    -2,
    18,
    -2,
    -2,
    15,
    -2,
    -2,
    -2,
    16,
    -2,
    16,
    -2,
    0,
    -2,
    16,
    16,
    16,
    -2,
    -2,
    0,
    -2,
    -2,
    -2,
    -2,
    -2,
    16,
    16,
    0,
    16,
    -2,
    16,
    4,
    -2,
    0,
    -2,
    0,
    -2,
    16,
    -2,
    -2,
    0,
    -2,
    18,
    16,
    -2,
    16,
    -2,
    -2,
    -2,
    -2,
    -2,
    0,
    15,
    15,
    -2,
    -2,
    -2,
    15,
    -2,
    0,
    0,
    -2,
    -2,
    -2,
    -2,
    -2,
    6,
    14,
    -2,
    11,
    -2,
    3,
    15,
    19,
    -2,
    18,
    0,
    8,
    8,
    -2,
    0,
    -2,
    4,
    -2,
    -2,
    0,
    8,
    -2,
    8,
    0,
    -2,
    -2,
    0,
    -2,
    8,
    8,
    -2,
    -2,
    -2,
    -2,
    18,
    8,
    8,
    -2,
    18,
    -2,
    15,
    -2,
    -2,
    -2,
    8,
    -2,
    8,
    -2,
    8,
    8,
    -2,
    -2,
    -2,
    15,
    0,
    15,
    4,
    8,
    -2,
    8,
    -2,
    -2,
    -2,
    0,
    8,
    4,
    8,
    -2,
    8,
    17,
    -2,
    -2,
    8,
    -2,
    8,
    -2,
    -2,
    8,
    8,
    -2,
    15,
    -2,
    -2,
    17,
    -2,
    -2,
    8,
    15,
    -2,
    -2,
    8,
    8,
    15,
    8,
    -2,
    -2,
    -2,
    -2,
    -2,
    0,
    4,
    -2,
    8,
    8,
    15,
    4,
    -2,
    -2,
    8,
    -2,
    -2,
    -2,
    15,
    8,
    18,
    -2,
    -2,
    8,
    -2,
    -2,
    15,
    8,
    -2,
    -2,
    -2,
    8,
    -2,
    8,
    8,
    8,
    -2,
    -2,
    -2,
    -2,
    0,
    8,
    -2,
    8,
    18,
    -2,
    17,
    -2,
    -2,
    -2,
    8,
    4,
    8,
    -2,
    8,
    18,
    -2,
    -2,
    15,
    -2,
    -2,
    8,
    8,
    15,
    -2,
    8,
    8,
    -2,
    -2,
    8,
    -2,
    -2,
    15,
    8,
    17,
    -2,
    -2,
    -2,
    -2,
    -2,
    0,
    -2,
    8,
    -2,
    -2,
    0,
    8,
    0,
    -2,
    -2,
    8,
    -2,
    8,
    8,
    8,
    8,
    8,
    4,
    -2,
    -2,
    -2,
    0,
    0,
    -2,
    -2,
    -2,
    -2,
    4,
    8,
    15,
    -2,
    -2,
    -2,
    8,
    -2,
    8,
    -2,
    -2,
    4,
    8,
    8,
    8,
    -2,
    4,
    -2,
    -2,
    -2,
    8,
    -2,
    8,
    8,
    -2,
    -2,
    8,
    -2,
    -2,
    -2,
    8,
    8,
    -2,
    0,
    -2,
    -2,
    8,
    -2,
    8,
    18,
    -2,
    -2,
    8,
    8,
    8,
    8,
    -2,
    0,
    -2,
    -2,
    8,
    -2,
    8,
    -2,
    -2,
    18,
    -2,
    18,
    8,
    -2,
    -2,
    8,
    -2,
    -2,
    15,
    -2,
    -2,
    17,
    15,
    0,
    -2,
    -2,
    -2,
    4,
    -2,
    -2,
    17,
    -2,
    -2,
    8,
    -2,
    8,
    0,
    -2,
    15,
    -2,
    -2,
    -2,
    8,
    1,
    14,
    -2,
    18,
    10,
    -2,
    15,
    18,
    -2,
    11,
    -2,
    -2,
    5,
    -2,
    -2,
    1,
    19,
    15,
    -2,
    -2,
    15,
    -2,
    -2,
    10,
    -2,
    -2,
    15,
    -2,
    4,
    -2,
    -2,
    4,
    3,
    8,
    9,
    10,
    1,
    4,
    -2,
    15,
    0,
    0,
    -2,
    -2,
    -2,
    15,
    -2,
    -2,
    0,
    -2,
    -2,
    -2,
    19,
    -2,
    -2,
    0,
    -2,
    -2,
    3,
    13,
    -2,
    -2,
    2,
    -2,
    -2,
    13,
    -2,
    12,
    9,
    8,
    20,
    -2,
    14,
    -2,
    2,
    16,
    -2,
    -2,
    -2,
    13,
    -2,
    -2,
    19,
    11,
    11,
    8,
    19,
    19,
    20,
    6,
    -2,
    16,
    18,
    1,
    -2,
    17,
    16,
    -2,
    -2,
    -2,
    18,
    16,
    -2,
    -2,
    -2,
    11,
    15,
    0,
    4,
    -2,
    -2,
    16,
    -2,
    -2,
    -2,
    -2,
    -2,
    9,
    15,
    16,
    18,
    15,
    1,
    17,
    -2,
    -2,
    15,
    -2,
    -2,
    17,
    15,
    -2,
    -2,
    6,
    -2,
    -2,
    15,
    15,
    14,
    -2,
    -2,
    0,
    -2,
    -2,
    18,
    -2,
    0,
    -2,
    -2,
    -2,
    17,
    0,
    17,
    -2,
    0,
    15,
    -2,
    -2,
    -2,
    0,
    -2,
    -2,
    0,
    -2,
    15,
    15,
    -2,
    -2,
    15,
    -2,
    -2,
    10,
    2,
    2,
    13,
    -2,
    -2,
    -2,
    -2,
    10,
    14,
    20,
    -2,
    -2,
    16,
    -2,
    -2,
    2,
    19,
    11,
    -2,
    -2,
    -2,
    -2,
    10,
    13,
    -2,
    12,
    10,
    9,
    -2,
    0,
    -2,
    -2,
    19,
    -2,
    2,
    -2,
    -2,
    -2,
    -2,
    9,
    18,
    1,
    11,
    2,
    18,
    12,
    2,
    18,
    -2,
    -2,
    16,
    -2,
    -2,
    12,
    0,
    -2,
    -2,
    13,
    -2,
    -2,
    8,
    8,
    8,
    -2,
    -2,
    8,
    -2,
    -2,
    8,
    8,
    -2,
    -2,
    8,
    -2,
    -2,
    11,
    8,
    0,
    15,
    -2,
    -2,
    1,
    -2,
    -2,
    20,
    -2,
    -2,
    -2,
    11,
    13,
    -2,
    -2,
    -2,
    13,
    -2,
    -2,
    8,
    8,
    8,
    8,
    8,
    -2,
    8,
    15,
    -2,
    -2,
    15,
    -2,
    -2,
    8,
    0,
    17,
    -2,
    -2,
    15,
    -2,
    -2,
    8,
    0,
    -2,
    -2,
    8,
    -2,
    -2,
    8,
    8,
    15,
    -2,
    8,
    -2,
    -2,
    17,
    -2,
    -2,
    15,
    0,
    -2,
    -2,
    0,
    8,
    -2,
    -2,
    15,
    -2,
    -2,
    8,
    15,
    0,
    15,
    17,
    -2,
    -2,
    8,
    -2,
    -2,
    15,
    8,
    -2,
    -2,
    0,
    -2,
    -2,
    0,
    8,
    8,
    -2,
    -2,
    17,
    -2,
    -2,
    8,
    8,
    -2,
    -2,
    15,
    -2,
    -2,
    16,
    8,
    8,
    8,
    -2,
    -2,
    8,
    -2,
    -2,
    8,
    4,
    -2,
    -2,
    8,
    -2,
    -2,
    -2,
    18,
    -2,
    -2,
    15,
    -2,
    -2,
    16,
    -2,
    -2,
    12,
    0,
    19,
    -2,
    8,
    -2,
    8,
    -2,
    -2,
    20,
    1,
    9,
    4,
    0,
    18,
    8,
    16,
    -2,
    13,
    -2,
    -2,
    2,
    -2,
    -2,
    -2,
    18,
    0,
    -2,
    -2,
    0,
    18,
    -2,
    -2,
    -2,
    13,
    -2,
    18,
    -2,
    -2,
    9,
    12,
    10,
    14,
    0,
    16,
    -2,
    -2,
    -2,
    -2,
    10,
    17,
    -2,
    -2,
    1,
    16,
    -2,
    -2,
    0,
    -2,
    -2,
    12,
    -2,
    1,
    3,
    -2,
    3,
    -2,
    -2,
    -2,
    9,
    3,
    4,
    -2,
    4,
    -2,
    -2,
    -2,
    3,
    3,
    -2,
    17,
    17,
    -2,
    -2,
    -2,
    2,
    8,
    -2,
    3,
    -2,
    -2,
    1,
    12,
    -2,
    -2,
    2,
    -2,
    -2,
    2,
    -2,
    -2,
    2,
    9,
    -2,
    18,
    -2,
    -2,
    -2,
    12,
    -2,
    10,
    16,
    -2,
    14,
    14,
    -2,
    12,
    -2,
    -2,
    11,
    -2,
    -2,
    12,
    16,
    1,
    -2,
    -2,
    16,
    20,
    3,
    3,
    16,
    -2,
    4,
    -2,
    -2,
    12,
    -2,
    -2,
    14,
    8,
    -2,
    -2,
    14,
    19,
    -2,
    -2,
    3,
    -2,
    -2,
    2,
    -2,
    -2,
    16,
    -2,
    -2,
    12,
    -2,
    0,
    -2,
    -2,
    8,
    12,
    -2,
    -2,
    10,
    -2,
    -2,
    8,
    3,
    11,
    -2,
    12,
    10,
    19,
    14,
    16,
    -2,
    -2,
    0,
    -2,
    -2,
    2,
    19,
    14,
    -2,
    -2,
    10,
    -2,
    11,
    -2,
    -2,
    14,
    -2,
    -2,
    -2,
    13,
    -2,
    -2,
    9,
    -2,
    3,
    -2,
    -2,
    -2,
    8,
    3,
    3,
    -2,
    10,
    2,
    3,
    13,
    16,
    -2,
    3,
    14,
    -2,
    15,
    -2,
    -2,
    19,
    -2,
    20,
    -2,
    -2,
    -2,
    3,
    3,
    3,
    14,
    4,
    -2,
    -2,
    -2,
    9,
    -2,
    -2,
    0,
    -2,
    -2,
    17,
    -2,
    -2,
    10,
    -2,
    -2,
    13,
    -2,
    -2,
    14,
    14,
    -2,
    -2,
    -2,
    11,
    -2,
    2,
    -2,
    -2
  ],
  "threshold": [
    1.3805564641952515,
    -0.5555330216884613,
    1.3515674471855164,
    -0.007139737717807293,
    -0.4978525787591934,
    -0.4369581490755081,
    -0.18315096199512482,
    -0.43701283633708954,
    0.3970768451690674,
    0.8682861626148224,
    -2.0,
    1.2353928089141846,
    0.7253618836402893,
    -0.25805366039276123,
    0.27717579901218414,
    -0.25805406272411346,
    -2.0,
    -2.0,
    -0.009327103849500418,
    -2.0,
    -2.0,
    -2.0,
    -2.0,
    -0.18315252661705017,
    -2.0,
    -2.0,
    -0.28797677159309387,
    -0.4401846081018448,
    -0.26156066358089447,
    -2.0,
    -2.0,
    -0.3628835678100586,
    2.9734948873519897,
    -2.0,
    -2.0,
    -2.0,
    -0.00908658653497696,
    -2.0,
    -0.5674051344394684,
    -2.0,
    -2.0,
    -0.0077839866280555725,
    0.23202404379844666,
    -0.4394594579935074,
    -0.12565388903021812,
    -0.43946070969104767,
    -0.2880484610795975,
    -0.3628877252340317,
    -0.2880489081144333,
    -0.13406050205230713,
    -0.12278229743242264,
    -2.0,
    -2.0,
    -0.13136308640241623,
    -2.0,
    -0.2880495637655258,
    -2.0,
    -2.0,
    -0.2880486845970154,
    -2.0,
    -2.0,
    -0.16964041441679,
    -2.0,
    -0.4665391892194748,
    -0.14260034263134003,
    -2.0,
    -0.3628835529088974,
    -2.0,
    -2.0,
    -2.0,
    -0.36287763714790344,
    -0.43946243822574615,
    -0.43946249783039093,
    -0.14345499873161316,
    -0.4394625276327133,
    -0.5726723372936249,
    -2.0,
    -2.0,
    -2.0,
    -0.1545133739709854,
    -0.2880469113588333,
    -2.0,
    -2.0,
    -0.12878446280956268,
    -2.0,
    -2.0,
    -0.43946246802806854,
    -2.0,
    -2.0,
    -0.28803251683712006,
    -0.43946127593517303,
    -0.2880409359931946,
    -0.2880445867776871,
    -2.0,
    -2.0,
    -0.28803782165050507,
    -2.0,
    -2.0,
    -2.0,
    -0.28802962601184845,
    -0.1988680362701416,
    -0.4394608587026596,
    -2.0,
    -2.0,
    -0.19753796607255936,
    -2.0,
    -2.0,
    -0.22355256229639053,
    -0.22393177449703217,
    -2.0,
    -2.0,
    -2.0,
    -0.362876832485199,
    -0.3628772348165512,
    -2.0,
    -2.0,
    -2.0,
    -0.4394601434469223,
    -0.36287662386894226,
    -0.4394604414701462,
    -0.43946047127246857,
    -0.2880367785692215,
    -2.0,
    -0.22539754956960678,
    -0.2880278527736664,
    -2.0,
    -2.0,
    -0.20328206568956375,
    -2.0,
    -2.0,
    -2.0,
    -0.2880256474018097,
    -0.2880258709192276,
    -0.20708339661359787,
    -2.0,
    -0.4394603818655014,
    -2.0,
    -2.0,
    -2.0,
    -0.28802497684955597,
    -0.20833809673786163,
    -2.0,
    -0.20803025364875793,
    -2.0,
    -2.0,
    -0.4394601732492447,
    -2.0,
    -2.0,
    -0.4394602030515671,
    -0.18278280645608902,
    -2.0,
    -0.3628741204738617,
    -2.0,
    -2.0,
    -2.0,
    -0.3628723621368408,
    -0.3628728985786438,
    -0.23249884694814682,
    -0.21279457211494446,
    -0.4394596964120865,
    -0.23454227298498154,
    -2.0,
    -2.0,
    -0.2880207747220993,
    -2.0,
    -2.0,
    -0.212281696498394,
    -0.21253957599401474,
    -2.0,
    -2.0,
    -0.4394598752260208,
    -2.0,
    -2.0,
    -0.4394599348306656,
    -0.3628808259963989,
    -0.23222993314266205,
    -2.0,
    -2.0,
    -0.3628735840320587,
    -2.0,
    -2.0,
    -0.19124609977006912,
    -2.0,
    -2.0,
    -0.19146858900785446,
    -2.0,
    -0.28804126381874084,
    -2.0,
    -2.0,
    -2.0,
    -0.4394637197256088,
    -0.2880566567182541,
    -0.2880573272705078,
    -2.0,
    -0.4394644945859909,
    -0.4394645243883133,
    -2.0,
    -2.0,
    0.10767809301614761,
    -2.0,
    -2.0,
    -0.4394638389348984,
    -0.2880537807941437,
    -0.2880542278289795,
    0.11791019886732101,
    -0.43946416676044464,
    -0.011729216435924172,
    -2.0,
    -2.0,
    -2.0,
    -2.0,
    -0.43946410715579987,
    -2.0,
    -2.0,
    -0.43946392834186554,
    -0.28805355727672577,
    -2.0,
    -0.030435648746788502,
    -0.04257977195084095,
    -2.0,
    -2.0,
    -2.0,
    -0.43946389853954315,
    -2.0,
    -0.2880522310733795,
    -2.0,
    -2.0,
    -0.05071253329515457,
    -0.2880515605211258,
    -0.2880517840385437,
    -2.0,
    -2.0,
    -0.4394637495279312,
    -2.0,
    -2.0,
    -2.0,
    0.3970768451690674,
    -2.0,
    -0.4394636005163193,
    -0.43946368992328644,
    -0.28805355727672577,
    -2.0,
    -2.0,
    -0.43946366012096405,
    -2.0,
    -0.09146229177713394,
    -2.0,
    -0.00908658653497696,
    -2.0,
    -2.0,
    -0.28805001080036163,
    -0.3628823310136795,
    -0.36288364231586456,
    -0.4394635111093521,
    -0.056082868948578835,
    -2.0,
    -2.0,
    -2.0,
    -0.07007225975394249,
    -0.07581417635083199,
    -2.0,
    -2.0,
    -0.43946346640586853,
    -2.0,
    -2.0,
    -2.0,
    -2.0,
    -0.43943391740322113,
    -0.43943776190280914,
    -0.28800126910209656,
    -0.36286090314388275,
    -0.4394591897726059,
    -0.43945930898189545,
    -0.4394593983888626,
    -0.3628796935081482,
    -0.2368539273738861,
    -2.0,
    -2.0,
    -2.0,
    -0.28802940249443054,
    -2.0,
    -0.23750059306621552,
    -2.0,
    -2.0,
    -0.2383320927619934,
    -2.0,
    -0.4394592195749283,
    -0.36287540197372437,
    -2.0,
    -2.0,
    -2.0,
    -0.4394531697034836,
    -0.24481652677059174,
    -0.36286886036396027,
    -0.43945737183094025,
    -2.0,
    -2.0,
    -2.0,
    -0.43945862352848053,
    -0.23118948936462402,
    -2.0,
    -2.0,
    -0.4394552707672119,
    -2.0,
    -2.0,
    -0.3628767430782318,
    -2.0,
    -0.28800642490386963,
    -2.0,
    -2.0,
    -0.2880091965198517,
    -0.25059565901756287,
    -0.43945176899433136,
    -0.2516930401325226,
    -0.36284948885440826,
    -2.0,
    -2.0,
    -0.36285094916820526,
    -2.0,
    -2.0,
    -0.2531455457210541,
    -2.0,
    -2.0,
    -0.2880243808031082,
    -0.4394553303718567,
    -2.0,
    -2.0,
    -2.0,
    -0.28800421953201294,
    -0.36285218596458435,
    -0.43945060670375824,
    -0.43945087492465973,
    -2.0,
    -2.0,
    -2.0,
    -0.36284415423870087,
    -0.25466373562812805,
    -2.0,
    -2.0,
    -0.28800465166568756,
    -2.0,
    -2.0,
    -2.0,
    -0.2878914922475815,
    -0.2532661706209183,
    -0.2879278212785721,
    -0.28798893094062805,
    -0.36285002529621124,
    -0.4394521415233612,
    -2.0,
    -2.0,
    -0.36283111572265625,
    -2.0,
    -2.0,
    -0.2624466270208359,
    -0.26476332545280457,
    -2.0,
    -2.0,
    -0.4394504874944687,
    -2.0,
    -2.0,
    -0.2672022581100464,
    -0.2673194706439972,
    -0.28790290653705597,
    -2.0,
    -2.0,
    -2.0,
    -0.28791819512844086,
    -0.28792496025562286,
    -2.0,
    -2.0,
    -0.26653236150741577,
    -2.0,
    -2.0,
    -0.43945692479610443,
    -0.24949243664741516,
    -0.22851577401161194,
    -2.0,
    -2.0,
    -0.24938616156578064,
    -2.0,
    -2.0,
    -0.2530238479375839,
    -0.4394558221101761,
    -2.0,
    -0.4394557923078537,
    -2.0,
    -2.0,
    -0.43945665657520294,
    -0.22904610633850098,
    -2.0,
    -2.0,
    -0.2879970669746399,
    -2.0,
    -2.0,
    -0.43943779170513153,
    -0.24922534078359604,
    -2.0,
    -0.28786103427410126,
    -0.26937149465084076,
    -0.2878668010234833,
    -2.0,
    -2.0,
    -0.43943941593170166,
    -2.0,
    -2.0,
    -0.439438059926033,
    -0.2696830630302429,
    -2.0,
    -2.0,
    -0.2697305530309677,
    -2.0,
    -2.0,
    -2.0,
    -0.24521730095148087,
    -0.27003128826618195,
    -0.439434215426445,
    -0.28784753382205963,
    -0.24954616278409958,
    -0.24955511093139648,
    -0.24959073215723038,
    -2.0,
    -2.0,
    -2.0,
    -2.0,
    -0.27053530514240265,
    -0.27058927714824677,
    -0.2878364473581314,
    -2.0,
    -2.0,
    -0.2705662250518799,
    -2.0,
    -2.0,
    -0.28784531354904175,
    -0.2702704966068268,
    -2.0,
    -2.0,
    -0.43943555653095245,
    -2.0,
    -2.0,
    -0.43943415582180023,
    -0.2502828389406204,
    -2.0,
    -2.0,
    -0.2708267271518707,
    -0.25033482909202576,
    -2.0,
    -2.0,
    -0.2503052055835724,
    -2.0,
    -0.27079783380031586,
    -2.0,
    -2.0,
    -0.43943434953689575,
    -0.3628082424402237,
    -0.36283355951309204,
    -0.4394359588623047,
    -0.2878568321466446,
    -2.0,
    -2.0,
    -0.2666272222995758,
    -2.0,
    -2.0,
    -0.2664756327867508,
    -2.0,
    -0.2456296756863594,
    -2.0,
    -2.0,
    -0.36280007660388947,
    -0.24569539725780487,
    -0.2879518121480942,
    -2.0,
    -2.0,
    -0.26630619168281555,
    -2.0,
    -2.0,
    -0.2879498302936554,
    -0.43943530321121216,
    -2.0,
    -2.0,
    -0.3627987205982208,
    -2.0,
    -2.0,
    -0.36279767751693726,
    -2.0,
    -0.3627975434064865,
    -2.0,
    -0.2670878767967224,
    -2.0,
    -2.0,
    -0.287958025932312,
    -0.2449183389544487,
    -0.26566527783870697,
    -2.0,
    -0.36282558739185333,
    -2.0,
    -2.0,
    -2.0,
    -2.0,
    -0.06740877777338028,
    -0.43936650454998016,
    -0.00908658653497696,
    -0.28754788637161255,
    -0.25233110785484314,
    -0.27410756051540375,
    -0.274132564663887,
    -0.43940913677215576,
    -2.0,
    -2.0,
    -0.4394097328186035,
    -2.0,
    -2.0,
    -0.2877131551504135,
    -0.2730967700481415,
    -2.0,
    -2.0,
    -0.273348793387413,
    -2.0,
    -2.0,
    -0.2711568623781204,
    -0.43942390382289886,
    -0.2726600170135498,
    -2.0,
    -2.0,
    -0.2523270547389984,
    -2.0,
    -2.0,
    -0.2878270298242569,
    -0.28782758116722107,
    -2.0,
    -2.0,
    -0.27092960476875305,
    -2.0,
    -2.0,
    -0.43939079344272614,
    -0.25457993149757385,
    -0.28754323720932007,
    -2.0,
    -0.4393954426050186,
    -2.0,
    -2.0,
    -0.43939612805843353,
    -0.4393961578607559,
    -2.0,
    -2.0,
    -2.0,
    -0.27521733939647675,
    -0.2873978018760681,
    -0.27569468319416046,
    -2.0,
    -2.0,
    -0.43937113881111145,
    -2.0,
    -2.0,
    -2.0,
    -2.0,
    -0.43933631479740143,
    -0.25618956983089447,
    -2.0,
    -0.4393499493598938,
    -0.4393521249294281,
    -0.2762143164873123,
    -2.0,
    -0.2558620572090149,
    -2.0,
    -2.0,
    -0.276280477643013,
    -0.28721414506435394,
    -2.0,
    -2.0,
    -2.0,
    -0.25610940158367157,
    -0.43934156000614166,
    -2.0,
    -0.43933768570423126,
    -2.0,
    -2.0,
    -2.0,
    -0.5593266785144806,
    -0.25014664232730865,
    -0.43932725489139557,
    -0.27662788331508636,
    -0.43932919204235077,
    -2.0,
    -2.0,
    -2.0,
    -0.3609541207551956,
    -2.0,
    -0.2778221368789673,
    -2.0,
    -2.0,
    -0.4333220571279526,
    -0.2580142319202423,
    -0.2783081978559494,
    -2.0,
    -2.0,
    -0.434145525097847,
    -2.0,
    -2.0,
    -0.11107141524553299,
    -2.0,
    -0.25804485380649567,
    -2.0,
    -2.0,
    -0.46188555657863617,
    -2.0,
    -2.0,
    -0.3188374489545822,
    -0.4642571359872818,
    -0.3200700432062149,
    -0.25805267691612244,
    -2.0,
    -0.2783408910036087,
    0.3970768451690674,
    -2.0,
    -0.2783448398113251,
    -2.0,
    -2.0,
    -0.04269079677760601,
    -0.25804664194583893,
    -2.0,
    -2.0,
    -0.030038652010262012,
    -2.0,
    -2.0,
    1.4674128890037537,
    1.4403519034385681,
    0.27432411909103394,
    0.19114042818546295,
    -2.0,
    -2.0,
    9.2982759475708,
    -2.0,
    -2.0,
    -2.0,
    3.1157420873641968,
    18.34037208557129,
    18.32929515838623,
    -2.0,
    -2.0,
    2.2767707109451294,
    -2.0,
    -2.0,
    -2.0,
    0.8510545641183853,
    -0.27834634482860565,
    -2.0,
    -0.2580530345439911,
    -2.0,
    -0.27834393084049225,
    -2.0,
    -2.0,
    0.3970768451690674,
    -2.0,
    -2.0,
    -0.007865001680329442,
    -0.25805069506168365,
    0.02676178328692913,
    -2.0,
    2.1558229848742485,
    -0.28564316034317017,
    32.23212523711845,
    -2.0,
    -2.0,
    -2.0,
    -0.18315240740776062,
    -2.0,
    -2.0,
    -2.0,
    3.584434747695923,
    -2.0,
    -2.0,
    0.3970768451690674,
    -2.0,
    -0.28805842995643616,
    -0.28806059062480927,
    4.791241526603699,
    -0.4394650012254715,
    -2.0,
    -2.0,
    -0.3628878593444824,
    -0.00908658653497696,
    -2.0,
    -2.0,
    -2.0,
    -0.4394649714231491,
    -2.0,
    -0.4394649416208267,
    -2.0,
    -0.2880590409040451,
    -0.28805992007255554,
    -2.0,
    0.9385422766208649,
    -2.0,
    -2.0,
    -0.4394647628068924,
    -2.0,
    -2.0,
    -0.28805820643901825,
    -2.0,
    0.22946996241807938,
    -2.0,
    -0.43946464359760284,
    -2.0,
    -2.0,
    0.0013342107995413244,
    -0.1831517145037651,
    -0.0012709884031210095,
    -0.1831519827246666,
