{
  "model_type": "decision_tree",
  "features": [
    "Flow Duration",
    "Total Fwd Packets",
    "Total Backward Packets",
    "Total Length of Bwd Packets",
    "Flow Packets/s",
    "SYN Flag Count",
    "ACK Flag Count",
    "RST Flag Count",
    "Destination Port",
    "Fwd Packet Length Mean",
    "Fwd Packet Length Std",
    "Bwd Packet Length Mean",
    "Bwd Packet Length Std",
    "Packet Length Mean",
    "Packet Length Std",
    "Flow IAT Mean",
    "Flow IAT Std",
    "Fwd Packets/s",
    "Bwd Packets/s",
    "Average Packet Size",
    "Down/Up Ratio"
  ],
  "n_features": 21,
  "scaler_mean": [
    14787382.33937782,
    9.440566876384407,
    10.52658945910504,
    16391.363498308016,
    70818.72862133819,
    0.046385929756835476,
    0.3153418104485602,
    0.00023820399102191967,
    8065.497606172676,
    58.37203080733908,
    69.06008220865077,
    306.2607909499267,
    335.4807185158333,
    172.22943958725426,
    295.34520127822503,
    1298523.091458691,
    2922121.5790801556,
    63905.960730218525,
    7001.658341621071,
    192.3009102237119,
    0.6840688188520041
  ],
  "scaler_scale": [
    33653376.057930596,
    768.5814345553873,
    1026.8688979399035,
    2313879.898276482,
    254547.80055895052,
    0.21031946005405555,
    0.46465186218456567,
    0.015432020278647285,
    18279.633096574828,
    186.95510874814488,
    282.14779165686156,
    605.659756731303,
    839.8511276518909,
    305.9052092855159,
    632.4023683627322,
    4506717.771948986,
    8052323.185135972,
    247709.66174350702,
    38264.58184843039,
    332.2950707811846,
    0.6753536558431024
  ],
  "lr_threshold": 0.8697582065211564,
  "n_nodes": 3161,
  "children_left": [
    1,
    2,
    3,
    4,
    5,
    6,
    7,
    8,
    9,
    10,
    -1,
    12,
    13,
    14,
    15,
    -1,
    -1,
    -1,
    19,
    -1,
    -1,
    -1,
    23,
    24,
    25,
    -1,
    -1,
    -1,
    29,
    -1,
    31,
    32,
    -1,
    -1,
    -1,
    36,
    37,
    38,
    39,
    40,
    41,
    42,
    43,
    -1,
    45,
    46,
    -1,
    48,
    49,
    -1,
    -1,
    -1,
    53,
    -1,
    -1,
    56,
    57,
    58,
    59,
    -1,
    -1,
    -1,
    -1,
    -1,
    65,
    66,
    67,
    68,
    -1,
    70,
    71,
    -1,
    -1,
    -1,
    75,
    -1,
    77,
    -1,
    79,
    -1,
    -1,
    82,
    83,
    84,
    -1,
    -1,
    87,
    88,
    -1,
    -1,
    91,
    -1,
    -1,
    94,
    95,
    96,
    -1,
    -1,
    -1,
    100,
    101,
    -1,
    -1,
    104,
    -1,
    -1,
    107,
    -1,
    -1,
    110,
    111,
    112,
    113,
    114,
    115,
    -1,
    117,
    -1,
    -1,
    120,
    121,
    -1,
    -1,
    -1,
    -1,
    126,
    127,
    128,
    -1,
    -1,
    131,
    -1,
    -1,
    134,
    135,
    -1,
    137,
    -1,
    -1,
    -1,
    141,
    -1,
    143,
    144,
    -1,
    -1,
    -1,
    148,
    149,
    150,
    151,
    152,
    -1,
    -1,
    155,
    156,
    -1,
    -1,
    -1,
    160,
    161,
    162,
    -1,
    -1,
    -1,
    166,
    -1,
    -1,
    169,
    -1,
    -1,
    172,
    173,
    -1,
    -1,
    176,
    -1,
    178,
    -1,
    -1,
    181,
    182,
    183,
    -1,
    185,
    186,
    -1,
    -1,
    189,
    -1,
    -1,
    192,
    193,
    194,
    195,
    196,
    197,
    -1,
    -1,
    200,
    -1,
    -1,
    203,
    -1,
    205,
    -1,
    -1,
    208,
    209,
    -1,
    -1,
    -1,
    213,
    -1,
    215,
    216,
    217,
    -1,
    -1,
    220,
    -1,
    -1,
    223,
    -1,
    -1,
    226,
    -1,
    228,
    229,
    -1,
    -1,
    232,
    233,
    -1,
    -1,
    -1,
    237,
    -1,
    239,
    240,
    -1,
    242,
    -1,
    244,
    -1,
    -1,
    247,
    -1,
    249,
    250,
    251,
    252,
    -1,
    -1,
    -1,
    256,
    257,
    -1,
    -1,
    -1,
    -1,
    262,
    263,
    264,
    265,
    266,
    267,
    268,
    269,
    -1,
    -1,
    272,
    -1,
    274,
    -1,
    -1,
    277,
    278,
    279,
    -1,
    -1,
    282,
    -1,
    -1,
    285,
    286,
    -1,
    -1,
    289,
    -1,
    -1,
    292,
    293,
    294,
    295,
    -1,
    -1,
    298,
    -1,
    -1,
    301,
    302,
    -1,
    -1,
    305,
    -1,
    -1,
    308,
    309,
    310,
    -1,
    -1,
    313,
    -1,
    -1,
    316,
    -1,
    318,
    -1,
    -1,
    321,
    322,
    -1,
    324,
    325,
    -1,
    -1,
    -1,
    329,
    330,
    331,
    -1,
    333,
    -1,
    -1,
    336,
    337,
    -1,
    -1,
    340,
    -1,
    -1,
    343,
    -1,
    345,
    346,
    -1,
    -1,
    349,
    -1,
    -1,
    352,
    353,
    354,
    355,
    356,
    357,
    -1,
    -1,
    360,
    -1,
    -1,
    363,
    364,
    -1,
    -1,
    367,
    -1,
    -1,
    370,
    371,
    -1,
    373,
    -1,
    -1,
    376,
    377,
    -1,
    -1,
    -1,
    381,
    382,
    -1,
    384,
    -1,
    -1,
    387,
    388,
    389,
    -1,
    -1,
    392,
    -1,
    -1,
    395,
    396,
    -1,
    -1,
    399,
    -1,
    -1,
    402,
    403,
    404,
    405,
    406,
    -1,
    -1,
    -1,
    -1,
    411,
    -1,
    413,
    414,
    -1,
    -1,
    417,
    -1,
    -1,
    420,
    421,
    422,
    423,
    -1,
    -1,
    -1,
    427,
    428,
    -1,
    -1,
    431,
    -1,
    -1,
    434,
    435,
    436,
    -1,
    -1,
    439,
    -1,
    -1,
    442,
    443,
    -1,
    -1,
    -1,
    447,
    448,
    449,
    450,
    451,
    452,
    -1,
    454,
    -1,
    -1,
    457,
    458,
    -1,
    -1,
    461,
    -1,
    -1,
    464,
    -1,
    466,
    467,
    -1,
    -1,
    -1,
    471,
    472,
    473,
    -1,
    -1,
    476,
    -1,
    -1,
    479,
    -1,
    -1,
    482,
    483,
    484,
    485,
    486,
    -1,
    -1,
    489,
    -1,
    -1,
    492,
    -1,
    494,
    -1,
    -1,
    497,
    498,
    499,
    -1,
    -1,
    502,
    -1,
    -1,
    505,
    506,
    -1,
    -1,
    509,
    -1,
    -1,
    512,
    -1,
    514,
    -1,
    516,
    -1,
    518,
    -1,
    -1,
    521,
    -1,
    523,
    524,
    525,
    -1,
    -1,
    -1,
    -1,
    530,
    531,
    532,
    533,
    534,
    535,
    -1,
    537,
    538,
    -1,
    -1,
    541,
    -1,
    -1,
    -1,
    545,
    546,
    547,
    548,
    -1,
    -1,
    551,
    -1,
    -1,
    554,
    -1,
    556,
    -1,
    -1,
    559,
    560,
    561,
    -1,
    -1,
    564,
    -1,
    -1,
    567,
    -1,
    -1,
    570,
    571,
    -1,
    -1,
    574,
    575,
    576,
    -1,
    -1,
    -1,
    -1,
    581,
    582,
    -1,
    584,
    585,
    -1,
    587,
    -1,
    -1,
    590,
    591,
    592,
    -1,
    -1,
    -1,
    -1,
    597,
    -1,
    -1,
    600,
    601,
    602,
    603,
    604,
    605,
    606,
    -1,
    -1,
    609,
    -1,
    -1,
    612,
    613,
    -1,
    -1,
    616,
    -1,
    -1,
    619,
    620,
    621,
    -1,
    -1,
    624,
    -1,
    -1,
    627,
    628,
    -1,
    -1,
    631,
    -1,
    -1,
    634,
    -1,
    636,
    637,
    638,
    -1,
    -1,
    641,
    -1,
    -1,
    644,
    645,
    -1,
    -1,
    -1,
    -1,
    650,
    651,
    -1,
    653,
    -1,
    -1,
    656,
    657,
    658,
    659,
    660,
    -1,
    -1,
    663,
    -1,
    -1,
    666,
    -1,
    668,
    -1,
    -1,
    -1,
    672,
    673,
    -1,
    -1,
    676,
    677,
    678,
    -1,
    -1,
    681,
    -1,
    -1,
    684,
    685,
    -1,
    -1,
    688,
    -1,
    -1,
    691,
    -1,
    693,
    694,
    695,
    -1,
    697,
    -1,
    -1,
    -1,
    701,
    702,
    703,
    -1,
    -1,
    706,
    707,
    -1,
    -1,
    -1,
    711,
    712,
    -1,
    714,
    715,
    -1,
    717,
    -1,
    719,
    -1,
    -1,
    722,
    -1,
    -1,
    -1,
    726,
    727,
    728,
    729,
    730,
    731,
    732,
    733,
    734,
    735,
    736,
    -1,
    -1,
    739,
    -1,
    -1,
    -1,
    743,
    744,
    745,
    -1,
    -1,
    748,
    -1,
    -1,
    751,
    -1,
    -1,
    754,
    -1,
    -1,
    757,
    -1,
    -1,
    760,
    -1,
    762,
    763,
    -1,
    -1,
    766,
    767,
    -1,
    -1,
    -1,
    771,
    -1,
    773,
    -1,
    -1,
    776,
    777,
    778,
    -1,
    -1,
    -1,
    -1,
    -1,
    -1,
    785,
    786,
    787,
    788,
    789,
    790,
    791,
    792,
    793,
    -1,
    -1,
    -1,
    -1,
    798,
    799,
    800,
    -1,
    -1,
    -1,
    -1,
    805,
    -1,
    807,
    808,
    -1,
    810,
    -1,
    812,
    813,
    -1,
    815,
    816,
    -1,
    -1,
    -1,
    -1,
    -1,
    822,
    823,
    -1,
    825,
    826,
    827,
    828,
    -1,
    830,
    -1,
    -1,
    -1,
    834,
    -1,
    836,
    837,
    -1,
    -1,
    -1,
    841,
    -1,
    -1,
    -1,
    845,
    846,
    847,
    -1,
    -1,
    850,
    851,
    -1,
    -1,
    854,
    -1,
    -1,
    857,
    858,
    859,
    -1,
    861,
    862,
    863,
    864,
    -1,
    -1,
    -1,
    -1,
    869,
    -1,
    871,
    -1,
    -1,
    874,
    875,
    876,
    877,
    -1,
    -1,
    -1,
    -1,
    -1,
    883,
    884,
    885,
    886,
    887,
    888,
    889,
    890,
    -1,
    -1,
    893,
    -1,
    -1,
    -1,
    897,
    898,
    -1,
    900,
    -1,
    -1,
    903,
    -1,
    905,
    -1,
    -1,
    -1,
    909,
    910,
    911,
    -1,
    913,
    -1,
    -1,
    -1,
    917,
    918,
    -1,
    -1,
    -1,
    -1,
    923,
    -1,
    925,
    926,
    -1,
    -1,
    929,
    -1,
    931,
    -1,
    -1,
    934,
    935,
    936,
    937,
    938,
    -1,
    -1,
    -1,
    942,
    -1,
    -1,
    945,
    -1,
    -1,
    948,
    -1,
    -1,
    951,
    952,
    953,
    954,
    955,
    956,
    957,
    958,
    -1,
    -1,
    -1,
    962,
    963,
    964,
    965,
    -1,
    -1,
    -1,
    969,
    970,
    -1,
    972,
    -1,
    -1,
    975,
    976,
    977,
    -1,
    -1,
    980,
    -1,
    -1,
    983,
    984,
    -1,
    -1,
    987,
    -1,
    -1,
    990,
    991,
    992,
    -1,
    -1,
    995,
    -1,
    -1,
    998,
    -1,
    -1,
    1001,
    1002,
    1003,
    1004,
    -1,
    1006,
    1007,
    -1,
    1009,
    -1,
    -1,
    1012,
    -1,
    -1,
    1015,
    1016,
    -1,
    1018,
    -1,
    -1,
    -1,
    -1,
    1023,
    1024,
    1025,
    1026,
    -1,
    1028,
    -1,
    1030,
    -1,
    -1,
    -1,
    -1,
    1035,
    1036,
    1037,
    -1,
    1039,
    -1,
    -1,
    1042,
    1043,
    1044,
    -1,
    -1,
    -1,
    1048,
    1049,
    -1,
    -1,
    1052,
    -1,
    -1,
    -1,
    1056,
    1057,
    -1,
    -1,
    1060,
    1061,
    1062,
    -1,
    1064,
    1065,
    1066,
    -1,
    -1,
    1069,
    -1,
    1071,
    -1,
    -1,
    -1,
    -1,
    1076,
    1077,
    -1,
    -1,
    -1,
    1081,
    1082,
    1083,
    1084,
    1085,
    -1,
    1087,
    1088,
    1089,
    1090,
    -1,
    -1,
    -1,
    1094,
    -1,
    -1,
    1097,
    1098,
    1099,
    -1,
    -1,
    1102,
    -1,
    -1,
    1105,
    1106,
    -1,
    -1,
    -1,
    1110,
    -1,
    -1,
    1113,
    1114,
    -1,
    1116,
    1117,
    1118,
    -1,
    -1,
    1121,
    1122,
    -1,
    -1,
    -1,
    -1,
    -1,
    -1,
    1129,
    -1,
    1131,
    1132,
    -1,
    1134,
    1135,
    -1,
    -1,
    1138,
    1139,
    -1,
    -1,
    -1,
    -1,
    1144,
    1145,
    1146,
    1147,
    1148,
    1149,
    1150,
    1151,
    -1,
    1153,
    -1,
    -1,
    1156,
    1157,
    -1,
    1159,
    -1,
    -1,
    -1,
    -1,
    1164,
    1165,
    1166,
    -1,
    -1,
    1169,
    1170,
    -1,
    -1,
    -1,
    1174,
    -1,
    -1,
    1177,
    -1,
    -1,
    1180,
    1181,
    -1,
    -1,
    -1,
    1185,
    1186,
    1187,
    1188,
    -1,
    -1,
    -1,
    1192,
    -1,
    -1,
    -1,
    1196,
    -1,
    -1,
    1199,
    -1,
    -1,
    1202,
    1203,
    1204,
    1205,
    -1,
    -1,
    1208,
    -1,
    1210,
    -1,
    1212,
    -1,
    -1,
    1215,
    1216,
    1217,
    -1,
    1219,
    -1,
    1221,
    1222,
    -1,
    -1,
    1225,
    -1,
    -1,
    1228,
    -1,
    -1,
    1231,
    1232,
    -1,
    1234,
    -1,
    1236,
    -1,
    -1,
    1239,
    1240,
    -1,
    1242,
    -1,
    -1,
    -1,
    1246,
    1247,
    -1,
    -1,
    1250,
    -1,
    -1,
    1253,
    1254,
    1255,
    1256,
    1257,
    1258,
    1259,
    1260,
    1261,
    1262,
    1263,
    -1,
    1265,
    -1,
    -1,
    1268,
    1269,
    1270,
    1271,
    1272,
    -1,
    -1,
    -1,
    1276,
    1277,
    -1,
    -1,
    1280,
    -1,
    -1,
    -1,
    1284,
    -1,
    1286,
    -1,
    1288,
    -1,
    1290,
    -1,
    -1,
    1293,
    1294,
    1295,
    1296,
    1297,
    1298,
    -1,
    -1,
    1301,
    -1,
    -1,
    -1,
    1305,
    -1,
    1307,
    -1,
    1309,
    -1,
    -1,
    1312,
    -1,
    1314,
    1315,
    1316,
    -1,
    -1,
    -1,
    1320,
    1321,
    -1,
    -1,
    1324,
    -1,
    -1,
    1327,
    1328,
    1329,
    -1,
    -1,
    1332,
    1333,
    -1,
    -1,
    1336,
    -1,
    1338,
    -1,
    -1,
    1341,
    -1,
    1343,
    1344,
    -1,
    -1,
    1347,
    1348,
    -1,
    -1,
    1351,
    -1,
    -1,
    1354,
    1355,
    1356,
    1357,
    1358,
    1359,
    1360,
    -1,
    -1,
    1363,
    -1,
    -1,
    -1,
    1367,
    1368,
    1369,
    -1,
    -1,
    1372,
    -1,
    -1,
    1375,
    -1,
    1377,
    -1,
    -1,
    1380,
    1381,
    1382,
    -1,
    1384,
    -1,
    -1,
    1387,
    1388,
    -1,
    -1,
    1391,
    -1,
    -1,
    1394,
    1395,
    -1,
    1397,
    -1,
    -1,
    1400,
    1401,
    -1,
    -1,
    1404,
    -1,
    -1,
    1407,
    1408,
    1409,
    1410,
    -1,
    1412,
    -1,
    -1,
    1415,
    -1,
    -1,
    1418,
    1419,
    1420,
    -1,
    -1,
    1423,
    -1,
    -1,
    1426,
    1427,
    -1,
    -1,
    1430,
    -1,
    -1,
    1433,
    1434,
    1435,
    1436,
    -1,
    -1,
    -1,
    1440,
    1441,
    -1,
    -1,
    1444,
    -1,
    -1,
    1447,
    1448,
    -1,
    1450,
    -1,
    -1,
    1453,
    1454,
    -1,
    -1,
    1457,
    -1,
    -1,
    1460,
    1461,
    -1,
    -1,
    1464,
    1465,
    1466,
    -1,
    -1,
    -1,
    1470,
    1471,
    1472,
    1473,
    -1,
    -1,
    -1,
    -1,
    1478,
    1479,
    -1,
    1481,
    -1,
    -1,
    1484,
    1485,
    -1,
    -1,
    1488,
    -1,
    -1,
    1491,
    1492,
    1493,
    1494,
    1495,
    1496,
    -1,
    1498,
    -1,
    -1,
    1501,
    1502,
    1503,
    -1,
    -1,
    1506,
    -1,
    -1,
    1509,
    1510,
    -1,
    -1,
    1513,
    -1,
    -1,
    1516,
    -1,
    -1,
    1519,
    1520,
    1521,
    1522,
    1523,
    -1,
    -1,
    1526,
    -1,
    -1,
    1529,
    -1,
    -1,
    1532,
    -1,
    1534,
    1535,
    -1,
    -1,
    -1,
    1539,
    1540,
    -1,
    -1,
    1543,
    1544,
    -1,
    1546,
    -1,
    -1,
    1549,
    1550,
    -1,
    -1,
    -1,
    1554,
    1555,
    1556,
    1557,
    1558,
    1559,
    -1,
    -1,
    1562,
    -1,
    -1,
    1565,
    1566,
    -1,
    -1,
    -1,
    1570,
    -1,
    1572,
    -1,
    1574,
    -1,
    -1,
    1577,
    1578,
    1579,
    -1,
    -1,
    1582,
    -1,
    -1,
    1585,
    1586,
    1587,
    -1,
    -1,
    1590,
    -1,
    -1,
    -1,
    1594,
    1595,
    -1,
    -1,
    1598,
    1599,
    1600,
    1601,
    -1,
    -1,
    1604,
    -1,
    -1,
    1607,
    1608,
    -1,
    -1,
    -1,
    1612,
    1613,
    1614,
    -1,
    -1,
    1617,
    -1,
    -1,
    1620,
    -1,
    1622,
    -1,
    -1,
    1625,
    1626,
    1627,
    1628,
    1629,
    -1,
    1631,
    1632,
    -1,
    -1,
    1635,
    -1,
    -1,
    1638,
    1639,
    -1,
    -1,
    1642,
    -1,
    1644,
    -1,
    -1,
    1647,
    1648,
    1649,
    -1,
    -1,
    1652,
    -1,
    1654,
    -1,
    -1,
    1657,
    1658,
    1659,
    -1,
    -1,
    1662,
    -1,
    -1,
    -1,
    1666,
    1667,
    1668,
    -1,
    -1,
    -1,
    1672,
    1673,
    1674,
    1675,
    -1,
    -1,
    1678,
    -1,
    -1,
    1681,
    1682,
    -1,
    -1,
    -1,
    1686,
    -1,
    1688,
    1689,
    -1,
    -1,
    1692,
    -1,
    -1,
    1695,
    1696,
    1697,
    1698,
    1699,
    -1,
    -1,
    -1,
    1703,
    -1,
    1705,
    1706,
    -1,
    -1,
    1709,
    -1,
    -1,
    -1,
    1713,
    -1,
    1715,
    -1,
    1717,
    -1,
    1719,
    -1,
    1721,
    -1,
    -1,
    1724,
    1725,
    1726,
    1727,
    1728,
    1729,
    -1,
    1731,
    1732,
    -1,
    -1,
    1735,
    1736,
    -1,
    -1,
    1739,
    -1,
    -1,
    -1,
    1743,
    1744,
    -1,
    -1,
    1747,
    1748,
    1749,
    1750,
    -1,
    -1,
    1753,
    -1,
    -1,
    1756,
    1757,
    -1,
    -1,
    1760,
    -1,
    -1,
    1763,
    -1,
    1765,
    -1,
    1767,
    -1,
    -1,
    1770,
    -1,
    -1,
    1773,
    1774,
    1775,
    1776,
    1777,
    1778,
    -1,
    1780,
    -1,
    -1,
    -1,
    1784,
    -1,
    -1,
    1787,
    1788,
    1789,
    1790,
    -1,
    -1,
    1793,
    -1,
    -1,
    1796,
    1797,
    -1,
    -1,
    1800,
    -1,
    -1,
    1803,
    -1,
    1805,
    1806,
    -1,
    -1,
    1809,
    -1,
    -1,
    1812,
    -1,
    1814,
    1815,
    1816,
    -1,
    -1,
    -1,
    -1,
    1821,
    1822,
    1823,
    1824,
    1825,
    1826,
    -1,
    -1,
    1829,
    -1,
    -1,
    1832,
    1833,
    -1,
    -1,
    1836,
    -1,
    -1,
    1839,
    1840,
    -1,
    -1,
    1843,
    1844,
    -1,
    -1,
    -1,
    1848,
    -1,
    -1,
    1851,
    1852,
    1853,
    1854,
    -1,
    1856,
    -1,
    -1,
    1859,
    -1,
    1861,
    -1,
    -1,
    1864,
    -1,
    -1,
    1867,
    1868,
    -1,
    -1,
    -1,
    1872,
    1873,
    1874,
    1875,
    1876,
    1877,
    -1,
    -1,
    -1,
    1881,
    1882,
    -1,
    -1,
    1885,
    -1,
    -1,
    1888,
    -1,
    1890,
    1891,
    -1,
    -1,
    -1,
    1895,
    -1,
    1897,
    -1,
    1899,
    1900,
    1901,
    1902,
    -1,
    -1,
    -1,
    1906,
    -1,
    1908,
    -1,
    -1,
    1911,
    1912,
    1913,
    -1,
    -1,
    -1,
    1917,
    -1,
    1919,
    -1,
    -1,
    1922,
    1923,
    1924,
    -1,
    -1,
    -1,
    -1,
    1929,
    1930,
    1931,
    1932,
    -1,
    -1,
    -1,
    1936,
    -1,
    -1,
    1939,
    1940,
    -1,
    1942,
    1943,
    -1,
    -1,
    -1,
    -1,
    -1,
    1949,
    1950,
    -1,
    -1,
    -1,
    1954,
    1955,
    -1,
    -1,
    -1,
    1959,
    1960,
    -1,
    1962,
    -1,
    -1,
    1965,
    -1,
    -1,
    1968,
    1969,
    -1,
    1971,
    -1,
    -1,
    1974,
    1975,
    1976,
    -1,
    1978,
    -1,
    -1,
    1981,
    1982,
    -1,
    -1,
    1985,
    -1,
    1987,
    -1,
    -1,
    1990,
    1991,
    -1,
    1993,
    1994,
    1995,
    1996,
    1997,
    1998,
    1999,
    2000,
    -1,
    -1,
    -1,
    2004,
    2005,
    2006,
    2007,
    2008,
    2009,
    -1,
    -1,
    2012,
    -1,
    -1,
    -1,
    2016,
    -1,
    2018,
    -1,
    2020,
    -1,
    -1,
    -1,
    -1,
    2025,
    -1,
    -1,
    2028,
    2029,
    2030,
    2031,
    -1,
    2033,
    2034,
    -1,
    -1,
    -1,
    2038,
    2039,
    2040,
    2041,
    -1,
    2043,
    -1,
    -1,
    -1,
    2047,
    2048,
    2049,
    -1,
    -1,
    -1,
    2053,
    -1,
    2055,
    -1,
    -1,
    -1,
    2059,
    -1,
    2061,
    -1,
    2063,
    2064,
    -1,
    -1,
    -1,
    -1,
    2069,
    -1,
    2071,
    2072,
    2073,
    2074,
    2075,
    2076,
    2077,
    -1,
    2079,
    -1,
    -1,
    2082,
    -1,
    2084,
    -1,
    -1,
    2087,
    -1,
    -1,
    2090,
    -1,
    -1,
    2093,
    2094,
    -1,
    2096,
    -1,
    2098,
    2099,
    -1,
    -1,
    2102,
    -1,
    -1,
    -1,
    2106,
    2107,
    2108,
    -1,
    -1,
    -1,
    2112,
    2113,
    2114,
    2115,
    -1,
    2117,
    -1,
    -1,
    2120,
    -1,
    -1,
    2123,
    2124,
    2125,
    -1,
    -1,
    2128,
    -1,
    -1,
    -1,
    2132,
    -1,
    -1,
    2135,
    -1,
    2137,
    -1,
    2139,
    2140,
    2141,
    2142,
    2143,
    -1,
    -1,
    2146,
    -1,
    -1,
    2149,
    -1,
    -1,
    2152,
    -1,
    -1,
    2155,
    2156,
    2157,
    -1,
    -1,
    -1,
    2161,
    -1,
    -1,
    2164,
    -1,
    -1,
    2167,
    2168,
    2169,
    2170,
    2171,
    2172,
    2173,
    2174,
    2175,
    -1,
    2177,
    -1,
    2179,
    -1,
    -1,
    2182,
    2183,
    2184,
    -1,
    -1,
    2187,
    -1,
    -1,
    2190,
    2191,
    -1,
    -1,
    2194,
    -1,
    -1,
    -1,
    -1,
    2199,
    -1,
    2201,
    2202,
    -1,
    2204,
    2205,
    2206,
    -1,
    -1,
    -1,
    2210,
    -1,
    2212,
    -1,
    -1,
    -1,
    2216,
    -1,
    -1,
    2219,
    -1,
    -1,
    2222,
    2223,
    -1,
    -1,
    2226,
    -1,
    2228,
    -1,
    -1,
    2231,
    -1,
    -1,
    2234,
    -1,
    -1,
    2237,
    2238,
    -1,
    2240,
    -1,
    2242,
    2243,
    2244,
    2245,
    -1,
    -1,
    2248,
    2249,
    2250,
    2251,
    2252,
    -1,
    -1,
    2255,
    2256,
    -1,
    -1,
    -1,
    2260,
    2261,
    -1,
    2263,
    2264,
    -1,
    -1,
    2267,
    2268,
    2269,
    -1,
    -1,
    -1,
    -1,
    -1,
    2275,
    2276,
    -1,
    2278,
    -1,
    2280,
    2281,
    -1,
    -1,
    -1,
    2285,
    2286,
    -1,
    2288,
    -1,
    2290,
    -1,
    -1,
    -1,
    2294,
    2295,
    2296,
    2297,
    -1,
    2299,
    -1,
    -1,
    2302,
    -1,
    2304,
    2305,
    -1,
    -1,
    2308,
    2309,
    2310,
    2311,
    -1,
    2313,
    -1,
    -1,
    2316,
    -1,
    2318,
    -1,
    -1,
    2321,
    2322,
    2323,
    -1,
    -1,
    2326,
    -1,
    -1,
    -1,
    -1,
    2331,
    2332,
    -1,
    -1,
    2335,
    -1,
    2337,
    2338,
    2339,
    2340,
    -1,
    -1,
    -1,
    2344,
    2345,
    -1,
    -1,
    -1,
    2349,
    2350,
    2351,
    2352,
    2353,
    -1,
    -1,
    -1,
    2357,
    -1,
    -1,
    -1,
    2361,
    2362,
    -1,
    -1,
    2365,
    2366,
    -1,
    -1,
    -1,
    2370,
    2371,
    2372,
    2373,
    2374,
    2375,
    -1,
    2377,
    2378,
    -1,
    -1,
    2381,
    -1,
    2383,
    -1,
    -1,
    2386,
    2387,
    -1,
    -1,
    -1,
    2391,
    -1,
    2393,
    2394,
    -1,
    -1,
    2397,
    2398,
    2399,
    -1,
    -1,
    -1,
    -1,
    2404,
    2405,
    2406,
    2407,
    -1,
    2409,
    -1,
    -1,
    -1,
    2413,
    -1,
    2415,
    -1,
    2417,
    2418,
    -1,
    -1,
    -1,
    2422,
    2423,
    2424,
    -1,
    -1,
    -1,
    2428,
    -1,
    -1,
    2431,
    -1,
    2433,
    2434,
    -1,
    -1,
    2437,
    2438,
    2439,
    -1,
    2441,
    -1,
    -1,
    -1,
    -1,
    2446,
    2447,
    2448,
    2449,
    2450,
    2451,
    2452,
    2453,
    -1,
    -1,
    2456,
    -1,
    -1,
    2459,
    -1,
    -1,
    2462,
    -1,
    2464,
    -1,
    -1,
    2467,
    -1,
    -1,
    -1,
    2471,
    2472,
    -1,
    -1,
    -1,
    2476,
    2477,
    2478,
    -1,
    2480,
    2481,
    2482,
    -1,
    -1,
    -1,
    2486,
    -1,
    -1,
    2489,
    2490,
    2491,
    -1,
    -1,
    2494,
    -1,
    -1,
    -1,
    2498,
    2499,
    -1,
    -1,
    2502,
    2503,
    -1,
    2505,
    -1,
    -1,
    2508,
    -1,
    -1,
    2511,
    2512,
    2513,
    -1,
    -1,
    -1,
    -1,
    2518,
    -1,
    -1,
    2521,
    -1,
    2523,
    2524,
    -1,
    -1,
    -1,
    2528,
    2529,
    2530,
    -1,
    2532,
    2533,
    -1,
    2535,
    2536,
    -1,
    2538,
    -1,
    -1,
    2541,
    -1,
    -1,
    2544,
    2545,
    2546,
    -1,
    -1,
    -1,
    2550,
    -1,
    -1,
    2553,
    -1,
    2555,
    -1,
    2557,
    -1,
    -1,
    2560,
    2561,
    2562,
    2563,
    2564,
    2565,
    2566,
    -1,
    2568,
    2569,
    2570,
    -1,
    -1,
    -1,
    2574,
    -1,
    -1,
    -1,
    2578,
    -1,
    -1,
    2581,
    -1,
    -1,
    -1,
    2585,
    -1,
    2587,
    -1,
    2589,
    -1,
    -1,
    2592,
    -1,
    2594,
    2595,
    2596,
    2597,
    -1,
    2599,
    -1,
    2601,
    2602,
    -1,
    -1,
    -1,
    2606,
    -1,
    -1,
    2609,
    2610,
    2611,
    2612,
    2613,
    2614,
    2615,
    2616,
    -1,
    2618,
    2619,
    2620,
    -1,
    2622,
    -1,
    2624,
    -1,
    -1,
    2627,
    -1,
    2629,
    -1,
    -1,
    2632,
    2633,
    2634,
    2635,
    -1,
    -1,
    2638,
    -1,
    -1,
    -1,
    -1,
    -1,
    2644,
    2645,
    2646,
    2647,
    2648,
    2649,
    2650,
    -1,
    -1,
    2653,
    -1,
    -1,
    2656,
    -1,
    2658,
    -1,
    -1,
    2661,
    2662,
    2663,
    -1,
    -1,
    2666,
    -1,
    -1,
    2669,
    2670,
    -1,
    -1,
    2673,
    -1,
    -1,
    2676,
    -1,
    -1,
    2679,
    2680,
    -1,
    2682,
    2683,
    -1,
    -1,
    2686,
    -1,
    -1,
    2689,
    -1,
    2691,
    2692,
    2693,
    -1,
    -1,
    2696,
    -1,
    -1,
    -1,
    2700,
    2701,
    2702,
    2703,
    -1,
    -1,
    -1,
    -1,
    2708,
    2709,
    -1,
    2711,
    -1,
    -1,
    2714,
    2715,
    2716,
    -1,
    -1,
    -1,
    2720,
    -1,
    -1,
    2723,
    2724,
    -1,
    2726,
    2727,
    2728,
    -1,
    2730,
    -1,
    -1,
    2733,
    -1,
    -1,
    2736,
    -1,
    -1,
    2739,
    -1,
    -1,
    2742,
    2743,
    2744,
    2745,
    2746,
    2747,
    2748,
    2749,
    2750,
    -1,
    -1,
    2753,
    -1,
    -1,
    2756,
    2757,
    -1,
    -1,
    2760,
    -1,
    -1,
    2763,
    2764,
    2765,
    -1,
    -1,
    2768,
    -1,
    -1,
    2771,
    2772,
    -1,
    -1,
    2775,
    -1,
    -1,
    2778,
    2779,
    2780,
    2781,
    -1,
    -1,
    -1,
    -1,
    -1,
    2787,
    2788,
    -1,
    -1,
    -1,
    2792,
    -1,
    -1,
    2795,
    2796,
    2797,
    2798,
    2799,
    -1,
    2801,
    2802,
    -1,
    -1,
    2805,
    -1,
    -1,
    2808,
    2809,
    2810,
    -1,
    -1,
    2813,
    -1,
    -1,
    2816,
    2817,
    -1,
    -1,
    2820,
    -1,
    -1,
    2823,
    2824,
    2825,
    2826,
    -1,
    -1,
    2829,
    -1,
    -1,
    -1,
    2833,
    2834,
    -1,
    -1,
    2837,
    2838,
    -1,
    -1,
    2841,
    -1,
    -1,
    2844,
    2845,
    2846,
    2847,
    2848,
    -1,
    -1,
    2851,
    -1,
    -1,
    -1,
    2855,
    2856,
    2857,
    -1,
    -1,
    2860,
    -1,
    -1,
    2863,
    2864,
    -1,
    -1,
    2867,
    -1,
    -1,
    2870,
    2871,
    2872,
    2873,
    -1,
    -1,
    2876,
    -1,
    -1,
    2879,
    2880,
    -1,
    -1,
    2883,
    -1,
    -1,
    -1,
    2887,
    -1,
    -1,
    2890,
    -1,
    -1,
    2893,
    -1,
    2895,
    -1,
    -1,
    2898,
    2899,
    2900,
    -1,
    2902,
    -1,
    2904,
    -1,
    -1,
    2907,
    2908,
    2909,
    2910,
    2911,
    2912,
    2913,
    2914,
    -1,
    -1,
    -1,
    2918,
    -1,
    -1,
    2921,
    2922,
    2923,
    -1,
    -1,
    -1,
    2927,
    2928,
    -1,
    -1,
    -1,
    2932,
    -1,
    2934,
    -1,
    -1,
    2937,
    2938,
    2939,
    2940,
    2941,
    2942,
    -1,
    -1,
    -1,
    -1,
    2947,
    2948,
    -1,
    -1,
    2951,
    2952,
    -1,
    -1,
    2955,
    -1,
    -1,
    2958,
    -1,
    2960,
    2961,
    -1,
    2963,
    -1,
    -1,
    -1,
    2967,
    2968,
    2969,
    -1,
    -1,
    -1,
    2973,
    2974,
    2975,
    -1,
    -1,
    2978,
    -1,
    2980,
    -1,
    -1,
    2983,
    2984,
    -1,
    -1,
    2987,
    2988,
    -1,
    -1,
    2991,
    -1,
    -1,
    2994,
    -1,
    2996,
    -1,
    -1,
    2999,
    3000,
    -1,
    3002,
    -1,
    -1,
    3005,
    -1,
    -1,
    3008,
    -1,
    3010,
    3011,
    3012,
    3013,
    3014,
    -1,
    -1,
    -1,
    -1,
    -1,
    3020,
    3021,
    3022,
    3023,
    -1,
    -1,
    -1,
    3027,
    3028,
    3029,
    -1,
    3031,
    -1,
    -1,
    3034,
    -1,
    -1,
    3037,
    3038,
    3039,
    -1,
    -1,
    -1,
    3043,
    3044,
    3045,
    3046,
    -1,
    -1,
    3049,
    -1,
    -1,
    3052,
    3053,
    -1,
    -1,
    -1,
    3057,
    -1,
    -1,
    3060,
    -1,
    3062,
    -1,
    -1,
    3065,
    3066,
    -1,
    -1,
    -1,
    3070,
    3071,
    3072,
    -1,
    3074,
    3075,
    3076,
    3077,
    3078,
    -1,
    -1,
    3081,
    -1,
    -1,
    3084,
    3085,
    -1,
    3087,
    -1,
    -1,
    3090,
    -1,
    -1,
    3093,
    -1,
    -1,
    3096,
    3097,
    -1,
    -1,
    -1,
    3101,
    -1,
    3103,
    -1,
    -1,
    3106,
    -1,
    -1,
    3109,
    3110,
    3111,
    -1,
    3113,
    3114,
    3115,
    3116,
    3117,
    -1,
    3119,
    3120,
    -1,
    -1,
    3123,
    -1,
    3125,
    -1,
    -1,
    -1,
    3129,
    3130,
    3131,
    3132,
    3133,
    -1,
    -1,
    -1,
    3137,
    -1,
    -1,
    3140,
    -1,
    -1,
    3143,
    -1,
    -1,
    3146,
    -1,
    -1,
    3149,
    -1,
    -1,
    3152,
    3153,
    -1,
    -1,
    -1,
    3157,
    -1,
    3159,
    -1,
    -1
  ],
  "children_right": [
    3108,
    2527,
    2236,
    1967,
    1252,
    1201,
    784,
    35,
    22,
    11,
    -1,
    21,
    18,
    17,
    16,
    -1,
    -1,
    -1,
    20,
    -1,
    -1,
    -1,
    28,
    27,
    26,
    -1,
    -1,
    -1,
    30,
    -1,
    34,
    33,
    -1,
    -1,
    -1,
    725,
    690,
    261,
    180,
    109,
    64,
    55,
    44,
    -1,
    52,
    47,
    -1,
    51,
    50,
    -1,
    -1,
    -1,
    54,
    -1,
    -1,
    63,
    62,
    61,
    60,
    -1,
    -1,
    -1,
    -1,
    -1,
    106,
    81,
    74,
    69,
    -1,
    73,
    72,
    -1,
    -1,
    -1,
    76,
    -1,
    78,
    -1,
    80,
    -1,
    -1,
    93,
    86,
    85,
    -1,
    -1,
    90,
    89,
    -1,
    -1,
    92,
    -1,
    -1,
    99,
    98,
    97,
    -1,
    -1,
    -1,
    103,
    102,
    -1,
    -1,
    105,
    -1,
    -1,
    108,
    -1,
    -1,
    147,
    140,
    125,
    124,
    119,
    116,
    -1,
    118,
    -1,
    -1,
    123,
    122,
    -1,
    -1,
    -1,
    -1,
    133,
    130,
    129,
    -1,
    -1,
    132,
    -1,
    -1,
    139,
    136,
    -1,
    138,
    -1,
    -1,
    -1,
    142,
    -1,
    146,
    145,
    -1,
    -1,
    -1,
    171,
    168,
    159,
    154,
    153,
    -1,
    -1,
    158,
    157,
    -1,
    -1,
    -1,
    165,
    164,
    163,
    -1,
    -1,
    -1,
    167,
    -1,
    -1,
    170,
    -1,
    -1,
    175,
    174,
    -1,
    -1,
    177,
    -1,
    179,
    -1,
    -1,
    236,
    191,
    184,
    -1,
    188,
    187,
    -1,
    -1,
    190,
    -1,
    -1,
    225,
    212,
    207,
    202,
    199,
    198,
    -1,
    -1,
    201,
    -1,
    -1,
    204,
    -1,
    206,
    -1,
    -1,
    211,
    210,
    -1,
    -1,
    -1,
    214,
    -1,
    222,
    219,
    218,
    -1,
    -1,
    221,
    -1,
    -1,
    224,
    -1,
    -1,
    227,
    -1,
    231,
    230,
    -1,
    -1,
    235,
    234,
    -1,
    -1,
    -1,
    238,
    -1,
    246,
    241,
    -1,
    243,
    -1,
    245,
    -1,
    -1,
    248,
    -1,
    260,
    255,
    254,
    253,
    -1,
    -1,
    -1,
    259,
    258,
    -1,
    -1,
    -1,
    -1,
    529,
    446,
    351,
    320,
    291,
    276,
    271,
    270,
    -1,
    -1,
    273,
    -1,
    275,
    -1,
    -1,
    284,
    281,
    280,
    -1,
    -1,
    283,
    -1,
    -1,
    288,
    287,
    -1,
    -1,
    290,
    -1,
    -1,
    307,
    300,
    297,
    296,
    -1,
    -1,
    299,
    -1,
    -1,
    304,
    303,
    -1,
    -1,
    306,
    -1,
    -1,
    315,
    312,
    311,
    -1,
    -1,
    314,
    -1,
    -1,
    317,
    -1,
    319,
    -1,
    -1,
    328,
    323,
    -1,
    327,
    326,
    -1,
    -1,
    -1,
    342,
    335,
    332,
    -1,
    334,
    -1,
    -1,
    339,
    338,
    -1,
    -1,
    341,
    -1,
    -1,
    344,
    -1,
    348,
    347,
    -1,
    -1,
    350,
    -1,
    -1,
    401,
    380,
    369,
    362,
    359,
    358,
    -1,
    -1,
    361,
    -1,
    -1,
    366,
    365,
    -1,
    -1,
    368,
    -1,
    -1,
    375,
    372,
    -1,
    374,
    -1,
    -1,
    379,
    378,
    -1,
    -1,
    -1,
    386,
    383,
    -1,
    385,
    -1,
    -1,
    394,
    391,
    390,
    -1,
    -1,
    393,
    -1,
    -1,
    398,
    397,
    -1,
    -1,
    400,
    -1,
    -1,
    419,
    410,
    409,
    408,
    407,
    -1,
    -1,
    -1,
    -1,
    412,
    -1,
    416,
    415,
    -1,
    -1,
    418,
    -1,
    -1,
    433,
    426,
    425,
    424,
    -1,
    -1,
    -1,
    430,
    429,
    -1,
    -1,
    432,
    -1,
    -1,
    441,
    438,
    437,
    -1,
    -1,
    440,
    -1,
    -1,
    445,
    444,
    -1,
    -1,
    -1,
    520,
    481,
    470,
    463,
    456,
    453,
    -1,
    455,
    -1,
    -1,
    460,
    459,
    -1,
    -1,
    462,
    -1,
    -1,
    465,
    -1,
    469,
    468,
    -1,
    -1,
    -1,
    478,
    475,
    474,
    -1,
    -1,
    477,
    -1,
    -1,
    480,
    -1,
    -1,
    511,
    496,
    491,
    488,
    487,
    -1,
    -1,
    490,
    -1,
    -1,
    493,
    -1,
    495,
    -1,
    -1,
    504,
    501,
    500,
    -1,
    -1,
    503,
    -1,
    -1,
    508,
    507,
    -1,
    -1,
    510,
    -1,
    -1,
    513,
    -1,
    515,
    -1,
    517,
    -1,
    519,
    -1,
    -1,
    522,
    -1,
    528,
    527,
    526,
    -1,
    -1,
    -1,
    -1,
    599,
    580,
    569,
    544,
    543,
    536,
    -1,
    540,
    539,
    -1,
    -1,
    542,
    -1,
    -1,
    -1,
    558,
    553,
    550,
    549,
    -1,
    -1,
    552,
    -1,
    -1,
    555,
    -1,
    557,
    -1,
    -1,
    566,
    563,
    562,
    -1,
    -1,
    565,
    -1,
    -1,
    568,
    -1,
    -1,
    573,
    572,
    -1,
    -1,
    579,
    578,
    577,
    -1,
    -1,
    -1,
    -1,
    596,
    583,
    -1,
    589,
    586,
    -1,
    588,
    -1,
    -1,
    595,
    594,
    593,
    -1,
    -1,
    -1,
    -1,
    598,
    -1,
    -1,
    649,
    648,
    633,
    618,
    611,
    608,
    607,
    -1,
    -1,
    610,
    -1,
    -1,
    615,
    614,
    -1,
    -1,
    617,
    -1,
    -1,
    626,
    623,
    622,
    -1,
    -1,
    625,
    -1,
    -1,
    630,
    629,
    -1,
    -1,
    632,
    -1,
    -1,
    635,
    -1,
    643,
    640,
    639,
    -1,
    -1,
    642,
    -1,
    -1,
    647,
    646,
    -1,
    -1,
    -1,
    -1,
    655,
    652,
    -1,
    654,
    -1,
    -1,
    671,
    670,
    665,
    662,
    661,
    -1,
    -1,
    664,
    -1,
    -1,
    667,
    -1,
    669,
    -1,
    -1,
    -1,
    675,
    674,
    -1,
    -1,
    683,
    680,
    679,
    -1,
    -1,
    682,
    -1,
    -1,
    687,
    686,
    -1,
    -1,
    689,
    -1,
    -1,
    692,
    -1,
    700,
    699,
    696,
    -1,
    698,
    -1,
    -1,
    -1,
    710,
    705,
    704,
    -1,
    -1,
    709,
    708,
    -1,
    -1,
    -1,
    724,
    713,
    -1,
    721,
    716,
    -1,
    718,
    -1,
    720,
    -1,
    -1,
    723,
    -1,
    -1,
    -1,
    783,
    782,
    775,
    770,
    759,
    756,
    753,
    742,
    741,
    738,
    737,
    -1,
    -1,
    740,
    -1,
    -1,
    -1,
    750,
    747,
    746,
    -1,
    -1,
    749,
    -1,
    -1,
    752,
    -1,
    -1,
    755,
    -1,
    -1,
    758,
    -1,
    -1,
    761,
    -1,
    765,
    764,
    -1,
    -1,
    769,
    768,
    -1,
    -1,
    -1,
    772,
    -1,
    774,
    -1,
    -1,
    781,
    780,
    779,
    -1,
    -1,
    -1,
    -1,
    -1,
    -1,
    950,
    933,
    844,
    821,
    804,
    797,
    796,
    795,
    794,
    -1,
    -1,
    -1,
    -1,
    803,
    802,
    801,
    -1,
    -1,
    -1,
    -1,
    806,
    -1,
    820,
    809,
    -1,
    811,
    -1,
    819,
    814,
    -1,
    818,
    817,
    -1,
    -1,
    -1,
    -1,
    -1,
    843,
    824,
    -1,
    840,
    833,
    832,
    829,
    -1,
    831,
    -1,
    -1,
    -1,
    835,
    -1,
    839,
    838,
    -1,
    -1,
    -1,
    842,
    -1,
    -1,
    -1,
    856,
    849,
    848,
    -1,
    -1,
    853,
    852,
    -1,
    -1,
    855,
    -1,
    -1,
    882,
    873,
    860,
    -1,
    868,
    867,
    866,
    865,
    -1,
    -1,
    -1,
    -1,
    870,
    -1,
    872,
    -1,
    -1,
    881,
    880,
    879,
    878,
    -1,
    -1,
    -1,
    -1,
    -1,
    922,
    921,
    908,
    907,
    896,
    895,
    892,
    891,
    -1,
    -1,
    894,
    -1,
    -1,
    -1,
    902,
    899,
    -1,
    901,
    -1,
    -1,
    904,
    -1,
    906,
    -1,
    -1,
    -1,
    916,
    915,
    912,
    -1,
    914,
    -1,
    -1,
    -1,
    920,
    919,
    -1,
    -1,
    -1,
    -1,
    924,
    -1,
    928,
    927,
    -1,
    -1,
    930,
    -1,
    932,
    -1,
    -1,
    947,
    944,
    941,
    940,
    939,
    -1,
    -1,
    -1,
    943,
    -1,
    -1,
    946,
    -1,
    -1,
    949,
    -1,
    -1,
    1198,
    1143,
    1080,
    1055,
    1000,
    961,
    960,
    959,
    -1,
    -1,
    -1,
    989,
    968,
    967,
    966,
    -1,
    -1,
    -1,
    974,
    971,
    -1,
    973,
    -1,
    -1,
    982,
    979,
    978,
    -1,
    -1,
    981,
    -1,
    -1,
    986,
    985,
    -1,
    -1,
    988,
    -1,
    -1,
    997,
    994,
    993,
    -1,
    -1,
    996,
    -1,
    -1,
    999,
    -1,
    -1,
    1022,
    1021,
    1014,
    1005,
    -1,
    1011,
    1008,
    -1,
    1010,
    -1,
    -1,
    1013,
    -1,
    -1,
    1020,
    1017,
    -1,
    1019,
    -1,
    -1,
    -1,
    -1,
    1034,
    1033,
    1032,
    1027,
    -1,
    1029,
    -1,
    1031,
    -1,
    -1,
    -1,
    -1,
    1054,
    1041,
    1038,
    -1,
    1040,
    -1,
    -1,
    1047,
    1046,
    1045,
    -1,
    -1,
    -1,
    1051,
    1050,
    -1,
    -1,
    1053,
    -1,
    -1,
    -1,
    1059,
    1058,
    -1,
    -1,
    1075,
    1074,
    1063,
    -1,
    1073,
    1068,
    1067,
    -1,
    -1,
    1070,
    -1,
    1072,
    -1,
    -1,
    -1,
    -1,
    1079,
    1078,
    -1,
    -1,
    -1,
    1128,
    1127,
    1112,
    1109,
    1086,
    -1,
    1096,
    1093,
    1092,
    1091,
    -1,
    -1,
    -1,
    1095,
    -1,
    -1,
    1104,
    1101,
    1100,
    -1,
    -1,
    1103,
    -1,
    -1,
    1108,
    1107,
    -1,
    -1,
    -1,
    1111,
    -1,
    -1,
    1126,
    1115,
    -1,
    1125,
    1120,
    1119,
    -1,
    -1,
    1124,
    1123,
    -1,
    -1,
    -1,
    -1,
    -1,
    -1,
    1130,
    -1,
    1142,
    1133,
    -1,
    1137,
    1136,
    -1,
    -1,
    1141,
    1140,
    -1,
    -1,
    -1,
    -1,
    1195,
    1184,
    1179,
    1176,
    1163,
    1162,
    1155,
    1152,
    -1,
    1154,
    -1,
    -1,
    1161,
    1158,
    -1,
    1160,
    -1,
    -1,
    -1,
    -1,
    1173,
    1168,
    1167,
    -1,
    -1,
    1172,
    1171,
    -1,
    -1,
    -1,
    1175,
    -1,
    -1,
    1178,
    -1,
    -1,
    1183,
    1182,
    -1,
    -1,
    -1,
    1194,
    1191,
    1190,
    1189,
    -1,
    -1,
    -1,
    1193,
    -1,
    -1,
    -1,
    1197,
    -1,
    -1,
    1200,
    -1,
    -1,
    1245,
    1214,
    1207,
    1206,
    -1,
    -1,
    1209,
    -1,
    1211,
    -1,
    1213,
    -1,
    -1,
    1230,
    1227,
    1218,
    -1,
    1220,
    -1,
    1224,
    1223,
    -1,
    -1,
    1226,
    -1,
    -1,
    1229,
    -1,
    -1,
    1238,
    1233,
    -1,
    1235,
    -1,
    1237,
    -1,
    -1,
    1244,
    1241,
    -1,
    1243,
    -1,
    -1,
    -1,
    1249,
    1248,
    -1,
    -1,
    1251,
    -1,
    -1,
    1958,
    1953,
    1948,
    1947,
    1928,
    1723,
    1490,
    1353,
    1292,
    1267,
    1264,
    -1,
    1266,
    -1,
    -1,
    1283,
    1282,
    1275,
    1274,
    1273,
    -1,
    -1,
    -1,
    1279,
    1278,
    -1,
    -1,
    1281,
    -1,
    -1,
    -1,
    1285,
    -1,
    1287,
    -1,
    1289,
    -1,
    1291,
    -1,
    -1,
    1326,
    1311,
    1304,
    1303,
    1300,
    1299,
    -1,
    -1,
    1302,
    -1,
    -1,
    -1,
    1306,
    -1,
    1308,
    -1,
    1310,
    -1,
    -1,
    1313,
    -1,
    1319,
    1318,
    1317,
    -1,
    -1,
    -1,
    1323,
    1322,
    -1,
    -1,
    1325,
    -1,
    -1,
    1340,
    1331,
    1330,
    -1,
    -1,
    1335,
    1334,
    -1,
    -1,
    1337,
    -1,
    1339,
    -1,
    -1,
    1342,
    -1,
    1346,
    1345,
    -1,
    -1,
    1350,
    1349,
    -1,
    -1,
    1352,
    -1,
    -1,
    1459,
    1406,
    1379,
    1366,
    1365,
    1362,
    1361,
    -1,
    -1,
    1364,
    -1,
    -1,
    -1,
    1374,
    1371,
    1370,
    -1,
    -1,
    1373,
    -1,
    -1,
    1376,
    -1,
    1378,
    -1,
    -1,
    1393,
    1386,
    1383,
    -1,
    1385,
    -1,
    -1,
    1390,
    1389,
    -1,
    -1,
    1392,
    -1,
    -1,
    1399,
    1396,
    -1,
    1398,
    -1,
    -1,
    1403,
    1402,
    -1,
    -1,
    1405,
    -1,
    -1,
    1432,
    1417,
    1414,
    1411,
    -1,
    1413,
    -1,
    -1,
    1416,
    -1,
    -1,
    1425,
    1422,
    1421,
    -1,
    -1,
    1424,
    -1,
    -1,
    1429,
    1428,
    -1,
    -1,
    1431,
    -1,
    -1,
    1446,
    1439,
    1438,
    1437,
    -1,
    -1,
    -1,
    1443,
    1442,
    -1,
    -1,
    1445,
    -1,
    -1,
    1452,
    1449,
    -1,
    1451,
    -1,
    -1,
    1456,
    1455,
    -1,
    -1,
    1458,
    -1,
    -1,
    1463,
    1462,
    -1,
    -1,
    1469,
    1468,
    1467,
    -1,
    -1,
    -1,
    1477,
    1476,
    1475,
    1474,
    -1,
    -1,
    -1,
    -1,
    1483,
    1480,
    -1,
    1482,
    -1,
    -1,
    1487,
    1486,
    -1,
    -1,
    1489,
    -1,
    -1,
    1624,
    1553,
    1518,
    1515,
    1500,
    1497,
    -1,
    1499,
    -1,
    -1,
    1508,
    1505,
    1504,
    -1,
    -1,
    1507,
    -1,
    -1,
    1512,
    1511,
    -1,
    -1,
    1514,
    -1,
    -1,
    1517,
    -1,
    -1,
    1538,
    1531,
    1528,
    1525,
    1524,
    -1,
    -1,
    1527,
    -1,
    -1,
    1530,
    -1,
    -1,
    1533,
    -1,
    1537,
    1536,
    -1,
    -1,
    -1,
    1542,
    1541,
    -1,
    -1,
    1548,
    1545,
    -1,
    1547,
    -1,
    -1,
    1552,
    1551,
    -1,
    -1,
    -1,
    1593,
    1576,
    1569,
    1564,
    1561,
    1560,
    -1,
    -1,
    1563,
    -1,
    -1,
    1568,
    1567,
    -1,
    -1,
    -1,
    1571,
    -1,
    1573,
    -1,
    1575,
    -1,
    -1,
    1584,
    1581,
    1580,
    -1,
    -1,
    1583,
    -1,
    -1,
    1592,
    1589,
    1588,
    -1,
    -1,
    1591,
    -1,
    -1,
    -1,
    1597,
    1596,
    -1,
    -1,
    1611,
    1606,
    1603,
    1602,
    -1,
    -1,
    1605,
    -1,
    -1,
    1610,
    1609,
    -1,
    -1,
    -1,
    1619,
    1616,
    1615,
    -1,
    -1,
    1618,
    -1,
    -1,
    1621,
    -1,
    1623,
    -1,
    -1,
    1694,
    1665,
    1646,
    1637,
    1630,
    -1,
    1634,
    1633,
    -1,
    -1,
    1636,
    -1,
    -1,
    1641,
    1640,
    -1,
    -1,
    1643,
    -1,
    1645,
    -1,
    -1,
    1656,
    1651,
    1650,
    -1,
    -1,
    1653,
    -1,
    1655,
    -1,
    -1,
    1664,
    1661,
    1660,
    -1,
    -1,
    1663,
    -1,
    -1,
    -1,
    1671,
    1670,
    1669,
    -1,
    -1,
    -1,
    1685,
    1680,
    1677,
    1676,
    -1,
    -1,
    1679,
    -1,
    -1,
    1684,
    1683,
    -1,
    -1,
    -1,
    1687,
    -1,
    1691,
    1690,
    -1,
    -1,
    1693,
    -1,
    -1,
    1712,
    1711,
    1702,
    1701,
    1700,
    -1,
    -1,
    -1,
    1704,
    -1,
    1708,
    1707,
    -1,
    -1,
    1710,
    -1,
    -1,
    -1,
    1714,
    -1,
    1716,
    -1,
    1718,
    -1,
    1720,
    -1,
    1722,
    -1,
    -1,
    1871,
    1772,
    1769,
    1742,
    1741,
    1730,
    -1,
    1734,
    1733,
    -1,
    -1,
    1738,
    1737,
    -1,
    -1,
    1740,
    -1,
    -1,
    -1,
    1746,
    1745,
    -1,
    -1,
    1762,
    1755,
    1752,
    1751,
    -1,
    -1,
    1754,
    -1,
    -1,
    1759,
    1758,
    -1,
    -1,
    1761,
    -1,
    -1,
    1764,
    -1,
    1766,
    -1,
    1768,
    -1,
    -1,
    1771,
    -1,
    -1,
    1820,
    1811,
    1786,
    1783,
    1782,
    1779,
    -1,
    1781,
    -1,
    -1,
    -1,
    1785,
    -1,
    -1,
    1802,
    1795,
    1792,
    1791,
    -1,
    -1,
    1794,
    -1,
    -1,
    1799,
    1798,
    -1,
    -1,
    1801,
    -1,
    -1,
    1804,
    -1,
    1808,
    1807,
    -1,
    -1,
    1810,
    -1,
    -1,
    1813,
    -1,
    1819,
    1818,
    1817,
    -1,
    -1,
    -1,
    -1,
    1850,
    1847,
    1838,
    1831,
    1828,
    1827,
    -1,
    -1,
    1830,
    -1,
    -1,
    1835,
    1834,
    -1,
    -1,
    1837,
    -1,
    -1,
    1842,
    1841,
    -1,
    -1,
    1846,
    1845,
    -1,
    -1,
    -1,
    1849,
    -1,
    -1,
    1866,
    1863,
    1858,
    1855,
    -1,
    1857,
    -1,
    -1,
    1860,
    -1,
    1862,
    -1,
    -1,
    1865,
    -1,
    -1,
    1870,
    1869,
    -1,
    -1,
    -1,
    1921,
    1894,
    1887,
    1880,
    1879,
    1878,
    -1,
    -1,
    -1,
    1884,
    1883,
    -1,
    -1,
    1886,
    -1,
    -1,
    1889,
    -1,
    1893,
    1892,
    -1,
    -1,
    -1,
    1896,
    -1,
    1898,
    -1,
    1910,
    1905,
    1904,
    1903,
    -1,
    -1,
    -1,
    1907,
    -1,
    1909,
    -1,
    -1,
    1916,
    1915,
    1914,
    -1,
    -1,
    -1,
    1918,
    -1,
    1920,
    -1,
    -1,
    1927,
    1926,
    1925,
    -1,
    -1,
    -1,
    -1,
    1938,
    1935,
    1934,
    1933,
    -1,
    -1,
    -1,
    1937,
    -1,
    -1,
    1946,
    1941,
    -1,
    1945,
    1944,
    -1,
    -1,
    -1,
    -1,
    -1,
    1952,
    1951,
    -1,
    -1,
    -1,
    1957,
    1956,
    -1,
    -1,
    -1,
    1964,
    1961,
    -1,
    1963,
    -1,
    -1,
    1966,
    -1,
    -1,
    1973,
    1970,
    -1,
    1972,
    -1,
    -1,
    1989,
    1980,
    1977,
    -1,
    1979,
    -1,
    -1,
    1984,
    1983,
    -1,
    -1,
    1986,
    -1,
    1988,
    -1,
    -1,
    2233,
    1992,
    -1,
    2166,
    2163,
    2068,
    2027,
    2024,
    2003,
    2002,
    2001,
    -1,
    -1,
    -1,
    2023,
    2022,
    2015,
    2014,
    2011,
    2010,
    -1,
    -1,
    2013,
    -1,
    -1,
    -1,
    2017,
    -1,
    2019,
    -1,
    2021,
    -1,
    -1,
    -1,
    -1,
    2026,
    -1,
    -1,
    2067,
    2058,
    2037,
    2032,
    -1,
    2036,
    2035,
    -1,
    -1,
    -1,
    2057,
    2046,
    2045,
    2042,
    -1,
    2044,
    -1,
    -1,
    -1,
    2052,
    2051,
    2050,
    -1,
    -1,
    -1,
    2054,
    -1,
    2056,
    -1,
    -1,
    -1,
    2060,
    -1,
    2062,
    -1,
    2066,
    2065,
    -1,
    -1,
    -1,
    -1,
    2070,
    -1,
    2134,
    2105,
    2092,
    2089,
    2086,
    2081,
    2078,
    -1,
    2080,
    -1,
    -1,
    2083,
    -1,
    2085,
    -1,
    -1,
    2088,
    -1,
    -1,
    2091,
    -1,
    -1,
    2104,
    2095,
    -1,
    2097,
    -1,
    2101,
    2100,
    -1,
    -1,
    2103,
    -1,
    -1,
    -1,
    2111,
    2110,
    2109,
    -1,
    -1,
    -1,
    2131,
    2122,
    2119,
    2116,
    -1,
    2118,
    -1,
    -1,
    2121,
    -1,
    -1,
    2130,
    2127,
    2126,
    -1,
    -1,
    2129,
    -1,
    -1,
    -1,
    2133,
    -1,
    -1,
    2136,
    -1,
    2138,
    -1,
    2154,
    2151,
    2148,
    2145,
    2144,
    -1,
    -1,
    2147,
    -1,
    -1,
    2150,
    -1,
    -1,
    2153,
    -1,
    -1,
    2160,
    2159,
    2158,
    -1,
    -1,
    -1,
    2162,
    -1,
    -1,
    2165,
    -1,
    -1,
    2230,
    2221,
    2218,
    2215,
    2198,
    2197,
    2196,
    2181,
    2176,
    -1,
    2178,
    -1,
    2180,
    -1,
    -1,
    2189,
    2186,
    2185,
    -1,
    -1,
    2188,
    -1,
    -1,
    2193,
    2192,
    -1,
    -1,
    2195,
    -1,
    -1,
    -1,
    -1,
    2200,
    -1,
    2214,
    2203,
    -1,
    2209,
    2208,
    2207,
    -1,
    -1,
    -1,
    2211,
    -1,
    2213,
    -1,
    -1,
    -1,
    2217,
    -1,
    -1,
    2220,
    -1,
    -1,
    2225,
    2224,
    -1,
    -1,
    2227,
    -1,
    2229,
    -1,
    -1,
    2232,
    -1,
    -1,
    2235,
    -1,
    -1,
    2520,
    2239,
    -1,
    2241,
    -1,
    2517,
    2510,
    2247,
    2246,
    -1,
    -1,
    2293,
    2274,
    2259,
    2254,
    2253,
    -1,
    -1,
    2258,
    2257,
    -1,
    -1,
    -1,
    2273,
    2262,
    -1,
    2266,
    2265,
    -1,
    -1,
    2272,
    2271,
    2270,
    -1,
    -1,
    -1,
    -1,
    -1,
    2284,
    2277,
    -1,
    2279,
    -1,
    2283,
    2282,
    -1,
    -1,
    -1,
    2292,
    2287,
    -1,
    2289,
    -1,
    2291,
    -1,
    -1,
    -1,
    2369,
    2330,
    2301,
    2298,
    -1,
    2300,
    -1,
    -1,
    2303,
    -1,
    2307,
    2306,
    -1,
    -1,
    2329,
    2320,
    2315,
    2312,
    -1,
    2314,
    -1,
    -1,
    2317,
    -1,
    2319,
    -1,
    -1,
    2328,
    2325,
    2324,
    -1,
    -1,
    2327,
    -1,
    -1,
    -1,
    -1,
    2334,
    2333,
    -1,
    -1,
    2336,
    -1,
    2348,
    2343,
    2342,
    2341,
    -1,
    -1,
    -1,
    2347,
    2346,
    -1,
    -1,
    -1,
    2360,
    2359,
    2356,
    2355,
    2354,
    -1,
    -1,
    -1,
    2358,
    -1,
    -1,
    -1,
    2364,
    2363,
    -1,
    -1,
    2368,
    2367,
    -1,
    -1,
    -1,
    2445,
    2430,
    2403,
    2390,
    2385,
    2376,
    -1,
    2380,
    2379,
    -1,
    -1,
    2382,
    -1,
    2384,
    -1,
    -1,
    2389,
    2388,
    -1,
    -1,
    -1,
    2392,
    -1,
    2396,
    2395,
    -1,
    -1,
    2402,
    2401,
    2400,
    -1,
    -1,
    -1,
    -1,
    2421,
    2412,
    2411,
    2408,
    -1,
    2410,
    -1,
    -1,
    -1,
    2414,
    -1,
    2416,
    -1,
    2420,
    2419,
    -1,
    -1,
    -1,
    2427,
    2426,
    2425,
    -1,
    -1,
    -1,
    2429,
    -1,
    -1,
    2432,
    -1,
    2436,
    2435,
    -1,
    -1,
    2444,
    2443,
    2440,
    -1,
    2442,
    -1,
    -1,
    -1,
    -1,
    2475,
    2470,
    2469,
    2466,
    2461,
    2458,
    2455,
    2454,
    -1,
    -1,
    2457,
    -1,
    -1,
    2460,
    -1,
    -1,
    2463,
    -1,
    2465,
    -1,
    -1,
    2468,
    -1,
    -1,
    -1,
    2474,
    2473,
    -1,
    -1,
    -1,
    2497,
    2488,
    2479,
    -1,
    2485,
    2484,
    2483,
    -1,
    -1,
    -1,
    2487,
    -1,
    -1,
    2496,
    2493,
    2492,
    -1,
    -1,
    2495,
    -1,
    -1,
    -1,
    2501,
    2500,
    -1,
    -1,
    2507,
    2504,
    -1,
    2506,
    -1,
    -1,
    2509,
    -1,
    -1,
    2516,
    2515,
    2514,
    -1,
    -1,
    -1,
    -1,
    2519,
    -1,
    -1,
    2522,
    -1,
    2526,
    2525,
    -1,
    -1,
    -1,
    2559,
    2552,
    2531,
    -1,
    2543,
    2534,
    -1,
    2540,
    2537,
    -1,
    2539,
    -1,
    -1,
    2542,
    -1,
    -1,
    2549,
    2548,
    2547,
    -1,
    -1,
    -1,
    2551,
    -1,
    -1,
    2554,
    -1,
    2556,
    -1,
    2558,
    -1,
    -1,
    2591,
    2584,
    2583,
    2580,
    2577,
    2576,
    2567,
    -1,
    2573,
    2572,
    2571,
    -1,
    -1,
    -1,
    2575,
    -1,
    -1,
    -1,
    2579,
    -1,
    -1,
    2582,
    -1,
    -1,
    -1,
    2586,
    -1,
    2588,
    -1,
    2590,
    -1,
    -1,
    2593,
    -1,
    3069,
    2608,
    2605,
    2598,
    -1,
    2600,
    -1,
    2604,
    2603,
    -1,
    -1,
    -1,
    2607,
    -1,
    -1,
    3064,
    2897,
    2892,
    2741,
    2722,
    2643,
    2642,
    2617,
    -1,
    2631,
    2626,
    2621,
    -1,
    2623,
    -1,
    2625,
    -1,
    -1,
    2628,
    -1,
    2630,
    -1,
    -1,
    2641,
    2640,
    2637,
    2636,
    -1,
    -1,
    2639,
    -1,
    -1,
    -1,
    -1,
    -1,
    2699,
    2678,
    2675,
    2660,
    2655,
    2652,
    2651,
    -1,
    -1,
    2654,
    -1,
    -1,
    2657,
    -1,
    2659,
    -1,
    -1,
    2668,
    2665,
    2664,
    -1,
    -1,
    2667,
    -1,
    -1,
    2672,
    2671,
    -1,
    -1,
    2674,
    -1,
    -1,
    2677,
    -1,
    -1,
    2688,
    2681,
    -1,
    2685,
    2684,
    -1,
    -1,
    2687,
    -1,
    -1,
    2690,
    -1,
    2698,
    2695,
    2694,
    -1,
    -1,
    2697,
    -1,
    -1,
    -1,
    2707,
    2706,
    2705,
    2704,
    -1,
    -1,
    -1,
    -1,
    2713,
    2710,
    -1,
    2712,
    -1,
    -1,
    2719,
    2718,
    2717,
    -1,
    -1,
    -1,
    2721,
    -1,
    -1,
    2738,
    2725,
    -1,
    2735,
    2732,
    2729,
    -1,
    2731,
    -1,
    -1,
    2734,
    -1,
    -1,
    2737,
    -1,
    -1,
    2740,
    -1,
    -1,
    2889,
    2794,
    2791,
    2786,
    2777,
    2762,
    2755,
    2752,
    2751,
    -1,
    -1,
    2754,
    -1,
    -1,
    2759,
    2758,
    -1,
    -1,
    2761,
    -1,
    -1,
    2770,
    2767,
    2766,
    -1,
    -1,
    2769,
    -1,
    -1,
    2774,
    2773,
    -1,
    -1,
    2776,
    -1,
    -1,
    2785,
    2784,
    2783,
    2782,
    -1,
    -1,
    -1,
    -1,
    -1,
    2790,
    2789,
    -1,
    -1,
    -1,
    2793,
    -1,
    -1,
    2886,
    2843,
    2822,
    2807,
    2800,
    -1,
    2804,
    2803,
    -1,
    -1,
    2806,
    -1,
    -1,
    2815,
    2812,
    2811,
    -1,
    -1,
    2814,
    -1,
    -1,
    2819,
    2818,
    -1,
    -1,
    2821,
    -1,
    -1,
    2832,
    2831,
    2828,
    2827,
    -1,
    -1,
    2830,
    -1,
    -1,
    -1,
    2836,
    2835,
    -1,
    -1,
    2840,
    2839,
    -1,
    -1,
    2842,
    -1,
    -1,
    2869,
    2854,
    2853,
    2850,
    2849,
    -1,
    -1,
    2852,
    -1,
    -1,
    -1,
    2862,
    2859,
    2858,
    -1,
    -1,
    2861,
    -1,
    -1,
    2866,
    2865,
    -1,
    -1,
    2868,
    -1,
    -1,
    2885,
    2878,
    2875,
    2874,
    -1,
    -1,
    2877,
    -1,
    -1,
    2882,
    2881,
    -1,
    -1,
    2884,
    -1,
    -1,
    -1,
    2888,
    -1,
    -1,
    2891,
    -1,
    -1,
    2894,
    -1,
    2896,
    -1,
    -1,
    3007,
    2906,
    2901,
    -1,
    2903,
    -1,
    2905,
    -1,
    -1,
    2998,
    2993,
    2936,
    2931,
    2920,
    2917,
    2916,
    2915,
    -1,
    -1,
    -1,
    2919,
    -1,
    -1,
    2926,
    2925,
    2924,
    -1,
    -1,
    -1,
    2930,
    2929,
    -1,
    -1,
    -1,
    2933,
    -1,
    2935,
    -1,
    -1,
    2966,
    2957,
    2946,
    2945,
    2944,
    2943,
    -1,
    -1,
    -1,
    -1,
    2950,
    2949,
    -1,
    -1,
    2954,
    2953,
    -1,
    -1,
    2956,
    -1,
    -1,
    2959,
    -1,
    2965,
    2962,
    -1,
    2964,
    -1,
    -1,
    -1,
    2972,
    2971,
    2970,
    -1,
    -1,
    -1,
    2982,
    2977,
    2976,
    -1,
    -1,
    2979,
    -1,
    2981,
    -1,
    -1,
    2986,
    2985,
    -1,
    -1,
    2990,
    2989,
    -1,
    -1,
    2992,
    -1,
    -1,
    2995,
    -1,
    2997,
    -1,
    -1,
    3004,
    3001,
    -1,
    3003,
    -1,
    -1,
    3006,
    -1,
    -1,
    3009,
    -1,
    3019,
    3018,
    3017,
    3016,
    3015,
    -1,
    -1,
    -1,
    -1,
    -1,
    3059,
    3026,
    3025,
    3024,
    -1,
    -1,
    -1,
    3036,
    3033,
    3030,
    -1,
    3032,
    -1,
    -1,
    3035,
    -1,
    -1,
    3042,
    3041,
    3040,
    -1,
    -1,
    -1,
    3056,
    3051,
    3048,
    3047,
    -1,
    -1,
    3050,
    -1,
    -1,
    3055,
    3054,
    -1,
    -1,
    -1,
    3058,
    -1,
    -1,
    3061,
    -1,
    3063,
    -1,
    -1,
    3068,
    3067,
    -1,
    -1,
    -1,
    3105,
    3100,
    3073,
    -1,
    3095,
    3092,
    3083,
    3080,
    3079,
    -1,
    -1,
    3082,
    -1,
    -1,
    3089,
    3086,
    -1,
    3088,
    -1,
    -1,
    3091,
    -1,
    -1,
    3094,
    -1,
    -1,
    3099,
    3098,
    -1,
    -1,
    -1,
    3102,
    -1,
    3104,
    -1,
    -1,
    3107,
    -1,
    -1,
    3156,
    3151,
    3112,
    -1,
    3148,
    3145,
    3128,
    3127,
    3118,
    -1,
    3122,
    3121,
    -1,
    -1,
    3124,
    -1,
    3126,
    -1,
    -1,
    -1,
    3142,
    3139,
    3136,
    3135,
    3134,
    -1,
    -1,
    -1,
    3138,
    -1,
    -1,
    3141,
    -1,
    -1,
    3144,
    -1,
    -1,
    3147,
    -1,
    -1,
    3150,
    -1,
    -1,
    3155,
    3154,
    -1,
    -1,
    -1,
    3158,
    -1,
    3160,
    -1,
    -1
  ],
  "feature": [
    12,
    19,
    8,
    3,
    11,
    8,
    18,
    8,
    6,
    15,
    -2,
    16,
    15,
    16,
    0,
    -2,
    -2,
    -2,
    0,
    -2,
    -2,
    -2,
    17,
    1,
    15,
    -2,
    -2,
    -2,
    8,
    -2,
    16,
    4,
    -2,
    -2,
    -2,
    1,
    4,
    0,
    4,
    0,
    15,
    16,
    17,
    -2,
    15,
    4,
    -2,
    15,
    0,
    -2,
    -2,
    -2,
    0,
    -2,
    -2,
    16,
    19,
    15,
    16,
    -2,
    -2,
    -2,
    -2,
    -2,
    16,
    4,
    15,
    4,
    -2,
    4,
    0,
    -2,
    -2,
    -2,
    15,
    -2,
    17,
    -2,
    15,
    -2,
    -2,
    0,
    4,
    0,
    -2,
    -2,
    17,
    15,
    -2,
    -2,
    4,
    -2,
    -2,
    15,
    15,
    0,
    -2,
    -2,
    -2,
    0,
    15,
    -2,
    -2,
    4,
    -2,
    -2,
    16,
    -2,
    -2,
    0,
    16,
    0,
    0,
    4,
    4,
    -2,
    15,
    -2,
    -2,
    17,
    0,
    -2,
    -2,
    -2,
    -2,
    15,
    17,
    0,
    -2,
    -2,
    14,
    -2,
    -2,
    4,
    0,
    -2,
    0,
    -2,
    -2,
    -2,
    17,
    -2,
    15,
    16,
    -2,
    -2,
    -2,
    0,
    15,
    4,
    17,
    17,
    -2,
    -2,
    15,
    17,
    -2,
    -2,
    -2,
    17,
    4,
    0,
    -2,
    -2,
    -2,
    15,
    -2,
    -2,
    0,
    -2,
    -2,
    15,
    16,
    -2,
    -2,
    0,
    -2,
    0,
    -2,
    -2,
    0,
    15,
    15,
    -2,
    0,
    15,
    -2,
    -2,
    16,
    -2,
    -2,
    0,
    17,
    17,
    0,
    0,
    15,
    -2,
    -2,
    0,
    -2,
    -2,
    15,
    -2,
    17,
    -2,
    -2,
    0,
    17,
    -2,
    -2,
    -2,
    17,
    -2,
    4,
    0,
    4,
    -2,
    -2,
    15,
    -2,
    -2,
    0,
    -2,
    -2,
    15,
    -2,
    0,
    15,
    -2,
    -2,
    4,
    17,
    -2,
    -2,
    -2,
    6,
    -2,
    0,
    0,
    -2,
    4,
    -2,
    15,
    -2,
    -2,
    4,
    -2,
    0,
    0,
    0,
    1,
    -2,
    -2,
    -2,
    4,
    0,
    -2,
    -2,
    -2,
    -2,
    0,
    0,
    15,
    16,
    0,
    0,
    0,
    1,
    -2,
    -2,
    15,
    -2,
    15,
    -2,
    -2,
    0,
    15,
    16,
    -2,
    -2,
    4,
    -2,
    -2,
    4,
    15,
    -2,
    -2,
    0,
    -2,
    -2,
    15,
    0,
    15,
    16,
    -2,
    -2,
    0,
    -2,
    -2,
    16,
    17,
    -2,
    -2,
    4,
    -2,
    -2,
    0,
    17,
    15,
    -2,
    -2,
    15,
    -2,
    -2,
    16,
    -2,
    4,
    -2,
    -2,
    0,
    17,
    -2,
    15,
    17,
    -2,
    -2,
    -2,
    16,
    16,
    0,
    -2,
    17,
    -2,
    -2,
    16,
    0,
    -2,
    -2,
    4,
    -2,
    -2,
    17,
    -2,
    16,
    16,
    -2,
    -2,
    17,
    -2,
    -2,
    15,
    0,
    15,
    0,
    17,
    17,
    -2,
    -2,
    0,
    -2,
    -2,
    0,
    15,
    -2,
    -2,
    15,
    -2,
    -2,
    15,
    4,
    -2,
    17,
    -2,
    -2,
    4,
    0,
    -2,
    -2,
    -2,
    15,
    16,
    -2,
    17,
    -2,
    -2,
    15,
    0,
    15,
    -2,
    -2,
    15,
    -2,
    -2,
    4,
    17,
    -2,
    -2,
    0,
    -2,
    -2,
    0,
    4,
    4,
    0,
    15,
    -2,
    -2,
    -2,
    -2,
    0,
    -2,
    15,
    15,
    -2,
    -2,
    4,
    -2,
    -2,
    4,
    0,
    0,
    17,
    -2,
    -2,
    -2,
    17,
    15,
    -2,
    -2,
    4,
    -2,
    -2,
    0,
    4,
    0,
    -2,
    -2,
    4,
    -2,
    -2,
    15,
    17,
    -2,
    -2,
    -2,
    4,
    17,
    0,
    17,
    17,
    4,
    -2,
    4,
    -2,
    -2,
    15,
    17,
    -2,
    -2,
    0,
    -2,
    -2,
    0,
    -2,
    4,
    4,
    -2,
    -2,
    -2,
    0,
    17,
    15,
    -2,
    -2,
    0,
    -2,
    -2,
    17,
    -2,
    -2,
    0,
    16,
    16,
    0,
    15,
    -2,
    -2,
    16,
    -2,
    -2,
    16,
    -2,
    17,
    -2,
    -2,
    16,
    0,
    0,
    -2,
    -2,
    15,
    -2,
    -2,
    17,
    16,
    -2,
    -2,
    4,
    -2,
    -2,
    16,
    -2,
    15,
    -2,
    17,
    -2,
    0,
    -2,
    -2,
    4,
    -2,
    17,
    15,
    17,
    -2,
    -2,
    -2,
    -2,
    17,
    16,
    10,
    0,
    15,
    6,
    -2,
    4,
    15,
    -2,
    -2,
    17,
    -2,
    -2,
    -2,
    15,
    15,
    0,
    0,
    -2,
    -2,
    0,
    -2,
    -2,
    0,
    -2,
    0,
    -2,
    -2,
    0,
    0,
    0,
    -2,
    -2,
    15,
    -2,
    -2,
    0,
    -2,
    -2,
    4,
    17,
    -2,
    -2,
    0,
    0,
    0,
    -2,
    -2,
    -2,
    -2,
    2,
    16,
    -2,
    16,
    13,
    -2,
    0,
    -2,
    -2,
    5,
    9,
    6,
    -2,
    -2,
    -2,
    -2,
    19,
    -2,
    -2,
    0,
    16,
    0,
    4,
    17,
    4,
    15,
    -2,
    -2,
    4,
    -2,
    -2,
    0,
    4,
    -2,
    -2,
    15,
    -2,
    -2,
    17,
    4,
    4,
    -2,
    -2,
    15,
    -2,
    -2,
    17,
    4,
    -2,
    -2,
    4,
    -2,
    -2,
    15,
    -2,
    4,
    4,
    15,
    -2,
    -2,
    0,
    -2,
    -2,
    0,
    17,
    -2,
    -2,
    -2,
    -2,
    6,
    15,
    -2,
    4,
    -2,
    -2,
    0,
    0,
    0,
    17,
    0,
    -2,
    -2,
    0,
    -2,
    -2,
    0,
    -2,
    0,
    -2,
    -2,
    -2,
    15,
    13,
    -2,
    -2,
    4,
    15,
    9,
    -2,
    -2,
    17,
    -2,
    -2,
    15,
    15,
    -2,
    -2,
    4,
    -2,
    -2,
    6,
    -2,
    4,
    15,
    0,
    -2,
    15,
    -2,
    -2,
    -2,
    15,
    17,
    0,
    -2,
    -2,
    16,
    17,
    -2,
    -2,
    -2,
    4,
    0,
    -2,
    15,
    15,
    -2,
    0,
    -2,
    17,
    -2,
    -2,
    0,
    -2,
    -2,
    -2,
    1,
    18,
    1,
    18,
    15,
    14,
    1,
    9,
    13,
    14,
    1,
    -2,
    -2,
    19,
    -2,
    -2,
    -2,
    1,
    0,
    9,
    -2,
    -2,
    0,
    -2,
    -2,
    10,
    -2,
    -2,
    0,
    -2,
    -2,
    15,
    -2,
    -2,
    16,
    -2,
    18,
    13,
    -2,
    -2,
    15,
    0,
    -2,
    -2,
    -2,
    18,
    -2,
    10,
    -2,
    -2,
    0,
    4,
    2,
    -2,
    -2,
    -2,
    -2,
    -2,
    -2,
    17,
    13,
    16,
    18,
    17,
    16,
    16,
    17,
    17,
    -2,
    -2,
    -2,
    -2,
    0,
    16,
    4,
    -2,
    -2,
    -2,
    -2,
    16,
    -2,
    16,
    15,
    -2,
    16,
    -2,
    16,
    18,
    -2,
    17,
    15,
    -2,
    -2,
    -2,
    -2,
    -2,
    20,
    17,
    -2,
    16,
    18,
    0,
    15,
    -2,
    0,
    -2,
    -2,
    -2,
    17,
    -2,
    0,
    0,
    -2,
    -2,
    -2,
    0,
    -2,
    -2,
    -2,
    17,
    16,
    8,
    -2,
    -2,
    15,
    16,
    -2,
    -2,
    2,
    -2,
    -2,
    0,
    16,
    18,
    -2,
    0,
    0,
    15,
    0,
    -2,
    -2,
    -2,
    -2,
    0,
    -2,
    15,
    -2,
    -2,
    16,
    15,
    16,
    0,
    -2,
    -2,
    -2,
    -2,
    -2,
    16,
    0,
    16,
    15,
    16,
    0,
    16,
    16,
    -2,
    -2,
    0,
    -2,
    -2,
    -2,
    0,
    0,
    -2,
    16,
    -2,
    -2,
    16,
    -2,
    18,
    -2,
    -2,
    -2,
    15,
    16,
    0,
    -2,
    16,
    -2,
    -2,
    -2,
    16,
    0,
    -2,
    -2,
    -2,
    -2,
    4,
    -2,
    16,
    18,
    -2,
    -2,
    0,
    -2,
    15,
    -2,
    -2,
    14,
    17,
    17,
    0,
    0,
    -2,
    -2,
    -2,
    16,
    -2,
    -2,
    18,
    -2,
    -2,
    2,
    -2,
    -2,
    20,
    1,
    15,
    18,
    8,
    4,
    4,
    4,
    -2,
    -2,
    -2,
    0,
    8,
    0,
    18,
    -2,
    -2,
    -2,
    0,
    15,
    -2,
    15,
    -2,
    -2,
    0,
    0,
    0,
    -2,
    -2,
    15,
    -2,
    -2,
    18,
    0,
    -2,
    -2,
    17,
    -2,
    -2,
    17,
    4,
    17,
    -2,
    -2,
    18,
    -2,
    -2,
    0,
    -2,
    -2,
    0,
    15,
    0,
    18,
    -2,
    4,
    17,
    -2,
    4,
    -2,
    -2,
    0,
    -2,
    -2,
    17,
    15,
    -2,
    15,
    -2,
    -2,
    -2,
    -2,
    18,
    4,
    15,
    4,
    -2,
    18,
    -2,
    0,
    -2,
    -2,
    -2,
    -2,
    13,
    15,
    0,
    -2,
    18,
    -2,
    -2,
    15,
    0,
    4,
    -2,
    -2,
    -2,
    15,
    15,
    -2,
    -2,
    0,
    -2,
    -2,
    -2,
    15,
    0,
    -2,
    -2,
    8,
    15,
    8,
    -2,
    17,
    15,
    0,
    -2,
    -2,
    15,
    -2,
    0,
    -2,
    -2,
    -2,
    -2,
    18,
    0,
    -2,
    -2,
    -2,
    4,
    9,
    15,
    0,
    17,
    -2,
    17,
    18,
    4,
    15,
    -2,
    -2,
    -2,
    0,
    -2,
    -2,
    15,
    4,
    17,
    -2,
    -2,
    15,
    -2,
    -2,
    4,
    18,
    -2,
    -2,
    -2,
    15,
    -2,
    -2,
    4,
    0,
    -2,
    15,
    15,
    15,
    -2,
    -2,
    17,
    17,
    -2,
    -2,
    -2,
    -2,
    -2,
    -2,
    15,
    -2,
    0,
    0,
    -2,
    17,
    17,
    -2,
    -2,
    8,
    17,
    -2,
    -2,
    -2,
    -2,
    2,
    17,
    15,
    16,
    16,
    16,
    18,
    18,
    -2,
    8,
    -2,
    -2,
    16,
    16,
    -2,
    18,
    -2,
    -2,
    -2,
    -2,
    6,
    9,
    4,
    -2,
    -2,
    18,
    0,
    -2,
    -2,
    -2,
    4,
    -2,
    -2,
    9,
    -2,
    -2,
    19,
    17,
    -2,
    -2,
    -2,
    8,
    5,
    0,
    15,
    -2,
    -2,
    -2,
    17,
    -2,
    -2,
    -2,
    13,
    -2,
    -2,
    6,
    -2,
    -2,
    11,
    8,
    1,
    15,
    -2,
    -2,
    18,
    -2,
    20,
    -2,
    0,
    -2,
    -2,
    18,
    16,
    8,
    -2,
    20,
    -2,
    0,
    0,
    -2,
    -2,
    16,
    -2,
    -2,
    15,
    -2,
    -2,
    18,
    8,
    -2,
    8,
    -2,
    2,
    -2,
    -2,
    18,
    8,
    -2,
    4,
    -2,
    -2,
    -2,
    14,
    4,
    -2,
    -2,
    5,
    -2,
    -2,
    13,
    15,
    6,
    5,
    14,
    4,
    18,
    0,
    15,
    8,
    8,
    -2,
    8,
    -2,
    -2,
    8,
    8,
    8,
    8,
    8,
    -2,
    -2,
    -2,
    8,
    8,
    -2,
    -2,
    8,
    -2,
    -2,
    -2,
    8,
    -2,
    8,
    -2,
    8,
    -2,
    8,
    -2,
    -2,
    8,
    8,
    8,
    8,
    8,
    8,
    -2,
    -2,
    15,
    -2,
    -2,
    -2,
    8,
    -2,
    15,
    -2,
    0,
    -2,
    -2,
    8,
    -2,
    8,
    0,
    8,
    -2,
    -2,
    -2,
    8,
    8,
    -2,
    -2,
    8,
    -2,
    -2,
    8,
    4,
    4,
    -2,
    -2,
    8,
    8,
    -2,
    -2,
    8,
    -2,
    8,
    -2,
    -2,
    8,
    -2,
    8,
    4,
    -2,
    -2,
    8,
    8,
    -2,
    -2,
    8,
    -2,
    -2,
    17,
    4,
    0,
    8,
    8,
    8,
    8,
    -2,
    -2,
    8,
    -2,
    -2,
    -2,
    8,
    8,
    8,
    -2,
    -2,
    8,
    -2,
    -2,
    8,
    -2,
    8,
    -2,
    -2,
    15,
    0,
    8,
    -2,
    8,
    -2,
    -2,
    8,
    0,
    -2,
    -2,
    8,
    -2,
    -2,
    8,
    8,
    -2,
    4,
    -2,
    -2,
    0,
    8,
    -2,
    -2,
    0,
    -2,
    -2,
    0,
    8,
    8,
    8,
    -2,
    15,
    -2,
    -2,
    17,
    -2,
    -2,
    8,
    8,
    15,
    -2,
    -2,
    4,
    -2,
    -2,
    8,
    8,
    -2,
    -2,
    8,
    -2,
    -2,
    8,
    8,
    8,
    8,
    -2,
    -2,
    -2,
    8,
    8,
    -2,
    -2,
    18,
    -2,
    -2,
    8,
    17,
    -2,
    4,
    -2,
    -2,
    8,
    8,
    -2,
    -2,
    15,
    -2,
    -2,
    8,
    15,
    -2,
    -2,
    8,
    15,
    8,
    -2,
    -2,
    -2,
    8,
    0,
    8,
    8,
    -2,
    -2,
    -2,
    -2,
    8,
    18,
    -2,
    18,
    -2,
    -2,
    8,
    8,
    -2,
    -2,
    18,
    -2,
    -2,
    4,
    18,
    4,
    8,
    8,
    17,
    -2,
    15,
    -2,
    -2,
    8,
    8,
    8,
    -2,
    -2,
    0,
    -2,
    -2,
    8,
    17,
    -2,
    -2,
    8,
    -2,
    -2,
    15,
    -2,
    -2,
    8,
    8,
    8,
    8,
    8,
    -2,
    -2,
    8,
    -2,
    -2,
    0,
    -2,
    -2,
    8,
    -2,
    8,
    15,
    -2,
    -2,
    -2,
    8,
    4,
    -2,
    -2,
    8,
    8,
    -2,
    0,
    -2,
    -2,
    8,
    8,
    -2,
    -2,
    -2,
    8,
    8,
    8,
    4,
    8,
    15,
    -2,
    -2,
    8,
    -2,
    -2,
    18,
    8,
    -2,
    -2,
    -2,
    0,
    -2,
    8,
    -2,
    8,
    -2,
    -2,
    17,
    8,
    8,
    -2,
    -2,
    8,
    -2,
    -2,
    8,
    8,
    8,
    -2,
    -2,
    17,
    -2,
    -2,
    -2,
    8,
    18,
    -2,
    -2,
    8,
    8,
    4,
    8,
    -2,
    -2,
    15,
    -2,
    -2,
    0,
    4,
    -2,
    -2,
    -2,
    0,
    8,
    8,
    -2,
    -2,
    8,
    -2,
    -2,
    8,
    -2,
    8,
    -2,
    -2,
    0,
    8,
    8,
    8,
    8,
    -2,
    8,
    17,
    -2,
    -2,
    18,
    -2,
    -2,
    15,
    8,
    -2,
    -2,
    4,
    -2,
    15,
    -2,
    -2,
    4,
    8,
    8,
    -2,
    -2,
    8,
    -2,
    8,
    -2,
    -2,
    17,
    4,
    0,
    -2,
    -2,
    8,
    -2,
    -2,
    -2,
    8,
    0,
    4,
    -2,
    -2,
    -2,
    8,
    8,
    15,
    8,
    -2,
    -2,
    8,
    -2,
    -2,
    15,
    8,
    -2,
    -2,
    -2,
    18,
    -2,
    0,
    8,
    -2,
    -2,
    8,
    -2,
    -2,
    8,
    8,
    8,
    8,
    8,
    -2,
    -2,
    -2,
    8,
    -2,
    8,
    8,
    -2,
    -2,
    8,
    -2,
    -2,
    -2,
    8,
    -2,
    8,
    -2,
    8,
    -2,
    8,
    -2,
    8,
    -2,
    -2,
    0,
    15,
    8,
    8,
    4,
    17,
    -2,
    8,
    8,
    -2,
    -2,
    8,
    8,
    -2,
    -2,
    8,
    -2,
    -2,
    -2,
    8,
    15,
    -2,
    -2,
    8,
    8,
    8,
    8,
    -2,
    -2,
    0,
    -2,
    -2,
    4,
    8,
    -2,
    -2,
    8,
    -2,
    -2,
    15,
    -2,
    8,
    -2,
    8,
    -2,
    -2,
    8,
    -2,
    -2,
    4,
    8,
    8,
    8,
    18,
    8,
    -2,
    8,
    -2,
    -2,
    -2,
    15,
    -2,
    -2,
    8,
    8,
    8,
    8,
    -2,
    -2,
    17,
    -2,
    -2,
    17,
    8,
    -2,
    -2,
    15,
    -2,
    -2,
    8,
    -2,
    8,
    8,
    -2,
    -2,
    8,
    -2,
    -2,
    8,
    -2,
    0,
    8,
    8,
    -2,
    -2,
    -2,
    -2,
    8,
    8,
    8,
    8,
    8,
    17,
    -2,
    -2,
    0,
    -2,
    -2,
    8,
    17,
    -2,
    -2,
    8,
    -2,
    -2,
    8,
    15,
    -2,
    -2,
    8,
    0,
    -2,
    -2,
    -2,
    4,
    -2,
    -2,
    8,
    8,
    8,
    8,
    -2,
    8,
    -2,
    -2,
    18,
    -2,
    0,
    -2,
    -2,
    17,
    -2,
    -2,
    8,
    4,
    -2,
    -2,
    -2,
    8,
    8,
    17,
    8,
    8,
    8,
    -2,
    -2,
    -2,
    17,
    8,
    -2,
    -2,
    8,
    -2,
    -2,
    8,
    -2,
    8,
    0,
    -2,
    -2,
    -2,
    8,
    -2,
    8,
    -2,
    8,
    8,
    8,
    8,
    -2,
    -2,
    -2,
    18,
    -2,
    8,
    -2,
    -2,
    8,
    8,
    8,
    -2,
    -2,
    -2,
    8,
    -2,
    8,
    -2,
    -2,
    4,
    8,
    18,
    -2,
    -2,
    -2,
    -2,
    17,
    17,
    15,
    8,
    -2,
    -2,
    -2,
    18,
    -2,
    -2,
    8,
    8,
    -2,
    0,
    0,
    -2,
    -2,
    -2,
    -2,
    -2,
    3,
    15,
    -2,
    -2,
    -2,
    13,
    18,
    -2,
    -2,
    -2,
    8,
    8,
    -2,
    18,
    -2,
    -2,
    9,
    -2,
    -2,
    14,
    4,
    -2,
    1,
    -2,
    -2,
    8,
    8,
    0,
    -2,
    1,
    -2,
    -2,
    16,
    17,
    -2,
    -2,
    8,
    -2,
    10,
    -2,
    -2,
    13,
    18,
    -2,
    16,
    0,
    0,
    16,
    16,
    16,
    0,
    16,
    -2,
    -2,
    -2,
    16,
    16,
    0,
    16,
    0,
    15,
    -2,
    -2,
    15,
    -2,
    -2,
    -2,
    15,
    -2,
    16,
    -2,
    16,
    -2,
    -2,
    -2,
    -2,
    0,
    -2,
    -2,
    0,
    16,
    18,
    16,
    -2,
    16,
    15,
    -2,
    -2,
    -2,
    16,
    0,
    15,
    16,
    -2,
    16,
    -2,
    -2,
    -2,
    16,
    16,
    15,
    -2,
    -2,
    -2,
    15,
    -2,
    16,
    -2,
    -2,
    -2,
    16,
    -2,
    18,
    -2,
    0,
    18,
    -2,
    -2,
    -2,
    -2,
    16,
    -2,
    0,
    16,
    16,
    15,
    16,
    16,
    18,
    -2,
    16,
    -2,
    -2,
    15,
    -2,
    16,
    -2,
    -2,
    16,
    -2,
    -2,
    4,
    -2,
    -2,
    18,
    16,
    -2,
    16,
    -2,
    0,
    16,
    -2,
    -2,
    16,
    -2,
    -2,
    -2,
    16,
    0,
    15,
    -2,
    -2,
    -2,
    18,
    0,
    16,
    16,
    -2,
    0,
    -2,
    -2,
    0,
    -2,
    -2,
    15,
    15,
    16,
    -2,
    -2,
    18,
    -2,
    -2,
    -2,
    16,
    -2,
    -2,
    0,
    -2,
    15,
    -2,
    15,
    15,
    16,
    0,
    15,
    -2,
    -2,
    0,
    -2,
    -2,
    18,
    -2,
    -2,
    16,
    -2,
    -2,
    18,
    16,
    16,
    -2,
    -2,
    -2,
    16,
    -2,
    -2,
    4,
    -2,
    -2,
    16,
    16,
    16,
    0,
    16,
    16,
    0,
    18,
    16,
    -2,
    0,
    -2,
    16,
    -2,
    -2,
    16,
    18,
    16,
    -2,
    -2,
    16,
    -2,
    -2,
    16,
    15,
    -2,
    -2,
    16,
    -2,
    -2,
    -2,
    -2,
    16,
    -2,
    18,
    16,
    -2,
    16,
    16,
    0,
    -2,
    -2,
    -2,
    16,
    -2,
    16,
    -2,
    -2,
    -2,
    0,
    -2,
    -2,
    16,
    -2,
    -2,
    15,
    4,
    -2,
    -2,
    0,
    -2,
    0,
    -2,
    -2,
    0,
    -2,
    -2,
    3,
    -2,
    -2,
    6,
    14,
    -2,
    11,
    -2,
    3,
    0,
    13,
    8,
    -2,
    -2,
    4,
    0,
    8,
    8,
    15,
    -2,
    -2,
    17,
    0,
    -2,
    -2,
    -2,
    15,
    8,
    -2,
    8,
    17,
    -2,
    -2,
    4,
    8,
    8,
    -2,
    -2,
    -2,
    -2,
    -2,
    0,
    8,
    -2,
    8,
    -2,
    8,
    8,
    -2,
    -2,
    -2,
    8,
    8,
    -2,
    17,
    -2,
    17,
    -2,
    -2,
    -2,
    17,
    4,
    8,
    8,
    -2,
    4,
    -2,
    -2,
    8,
    -2,
    8,
    18,
    -2,
    -2,
    8,
    8,
    8,
    8,
    -2,
    0,
    -2,
    -2,
    8,
    -2,
    8,
    -2,
    -2,
    0,
    18,
    8,
    -2,
    -2,
    8,
    -2,
    -2,
    -2,
    -2,
    8,
    17,
    -2,
    -2,
    8,
    -2,
    8,
    8,
    8,
    0,
    -2,
    -2,
    -2,
    15,
    8,
    -2,
    -2,
    -2,
    8,
    8,
    8,
    8,
    8,
    -2,
    -2,
    -2,
    17,
    -2,
    -2,
    -2,
    8,
    0,
    -2,
    -2,
    8,
    8,
    -2,
    -2,
    -2,
    15,
    17,
    0,
    8,
    17,
    8,
    -2,
    8,
    0,
    -2,
    -2,
    8,
    -2,
    8,
    -2,
    -2,
    8,
    8,
    -2,
    -2,
    -2,
    8,
    -2,
    8,
    0,
    -2,
    -2,
    8,
    8,
    15,
    -2,
    -2,
    -2,
    -2,
    8,
    15,
    8,
    8,
    -2,
    4,
    -2,
    -2,
    -2,
    8,
    -2,
    8,
    -2,
    8,
    8,
    -2,
    -2,
    -2,
    8,
    15,
    4,
    -2,
    -2,
    -2,
    15,
    -2,
    -2,
    8,
    -2,
    8,
    0,
    -2,
    -2,
    17,
    0,
    8,
    -2,
    8,
    -2,
    -2,
    -2,
    -2,
    18,
    8,
    8,
    8,
    8,
    8,
    8,
    4,
    -2,
    -2,
    17,
    -2,
    -2,
    17,
    -2,
    -2,
    18,
    -2,
    8,
    -2,
    -2,
    0,
    -2,
    -2,
    -2,
    18,
    8,
    -2,
    -2,
    -2,
    0,
    18,
    8,
    -2,
    8,
    8,
    8,
    -2,
    -2,
    -2,
    8,
    -2,
    -2,
    8,
    8,
    4,
    -2,
    -2,
    18,
    -2,
    -2,
    -2,
    8,
    15,
    -2,
    -2,
    8,
    4,
    -2,
    4,
    -2,
    -2,
    8,
    -2,
    -2,
    17,
    15,
    18,
    -2,
    -2,
    -2,
    -2,
    17,
    -2,
    -2,
    8,
    -2,
    8,
    19,
    -2,
    -2,
    -2,
    8,
    1,
    14,
    -2,
    18,
    10,
    -2,
    15,
    18,
    -2,
    12,
    -2,
    -2,
    12,
    -2,
    -2,
    1,
    19,
    15,
    -2,
    -2,
    -2,
    10,
    -2,
    -2,
    15,
    -2,
    11,
    -2,
    1,
    -2,
    -2,
    4,
    3,
    8,
    9,
    5,
    1,
    4,
    -2,
    15,
    0,
    0,
    -2,
    -2,
    -2,
    0,
    -2,
    -2,
    -2,
    0,
    -2,
    -2,
    0,
    -2,
    -2,
    -2,
    3,
    -2,
    3,
    -2,
    19,
    -2,
    -2,
    13,
    -2,
    12,
    9,
    8,
    20,
    -2,
    13,
    -2,
    16,
    19,
    -2,
    -2,
    -2,
    20,
    -2,
    -2,
    19,
    11,
    11,
    8,
    19,
    19,
    20,
    6,
    -2,
    16,
    18,
    1,
    -2,
    0,
    -2,
    15,
    -2,
    -2,
    0,
    -2,
    0,
    -2,
    -2,
    2,
    16,
    4,
    16,
    -2,
    -2,
    4,
    -2,
    -2,
    -2,
    -2,
    -2,
    9,
    15,
    16,
    15,
    1,
    15,
    18,
    -2,
    -2,
    4,
    -2,
    -2,
    15,
    -2,
    17,
    -2,
    -2,
    17,
    15,
    3,
    -2,
    -2,
    17,
    -2,
    -2,
    6,
    19,
    -2,
    -2,
    4,
    -2,
    -2,
    16,
    -2,
    -2,
    0,
    15,
    -2,
    4,
    0,
    -2,
    -2,
    0,
    -2,
    -2,
    4,
    -2,
    0,
    0,
    0,
    -2,
    -2,
    15,
    -2,
    -2,
    -2,
    10,
    2,
    2,
    17,
    -2,
    -2,
    -2,
    -2,
    10,
    14,
    -2,
    15,
    -2,
    -2,
    2,
    19,
    10,
    -2,
    -2,
    -2,
    13,
    -2,
    -2,
    10,
    13,
    -2,
    12,
    10,
    9,
    -2,
    19,
    -2,
    -2,
    19,
    -2,
    -2,
    4,
    -2,
    -2,
    2,
    -2,
    -2,
    9,
    18,
    1,
    11,
    2,
    18,
    3,
    18,
    18,
    -2,
    -2,
    8,
    -2,
    -2,
    8,
    14,
    -2,
    -2,
    0,
    -2,
    -2,
    8,
    8,
    8,
    -2,
    -2,
    8,
    -2,
    -2,
    8,
    8,
    -2,
    -2,
    8,
    -2,
    -2,
    11,
    8,
    0,
    9,
    -2,
    -2,
    -2,
    -2,
    -2,
    13,
    3,
    -2,
    -2,
    -2,
    14,
    -2,
    -2,
    8,
    8,
    8,
    8,
    8,
    -2,
    8,
    17,
    -2,
    -2,
    15,
    -2,
    -2,
    8,
    0,
    18,
    -2,
    -2,
    15,
    -2,
    -2,
    8,
    0,
    -2,
    -2,
    8,
    -2,
    -2,
    8,
    8,
    15,
    18,
    -2,
    -2,
    8,
    -2,
    -2,
    -2,
    15,
    19,
    -2,
    -2,
    4,
    18,
    -2,
    -2,
    8,
    -2,
    -2,
    8,
    15,
    16,
    0,
    0,
    -2,
    -2,
    8,
    -2,
    -2,
    -2,
    0,
    17,
    8,
    -2,
    -2,
    8,
    -2,
    -2,
    8,
    8,
    -2,
    -2,
    15,
    -2,
    -2,
    16,
    8,
    8,
    8,
    -2,
    -2,
    8,
    -2,
    -2,
    8,
    17,
    -2,
    -2,
    8,
    -2,
    -2,
    -2,
    13,
    -2,
    -2,
    4,
    -2,
    -2,
    2,
    -2,
    8,
    -2,
    -2,
    12,
    0,
    13,
    -2,
    2,
    -2,
    17,
    -2,
    -2,
    20,
    1,
    9,
    4,
    0,
    18,
    8,
    3,
    -2,
    -2,
    -2,
    18,
    -2,
    -2,
    18,
    4,
    5,
    -2,
    -2,
    -2,
    0,
    0,
    -2,
    -2,
    -2,
    3,
    -2,
    10,
    -2,
    -2,
    9,
    12,
    10,
    14,
    0,
    15,
    -2,
    -2,
    -2,
    -2,
    10,
    19,
    -2,
    -2,
    1,
    16,
    -2,
    -2,
    13,
    -2,
    -2,
    12,
    -2,
    1,
    3,
    -2,
    3,
    -2,
    -2,
    -2,
    9,
    3,
    15,
    -2,
    -2,
    -2,
    3,
    3,
    18,
    -2,
    -2,
    16,
    -2,
    15,
    -2,
    -2,
    2,
    8,
    -2,
    -2,
    1,
    12,
    -2,
    -2,
    2,
    -2,
    -2,
    2,
    -2,
    19,
    -2,
    -2,
    2,
    9,
    -2,
    12,
    -2,
    -2,
    19,
    -2,
    -2,
    12,
    -2,
    10,
    18,
    11,
    8,
    13,
    -2,
    -2,
    -2,
    -2,
    -2,
    12,
    16,
    9,
    2,
    -2,
    -2,
    -2,
    3,
    3,
    16,
    -2,
    4,
    -2,
    -2,
    1,
    -2,
    -2,
    14,
    19,
    11,
    -2,
    -2,
    -2,
    20,
    14,
    19,
    11,
    -2,
    -2,
    12,
    -2,
    -2,
    3,
    3,
    -2,
    -2,
    -2,
    2,
    -2,
    -2,
    12,
    -2,
    16,
    -2,
    -2,
    8,
    13,
    -2,
    -2,
    -2,
    8,
    3,
    11,
    -2,
    12,
    10,
    19,
    14,
    15,
    -2,
    -2,
    3,
    -2,
    -2,
    3,
    10,
    -2,
    3,
    -2,
    -2,
    17,
    -2,
    -2,
    3,
    -2,
    -2,
    6,
    0,
    -2,
    -2,
    -2,
    9,
    -2,
    3,
    -2,
    -2,
    6,
    -2,
    -2,
    8,
    3,
    3,
    -2,
    2,
    10,
    3,
    19,
    0,
    -2,
    3,
    14,
    -2,
    -2,
    19,
    -2,
    20,
    -2,
    -2,
    -2,
    3,
    3,
    3,
    14,
    4,
    -2,
    -2,
    -2,
    18,
    -2,
    -2,
    3,
    -2,
    -2,
    3,
    -2,
    -2,
    3,
    -2,
    -2,
    3,
    -2,
    -2,
    14,
    18,
    -2,
    -2,
    -2,
    11,
    -2,
    19,
    -2,
    -2
  ],
  "threshold": [
    1.381443738937378,
    -0.555549830198288,
    1.352352261543274,
    -0.007078960072249174,
    -0.4978220760822296,
    -0.43682482838630676,
    -0.18297843635082245,
    -0.4368795305490494,
    0.39741194248199463,
    0.8700491786003113,
    -2.0,
    0.7258354425430298,
    1.3471038341522217,
    0.2774527370929718,
    1.8642462491989136,
    -2.0,
    -2.0,
    -2.0,
    1.46042200922966,
    -2.0,
    -2.0,
    -2.0,
    -0.23780041933059692,
    -0.009030359797179699,
    -0.2840341180562973,
    -2.0,
    -2.0,
    -2.0,
    -0.44005246460437775,
    -2.0,
    -0.36288321018218994,
    2.864614248275757,
    -2.0,
    -2.0,
    -2.0,
    -0.007729261415079236,
    0.19840988516807556,
    -0.4393972307443619,
    -0.12563501670956612,
    -0.43939827382564545,
    -0.28811779618263245,
    -0.3628915548324585,
    -0.1253724992275238,
    -2.0,
    -0.28811824321746826,
    -0.13403530418872833,
    -2.0,
    -0.2881186753511429,
    -0.4394010752439499,
    -2.0,
    -2.0,
    -2.0,
    -0.43940095603466034,
    -2.0,
    -2.0,
    -0.3628825694322586,
    -0.577702134847641,
    -0.288118913769722,
    -0.3628873974084854,
    -2.0,
    -2.0,
    -2.0,
    -2.0,
    -2.0,
    -0.362880676984787,
    -0.21891437470912933,
    -0.28809893131256104,
    -0.22268617898225784,
    -2.0,
    -0.21935857832431793,
    -0.4393986016511917,
    -2.0,
    -2.0,
    -2.0,
    -0.2880987077951431,
    -2.0,
    -0.2024955078959465,
    -2.0,
    -0.2880984991788864,
    -2.0,
    -2.0,
    -0.43940000236034393,
    -0.1873776540160179,
    -0.4394000321626663,
    -2.0,
    -2.0,
    -0.1418091356754303,
    -0.2881115823984146,
    -2.0,
    -2.0,
    -0.15447280555963516,
    -2.0,
    -2.0,
    -0.28811025619506836,
    -0.28811047971248627,
    -0.43939997255802155,
    -2.0,
    -2.0,
    -2.0,
    -0.439399316906929,
    -0.2881060391664505,
    -2.0,
    -2.0,
    -0.21754060685634613,
    -2.0,
    -2.0,
    -0.36288006603717804,
    -2.0,
    -2.0,
    -0.43939773738384247,
    -0.3628804683685303,
    -0.43939803540706635,
    -0.43939806520938873,
    -0.22530370205640793,
    -0.22702720016241074,
    -2.0,
    -0.28809671103954315,
    -2.0,
    -2.0,
    -0.18933115899562836,
    -0.43939824402332306,
    -2.0,
    -2.0,
    -2.0,
    -2.0,
    -0.2880953848361969,
    -0.2063959762454033,
    -0.43939797580242157,
    -2.0,
    -2.0,
    -0.4665645509958267,
    -2.0,
    -2.0,
    -0.22895275801420212,
    -0.4393978863954544,
    -2.0,
    -0.43939782679080963,
    -2.0,
    -2.0,
    -2.0,
    -0.18390801548957825,
    -2.0,
    -0.28811268508434296,
    -0.3628779649734497,
    -2.0,
    -2.0,
    -2.0,
    -0.43939734995365143,
    -0.28809139132499695,
    -0.23239965736865997,
    -0.21171781420707703,
    -0.21198146045207977,
    -2.0,
    -2.0,
    -0.28809206187725067,
    -0.21118135005235672,
    -2.0,
    -2.0,
    -2.0,
    -0.18797249346971512,
    -0.221255324780941,
    -0.4393976777791977,
    -2.0,
    -2.0,
    -2.0,
    -0.2881118059158325,
    -2.0,
    -2.0,
    -0.4393973797559738,
    -2.0,
    -2.0,
    -0.2880907207727432,
    -0.362884059548378,
    -2.0,
    -2.0,
    -0.43939729034900665,
    -2.0,
    -0.43939726054668427,
    -2.0,
    -2.0,
    -0.4394012540578842,
    -0.28812600672245026,
    -0.288126677274704,
    -2.0,
    -0.4394020587205887,
    -0.28812645375728607,
    -2.0,
    -2.0,
    -0.36289019882678986,
    -2.0,
    -2.0,
    -0.43940140306949615,
    0.006804083241149783,
    -0.016919670160859823,
    -0.4394014924764633,
    -0.4394015818834305,
    -0.28812290728092194,
    -2.0,
    -2.0,
    -0.4394015222787857,
    -2.0,
    -2.0,
    -0.2881217896938324,
    -2.0,
    -0.058599719777703285,
    -2.0,
    -2.0,
    -0.43940167129039764,
    -0.0016063007060438395,
    -2.0,
    -2.0,
    -2.0,
    0.015785138122737408,
    -2.0,
    0.07116179540753365,
    -0.4394018203020096,
    0.018384942784905434,
    -2.0,
    -2.0,
    -0.2881242334842682,
    -2.0,
    -2.0,
    -0.4394019991159439,
    -2.0,
    -2.0,
    -0.28812333941459656,
    -2.0,
    -0.4394013434648514,
    -0.2881211191415787,
    -2.0,
    -2.0,
    -0.10162819549441338,
    -0.08051607012748718,
    -2.0,
    -2.0,
    -2.0,
    0.39741194248199463,
    -2.0,
    -0.43940116465091705,
    -0.43940122425556183,
    -2.0,
    -0.116195198148489,
    -2.0,
    -0.2881225198507309,
    -2.0,
    -2.0,
    -0.12261306494474411,
    -2.0,
    -0.4394006282091141,
    -0.43940097093582153,
    -0.4394010752439499,
    -0.009030359797179699,
    -2.0,
    -2.0,
    -2.0,
    -0.09539242461323738,
    -0.43940065801143646,
    -2.0,
    -2.0,
    -2.0,
    -2.0,
    -0.4393714815378189,
    -0.4393753260374069,
    -0.28807052969932556,
    -0.36286474764347076,
    -0.43939678370952606,
    -0.43939705193042755,
    -0.4393972009420395,
    -0.009030359797179699,
    -2.0,
    -2.0,
    -0.2880997061729431,
    -2.0,
    -0.288089394569397,
    -2.0,
    -2.0,
    -0.4393969029188156,
    -0.28808827698230743,
    -0.362883523106575,
    -2.0,
    -2.0,
    -0.23739764839410782,
    -2.0,
    -2.0,
    -0.23802398890256882,
    -0.2880869507789612,
    -2.0,
    -2.0,
    -0.43939682841300964,
    -2.0,
    -2.0,
    -0.2880784571170807,
    -0.4393962174654007,
    -0.2880966067314148,
    -0.3628784865140915,
    -2.0,
    -2.0,
    -0.43939660489559174,
    -2.0,
    -2.0,
    -0.3628690391778946,
    -0.22652269154787064,
    -2.0,
    -2.0,
    -0.2506435066461563,
    -2.0,
    -2.0,
    -0.4393916428089142,
    -0.22687368094921112,
    -0.2880709767341614,
    -2.0,
    -2.0,
    -0.28807319700717926,
    -2.0,
    -2.0,
    -0.3628813773393631,
    -2.0,
    -0.2543570548295975,
    -2.0,
    -2.0,
    -0.43939000368118286,
    -0.2215626910328865,
    -2.0,
    -0.288094162940979,
    -0.22066538035869598,
    -2.0,
    -2.0,
    -2.0,
    -0.3628547787666321,
    -0.3628574460744858,
    -0.43938885629177094,
    -2.0,
    -0.23264353722333908,
    -2.0,
    -2.0,
    -0.36285600066185,
    -0.4393881857395172,
    -2.0,
    -2.0,
    -0.2506127655506134,
    -2.0,
    -2.0,
    -0.23421596735715866,
    -2.0,
    -0.3628479689359665,
    -0.3628529757261276,
    -2.0,
    -2.0,
    -0.23395731300115585,
    -2.0,
    -2.0,
    -0.2879954129457474,
    -0.43939293920993805,
    -0.2880616635084152,
    -0.4393944889307022,
    -0.22835801541805267,
    -0.22846634685993195,
    -2.0,
    -2.0,
    -0.4393945783376694,
    -2.0,
    -2.0,
    -0.4393942207098007,
    -0.28806887567043304,
    -2.0,
    -2.0,
    -0.2880663126707077,
    -2.0,
    -2.0,
    -0.28805921971797943,
    -0.25369876623153687,
    -2.0,
    -0.23223301023244858,
    -2.0,
    -2.0,
    -0.2538508027791977,
    -0.4393929988145828,
    -2.0,
    -2.0,
    -2.0,
    -0.2880675941705704,
    -0.36285385489463806,
    -2.0,
    -0.23649496585130692,
    -2.0,
    -2.0,
    -0.2880461812019348,
    -0.4393920451402664,
    -0.28805699944496155,
    -2.0,
    -2.0,
    -0.2880643755197525,
    -2.0,
    -2.0,
    -0.26169005036354065,
    -0.2427438572049141,
    -2.0,
    -2.0,
    -0.4393908232450485,
    -2.0,
    -2.0,
    -0.43937987089157104,
    -0.26708485186100006,
    -0.26719410717487335,
    -0.4393800050020218,
    -0.28797201812267303,
    -2.0,
    -2.0,
    -2.0,
    -2.0,
    -0.43938450515270233,
    -2.0,
    -0.2879903167486191,
    -0.2879941016435623,
    -2.0,
    -2.0,
    -0.2664075940847397,
    -2.0,
    -2.0,
    -0.26924459636211395,
    -0.4393759071826935,
    -0.4393760561943054,
    -0.24887966364622116,
    -2.0,
    -2.0,
    -2.0,
    -0.24910997599363327,
    -0.2879280745983124,
    -2.0,
    -2.0,
    -0.269555926322937,
    -2.0,
    -2.0,
    -0.4393770098686218,
    -0.2690296769142151,
    -0.439377099275589,
    -2.0,
    -2.0,
    -0.2684716731309891,
    -2.0,
    -2.0,
    -0.28793729841709137,
    -0.2486586794257164,
    -2.0,
    -2.0,
    -2.0,
    -0.2657288908958435,
    -0.2494479864835739,
    -0.4393717795610428,
    -0.24961621314287186,
    -0.250013068318367,
    -0.27062615752220154,
    -2.0,
    -0.27061882615089417,
    -2.0,
    -2.0,
    -0.28791432082653046,
    -0.2496936023235321,
    -2.0,
    -2.0,
    -0.4393729716539383,
    -2.0,
    -2.0,
    -0.4393744319677353,
    -2.0,
    -0.2699476182460785,
    -0.2699822634458542,
    -2.0,
    -2.0,
    -2.0,
    -0.43937166035175323,
    -0.2502276599407196,
    -0.287899449467659,
    -2.0,
    -2.0,
    -0.4393717497587204,
    -2.0,
    -2.0,
    -0.250279501080513,
    -2.0,
    -2.0,
    -0.43937191367149353,
    -0.3628123551607132,
    -0.3628281205892563,
    -0.43937352299690247,
    -0.2879258543252945,
    -2.0,
    -2.0,
    -0.36286303400993347,
    -2.0,
    -2.0,
    -0.3628142476081848,
    -2.0,
    -0.24579691141843796,
    -2.0,
    -2.0,
    -0.3628038913011551,
    -0.43937350809574127,
    -0.43937353789806366,
    -2.0,
    -2.0,
    -0.2880209982395172,
    -2.0,
    -2.0,
    -0.24594265222549438,
    -0.36280252039432526,
    -2.0,
    -2.0,
    -0.26645177602767944,
    -2.0,
    -2.0,
    -0.3628014624118805,
    -2.0,
    -0.2880156636238098,
    -2.0,
    -0.2464255839586258,
    -2.0,
    -0.4393716901540756,
    -2.0,
    -2.0,
    -0.265561580657959,
    -2.0,
    -0.24485894292593002,
    -0.2880273759365082,
    -0.2449084296822548,
    -2.0,
    -2.0,
    -2.0,
    -2.0,
    -0.2579800635576248,
    -0.3188219666481018,
    -0.23724715411663055,
    -0.3199975788593292,
    0.5860594213008881,
    0.39741194248199463,
    -2.0,
    -0.27820712327957153,
    0.3638838678598404,
    -2.0,
    -2.0,
    -0.2579803019762039,
    -2.0,
    -2.0,
    -2.0,
    14.36426305770874,
    13.746473789215088,
    0.27444660663604736,
    0.19119329005479813,
    -2.0,
    -2.0,
    0.8463075757026672,
    -2.0,
    -2.0,
    1.4676357507705688,
    -2.0,
    1.5032477378845215,
    -2.0,
    -2.0,
    3.1161036491394043,
    2.035913825035095,
    2.0294196605682373,
    -2.0,
    -2.0,
    19.997864723205566,
    -2.0,
    -2.0,
    3.1170270442962646,
    -2.0,
    -2.0,
    -0.27821363508701324,
    -0.25798726081848145,
    -2.0,
    -2.0,
    -0.23246926069259644,
    -0.29622720181941986,
    -0.35038846731185913,
    -2.0,
    -2.0,
    -2.0,
    -2.0,
    -0.007816566852852702,
    -0.24771809577941895,
    -2.0,
    0.05064242985099554,
    -0.5552518665790558,
    -2.0,
    -0.38291582465171814,
    -2.0,
    -2.0,
    2.156786061823368,
    -0.28548045456409454,
    0.39741194248199463,
    -2.0,
    -2.0,
    -2.0,
    -2.0,
    -0.5662378668785095,
    -2.0,
    -2.0,
    -0.43930406868457794,
    -0.3628605604171753,
    -0.4393336921930313,
    -0.2726473957300186,
    -0.2536972612142563,
    -0.2740511894226074,
    -0.2877013087272644,
    -2.0,
    -2.0,
    -0.2740478813648224,
    -2.0,
    -2.0,
    -0.4393559694290161,
    -0.27296707034111023,
    -2.0,
    -2.0,
    -0.2877815216779709,
    -2.0,
    -2.0,
    -0.2505902200937271,
    -0.27261367440223694,
    -0.27264344692230225,
    -2.0,
    -2.0,
    -0.2878870218992233,
    -2.0,
    -2.0,
    -0.2504521608352661,
    -0.2709151357412338,
    -2.0,
    -2.0,
    -0.2708536237478256,
    -2.0,
    -2.0,
    -0.2876146584749222,
    -2.0,
    -0.27559003233909607,
    -0.27563609182834625,
    -0.2874506860971451,
    -2.0,
    -2.0,
    -0.4393128454685211,
    -2.0,
    -2.0,
    -0.4393145740032196,
    -0.25506095588207245,
    -2.0,
    -2.0,
    -2.0,
    -2.0,
    0.39741194248199463,
    -0.06524262204766273,
    -2.0,
    -0.27820612490177155,
    -2.0,
    -2.0,
    -0.43926481902599335,
    -0.4392649233341217,
    -0.4392738789319992,
    -0.2560432255268097,
    -0.43927912414073944,
    -2.0,
    -2.0,
    -0.43928852677345276,
    -2.0,
    -2.0,
    -0.43926678597927094,
    -2.0,
    -0.43926675617694855,
    -2.0,
    -2.0,
    -2.0,
    -0.25015591084957123,
    -0.5605639517307281,
    -2.0,
    -2.0,
    -0.27817586064338684,
    -0.11086029931902885,
    -0.31044189631938934,
    -2.0,
    -2.0,
    -0.2579775005578995,
    -2.0,
    -2.0,
    -0.24384699761867523,
    -0.24822545796632767,
    -2.0,
    -2.0,
    -0.27817459404468536,
    -2.0,
    -2.0,
    0.39741194248199463,
    -2.0,
    0.33412866294384,
    -0.2881271094083786,
    -0.439402237534523,
    -2.0,
    -0.2881273329257965,
    -2.0,
    -2.0,
    -2.0,
    -0.28812994062900543,
    4.788243055343628,
    -0.4394025653600693,
    -2.0,
    -2.0,
    -0.36289168894290924,
    6.806735038757324,
    -2.0,
    -2.0,
    -2.0,
    2.013431668281555,
    -0.4394025057554245,
    -2.0,
    -0.28812839090824127,
    -0.2881292700767517,
    -2.0,
    -0.4394024461507797,
    -2.0,
    0.41692642867565155,
    -2.0,
    -2.0,
    -0.4394023269414902,
    -2.0,
    -2.0,
    -2.0,
    0.0013784266775473952,
    -0.18297918885946274,
    -0.0012237699993420392,
    -0.18297945708036423,
    2.0432403087615967,
    -0.46188706159591675,
    -0.0025248682941310108,
    -0.3072580397129059,
    -0.5604822635650635,
    -0.46659840643405914,
    -0.006428163265809417,
    -2.0,
    -2.0,
    -0.5764124095439911,
    -2.0,
    -2.0,
    -2.0,
    -0.003825966501608491,
    -0.43938714265823364,
    -0.2881549000740051,
    -2.0,
    -2.0,
    -0.018374168954323977,
    -2.0,
    -2.0,
    -0.23957739025354385,
    -2.0,
    -2.0,
    -0.3481636196374893,
    -2.0,
    -2.0,
    0.07539024949073792,
    -2.0,
    -2.0,
    1.5744373202323914,
    -2.0,
    -0.18297969549894333,
    -0.5621241629123688,
    -2.0,
    -2.0,
    4.360485315322876,
    2.563792586326599,
    -2.0,
    -2.0,
    -2.0,
    -0.18297939747571945,
    -2.0,
    -0.2392626702785492,
    -2.0,
    -2.0,
    2.007032036781311,
    -0.2774728089570999,
    -0.009277318138629198,
    -2.0,
    -2.0,
    -2.0,
    -2.0,
    -2.0,
    -2.0,
    -0.25771109759807587,
    -0.5623870491981506,
    -0.00442871917039156,
    -0.182972714304924,
    -0.2579846829175949,
    -0.07387859374284744,
    -0.07463504746556282,
    -0.2579849064350128,
    -0.25798705220222473,
    -2.0,
    -2.0,
    -2.0,
    -2.0,
    -0.2903738021850586,
    -0.010300693567842245,
    -0.27821068465709686,
    -2.0,
    -2.0,
    -2.0,
    -2.0,
    -0.14545592293143272,
    -2.0,
    -0.05839691124856472,
    -0.01433421391993761,
    -2.0,
    -0.08869437128305435,
    -2.0,
    -0.073424581438303,
    -0.18297354131937027,
    -2.0,
    -0.2579842507839203,
    0.0032821910572238266,
    -2.0,
    -2.0,
    -2.0,
    -2.0,
    -2.0,
    -0.2725517749786377,
    -0.25798308849334717,
    -2.0,
    -0.18621045351028442,
    -0.1829587072134018,
    -0.3913046568632126,
    -0.19290101528167725,
    -2.0,
    -0.3930061459541321,
    -2.0,
    -2.0,
    -2.0,
    -0.2579357326030731,
    -2.0,
    -0.43269117176532745,
    -0.4384365975856781,
    -2.0,
    -2.0,
    -2.0,
    -0.36168479919433594,
    -2.0,
    -2.0,
    -2.0,
    -0.25798533856868744,
    0.5315513908863068,
    -0.4406542181968689,
    -2.0,
    -2.0,
    0.8134069442749023,
    1.2018740773200989,
    -2.0,
    -2.0,
    -0.00879040127620101,
    -2.0,
    -2.0,
    -0.2896682918071747,
    -0.004087798995897174,
    -0.1829749196767807,
    -2.0,
    -0.2907891571521759,
    -0.2907921075820923,
    0.08176824450492859,
    -0.2908054292201996,
    -2.0,
    -2.0,
    -2.0,
    -2.0,
    -0.2907732427120209,
    -2.0,
    0.08184594660997391,
    -2.0,
    -2.0,
    -0.003423130721785128,
    0.08335602656006813,
    -0.0034397828858345747,
    -0.2906486839056015,
    -2.0,
    -2.0,
    -2.0,
    -2.0,
    -2.0,
    0.06494519114494324,
    -0.2620407044887543,
    0.062206512317061424,
    0.15028251707553864,
    0.058226434513926506,
    -0.26484668254852295,
    0.055591881275177,
    -0.0016416733851656318,
    -2.0,
    -2.0,
    -0.26487571001052856,
    -2.0,
    -2.0,
    -2.0,
    -0.26390059292316437,
    -0.2641080468893051,
    -2.0,
    0.059420084580779076,
    -2.0,
    -2.0,
    0.06034301966428757,
    -2.0,
    -0.18297571688890457,
    -2.0,
    -2.0,
    -2.0,
    0.15302257984876633,
    0.062625452876091,
    -0.26280130445957184,
    -2.0,
    0.062375325709581375,
    -2.0,
    -2.0,
    -2.0,
    0.06402108818292618,
    -0.262167289853096,
    -2.0,
    -2.0,
    -2.0,
    -2.0,
    -0.27821125090122223,
    -2.0,
    0.06524720415472984,
    -0.18297576159238815,
    -2.0,
    -2.0,
    -0.2611667662858963,
    -2.0,
    0.15563271939754486,
    -2.0,
    -2.0,
    -0.46168389916419983,
    -0.25772710144519806,
    -0.25784797966480255,
    -0.29067765176296234,
    -0.2907932996749878,
    -2.0,
    -2.0,
    -2.0,
    -0.3585435748100281,
    -2.0,
    -2.0,
    -0.1822493001818657,
    -2.0,
    -2.0,
    -0.00879040127620101,
    -2.0,
    -2.0,
    1.2081539630889893,
    -0.010331457946449518,
    -0.2881038188934326,
    1.1580978631973267,
    -0.43843865394592285,
    -0.21134397387504578,
    -0.21190829575061798,
    -0.2124631702899933,
    -2.0,
    -2.0,
    -2.0,
    -0.439399316906929,
    -0.44005246460437775,
    -0.4394012540578842,
    0.9930421113967896,
    -2.0,
    -2.0,
    -2.0,
    -0.4394019693136215,
    -0.28812600672245026,
    -2.0,
    -0.28812578320503235,
    -2.0,
    -2.0,
    -0.4393998831510544,
    -0.43940185010433197,
    -0.43940192461013794,
    -2.0,
    -2.0,
    -0.28812290728092194,
    -2.0,
    -2.0,
    0.08506617695093155,
    -0.43939943611621857,
    -2.0,
    -2.0,
    -0.2148098200559616,
    -2.0,
    -2.0,
    -0.22241852432489395,
    -0.21018601208925247,
    -0.22333449125289917,
    -2.0,
    -2.0,
    0.0452672578394413,
    -2.0,
    -2.0,
    -0.43939928710460663,
    -2.0,
    -2.0,
    -0.43940146267414093,
    -0.28812257945537567,
    -0.4394017308950424,
    0.7192591726779938,
    -2.0,
    0.07254820317029953,
    -0.10826404020190239,
    -2.0,
    0.030025048181414604,
    -2.0,
    -2.0,
    -0.4394020289182663,
    -2.0,
    -2.0,
    -0.1317082792520523,
